{"learner":{"attributes":{"scikit_learn":"{\"_estimator_type\": \"regressor\"}"},"feature_names":["w_GC=F","w_SI=F","w_BTC-USD","w_ETH-USD","w_^NSEI_USD","w_NAM-INDIA.NS_USD","Context_Momentum","Context_Vol"],"feature_types":["float","float","float","float","float","float","float","float"],"gradient_booster":{"model":{"cats":{"enc":[],"feature_segments":[],"sorted_idx":[]},"gbtree_model_param":{"num_parallel_tree":"1","num_trees":"150"},"iteration_indptr":[0,1,2,3,4,5,6,7,8,9,10,11,12,13,14,15,16,17,18,19,20,21,22,23,24,25,26,27,28,29,30,31,32,33,34,35,36,37,38,39,40,41,42,43,44,45,46,47,48,49,50,51,52,53,54,55,56,57,58,59,60,61,62,63,64,65,66,67,68,69,70,71,72,73,74,75,76,77,78,79,80,81,82,83,84,85,86,87,88,89,90,91,92,93,94,95,96,97,98,99,100,101,102,103,104,105,106,107,108,109,110,111,112,113,114,115,116,117,118,119,120,121,122,123,124,125,126,127,128,129,130,131,132,133,134,135,136,137,138,139,140,141,142,143,144,145,146,147,148,149,150],"tree_info":[0,0,0,0,0,0,0,0,0,0,0,0,0,0,0,0,0,0,0,0,0,0,0,0,0,0,0,0,0,0,0,0,0,0,0,0,0,0,0,0,0,0,0,0,0,0,0,0,0,0,0,0,0,0,0,0,0,0,0,0,0,0,0,0,0,0,0,0,0,0,0,0,0,0,0,0,0,0,0,0,0,0,0,0,0,0,0,0,0,0,0,0,0,0,0,0,0,0,0,0,0,0,0,0,0,0,0,0,0,0,0,0,0,0,0,0,0,0,0,0,0,0,0,0,0,0,0,0,0,0,0,0,0,0,0,0,0,0,0,0,0,0,0,0,0,0,0,0,0,0],"trees":[{"base_weights":[1.4338457E-8,-7.922918E-2,1.8404934E-1,-9.798042E-2,1.3871564E-1,2.0633239E-1,5.033409E-2,-7.262116E-2,-1.322151E-1,6.947235E-2,1.7848992E-1,1.8933418E-1,3.1558585E-1,1.6974244E-2,9.09174E-2,-5.5749174E-2,-1.2472488E-1,-1.2071474E-1,-1.4955944E-1,3.8642514E-2,1.5587527E-1,1.2696357E-1,1.8935649E-1,6.2026802E-2,2.0540178E-1,2.5821936E-1,3.2834646E-1,-2.7161343E-3,9.592461E-2,7.865745E-2,1.6631746E-1,-6.396883E-2,-1.4521505E-2,-1.3932593E-1,-8.553216E-2,-1.0789558E-1,-1.3706715E-1,-1.4220794E-1,-1.6501138E-1,2.0898938E-2,6.6082E-2,1.1799329E-1,1.6912717E-1,2.8031242E-1,1.1676828E-1,2.2956784E-1,1.6008966E-1,2.7790105E-2,1.2477319E-1,1.5529464E-1,2.1634406E-1,3.1084412E-1,2.0854475E-1,3.772495E-1,2.9241386E-1,-2.019393E-2,1.7679613E-2,6.801931E-2,1.4608704E-1,5.7248835E-2,1.3948357E-1,1.1985228E-1,1.7827547E-1,-3.863044E-3,-8.183221E-3,-3.8703654E-3,3.188307E-3,-1.4589089E-2,-8.6122565E-3,-9.837504E-3,-4.8919595E-3,-9.8967785E-3,-1.2280653E-2,-1.41180605E-2,-8.726429E-3,-1.3191245E-2,-1.5559091E-2,-1.5846264E-2,-1.721966E-2,6.3990377E-4,5.326991E-3,4.9204566E-3,9.116115E-3,7.3744315E-3,1.28232455E-2,1.2526748E-2,1.7941007E-2,2.8305445E-2,1.812934E-2,1.51648745E-2,9.379507E-3,2.5471637E-2,1.9615725E-2,1.31801665E-2,2.1599783E-2,1.1500624E-3,5.9615877E-3,1.0115616E-2,1.5960451E-2,2.9811824E-2,1.4221946E-2,2.5666317E-2,1.8643906E-2,3.4873754E-2,2.053012E-2,1.8377936E-2,2.1512609E-2,4.1446287E-2,3.2909874E-2,2.491565E-2,3.7750993E-2,-3.374029E-3,-6.325953E-4,1.8201586E-4,2.9349697E-3,8.221674E-3,5.0139907E-3,1.0321435E-2,1.5615867E-2,4.257065E-3,8.659674E-3,1.2062037E-2,1.759589E-2,2.5943894E-2,1.0918792E-2,2.1373166E-2,1.4858315E-2],"categories":[],"categories_nodes":[],"categories_segments":[],"categories_sizes":[],"default_left":[0,0,0,0,0,0,0,0,0,0,0,0,0,0,0,0,0,0,0,0,0,0,0,0,0,0,0,0,0,0,0,0,0,0,0,0,0,0,0,0,0,0,0,0,0,0,0,0,0,0,0,0,0,0,0,0,0,0,0,0,0,0,0,0,0,0,0,0,0,0,0,0,0,0,0,0,0,0,0,0,0,0,0,0,0,0,0,0,0,0,0,0,0,0,0,0,0,0,0,0,0,0,0,0,0,0,0,0,0,0,0,0,0,0,0,0,0,0,0,0,0,0,0,0,0,0,0],"id":0,"left_children":[1,3,5,7,9,11,13,15,17,19,21,23,25,27,29,31,33,35,37,39,41,43,45,47,49,51,53,55,57,59,61,63,65,67,69,71,73,75,77,79,81,83,85,87,89,91,93,95,97,99,101,103,105,107,109,111,113,115,117,119,121,123,125,-1,-1,-1,-1,-1,-1,-1,-1,-1,-1,-1,-1,-1,-1,-1,-1,-1,-1,-1,-1,-1,-1,-1,-1,-1,-1,-1,-1,-1,-1,-1,-1,-1,-1,-1,-1,-1,-1,-1,-1,-1,-1,-1,-1,-1,-1,-1,-1,-1,-1,-1,-1,-1,-1,-1,-1,-1,-1,-1,-1,-1,-1,-1,-1],"loss_changes":[1.1665693E4,2.28554E3,7.173154E2,4.4705322E2,1.2200806E2,3.8316992E2,4.6557465E1,2.6005005E2,4.369043E1,4.305677E1,1.5732056E1,3.65271E2,2.0252441E1,2.9344185E1,1.4328995E1,7.57262E1,4.1396484E1,2.7606567E1,9.900391E0,5.8002186E0,2.1140823E0,7.6343613E0,2.7309875E1,4.2991188E1,8.6904785E1,1.3162598E1,3.9818848E1,5.3863034E0,5.2644997E0,1.7372513E1,1.1837997E0,8.4329834E1,4.1687325E1,1.8400696E1,9.231537E0,9.82135E0,1.1849243E1,8.136963E0,1.2977295E0,3.397002E0,1.9760017E0,4.91189E-1,1.3968353E0,3.1496048E-2,3.6718292E0,8.172485E0,2.1246246E1,6.712921E0,5.7956085E0,5.303784E1,1.5686865E2,9.746887E0,3.852005E-1,1.7103027E1,4.813855E1,1.5284088E0,1.2905173E0,6.1093616E-1,5.6508064E-1,4.2497787E0,2.3690338E0,6.370778E-1,1.7821732E0,0E0,0E0,0E0,0E0,0E0,0E0,0E0,0E0,0E0,0E0,0E0,0E0,0E0,0E0,0E0,0E0,0E0,0E0,0E0,0E0,0E0,0E0,0E0,0E0,0E0,0E0,0E0,0E0,0E0,0E0,0E0,0E0,0E0,0E0,0E0,0E0,0E0,0E0,0E0,0E0,0E0,0E0,0E0,0E0,0E0,0E0,0E0,0E0,0E0,0E0,0E0,0E0,0E0,0E0,0E0,0E0,0E0,0E0,0E0,0E0,0E0,0E0,0E0,0E0],"parents":[2147483647,0,0,1,1,2,2,3,3,4,4,5,5,6,6,7,7,8,8,9,9,10,10,11,11,12,12,13,13,14,14,15,15,16,16,17,17,18,18,19,19,20,20,21,21,22,22,23,23,24,24,25,25,26,26,27,27,28,28,29,29,30,30,31,31,32,32,33,33,34,34,35,35,36,36,37,37,38,38,39,39,40,40,41,41,42,42,43,43,44,44,45,45,46,46,47,47,48,48,49,49,50,50,51,51,52,52,53,53,54,54,55,55,56,56,57,57,58,58,59,59,60,60,61,61,62,62],"right_children":[2,4,6,8,10,12,14,16,18,20,22,24,26,28,30,32,34,36,38,40,42,44,46,48,50,52,54,56,58,60,62,64,66,68,70,72,74,76,78,80,82,84,86,88,90,92,94,96,98,100,102,104,106,108,110,112,114,116,118,120,122,124,126,-1,-1,-1,-1,-1,-1,-1,-1,-1,-1,-1,-1,-1,-1,-1,-1,-1,-1,-1,-1,-1,-1,-1,-1,-1,-1,-1,-1,-1,-1,-1,-1,-1,-1,-1,-1,-1,-1,-1,-1,-1,-1,-1,-1,-1,-1,-1,-1,-1,-1,-1,-1,-1,-1,-1,-1,-1,-1,-1,-1,-1,-1,-1,-1],"split_conditions":[2.9293883E-1,4.5550764E-1,7.5454E-2,3.2132116E-1,6.6276175E-1,6.720418E-1,3.8836828E-1,3.0743483E-1,4.7248656E-1,1.9245249E-1,1.2383555E-1,2.6296327E-1,1.2383555E-1,2.1636948E-1,2.2703153E-1,2.753928E-1,1.00704096E-1,1.4718837E-1,6.552611E-1,8.161347E-2,2.5705534E-1,-4.6300173E-2,1.4657323E-1,4.490731E-1,1.2383555E-1,5.3608295E-2,1.4657323E-1,8.332817E-2,3.434451E-1,5.168062E-1,1.2502557E-1,4.6882667E-2,1.434178E-1,2.0641673E-1,1.5054014E-1,6.0569406E-2,1.3286793E-1,1.4718837E-1,1.4657323E-1,5.619518E-1,5.288193E-1,1.248019E-1,1.2409899E-1,4.6228338E-2,1.1208628E-1,2.8389875E-2,1.7511722E-1,1.3940665E-1,5.431159E-1,-3.8384788E-2,1.4657323E-1,1.1823397E-1,8.6039275E-1,2.8389875E-2,1.7511722E-1,3.3537447E-1,3.2659087E-1,1.4716558E-1,1.2409899E-1,1.0319753E-1,5.9620726E-1,-4.6300173E-2,1.4716558E-1,-3.863044E-3,-8.183221E-3,-3.8703654E-3,3.188307E-3,-1.4589089E-2,-8.6122565E-3,-9.837504E-3,-4.8919595E-3,-9.8967785E-3,-1.2280653E-2,-1.41180605E-2,-8.726429E-3,-1.3191245E-2,-1.5559091E-2,-1.5846264E-2,-1.721966E-2,6.3990377E-4,5.326991E-3,4.9204566E-3,9.116115E-3,7.3744315E-3,1.28232455E-2,1.2526748E-2,1.7941007E-2,2.8305445E-2,1.812934E-2,1.51648745E-2,9.379507E-3,2.5471637E-2,1.9615725E-2,1.31801665E-2,2.1599783E-2,1.1500624E-3,5.9615877E-3,1.0115616E-2,1.5960451E-2,2.9811824E-2,1.4221946E-2,2.5666317E-2,1.8643906E-2,3.4873754E-2,2.053012E-2,1.8377936E-2,2.1512609E-2,4.1446287E-2,3.2909874E-2,2.491565E-2,3.7750993E-2,-3.374029E-3,-6.325953E-4,1.8201586E-4,2.9349697E-3,8.221674E-3,5.0139907E-3,1.0321435E-2,1.5615867E-2,4.257065E-3,8.659674E-3,1.2062037E-2,1.759589E-2,2.5943894E-2,1.0918792E-2,2.1373166E-2,1.4858315E-2],"split_indices":[3,2,4,0,2,3,3,4,0,3,7,2,7,2,2,2,3,7,0,3,3,6,7,3,7,6,7,2,2,3,7,0,3,2,2,6,3,7,7,2,2,7,7,4,7,6,7,2,3,6,7,7,3,6,7,3,3,7,7,2,3,6,7,0,0,0,0,0,0,0,0,0,0,0,0,0,0,0,0,0,0,0,0,0,0,0,0,0,0,0,0,0,0,0,0,0,0,0,0,0,0,0,0,0,0,0,0,0,0,0,0,0,0,0,0,0,0,0,0,0,0,0,0,0,0,0,0],"split_type":[0,0,0,0,0,0,0,0,0,0,0,0,0,0,0,0,0,0,0,0,0,0,0,0,0,0,0,0,0,0,0,0,0,0,0,0,0,0,0,0,0,0,0,0,0,0,0,0,0,0,0,0,0,0,0,0,0,0,0,0,0,0,0,0,0,0,0,0,0,0,0,0,0,0,0,0,0,0,0,0,0,0,0,0,0,0,0,0,0,0,0,0,0,0,0,0,0,0,0,0,0,0,0,0,0,0,0,0,0,0,0,0,0,0,0,0,0,0,0,0,0,0,0,0,0,0,0],"sum_hessian":[8E5,5.59254E5,2.40746E5,5.1495E5,4.4304E4,2.06357E5,3.4389E4,2.95823E5,2.19127E5,1.6165E4,2.8139E4,1.78576E5,2.7781E4,1.8875E4,1.5514E4,2.23464E5,7.2359E4,1.31766E5,8.7361E4,1.1915E4,4.25E3,4.903E3,2.3236E4,2.0013E4,1.58563E5,5.059E3,2.2722E4,1.5108E4,3.767E3,1.3346E4,2.168E3,1.86317E5,3.7147E4,5.2717E4,1.9642E4,7.3867E4,5.7899E4,5.9204E4,2.8157E4,7.237E3,4.678E3,1.104E3,3.146E3,3.04E2,4.599E3,9.785E3,1.3451E4,1.2949E4,7.064E3,2.8423E4,1.3014E5,2.454E3,2.605E3,9.62E3,1.3102E4,8.136E3,6.972E3,2.422E3,1.345E3,9.873E3,3.473E3,4.46E2,1.722E3,7.7041E4,1.09276E5,2.4421E4,1.2726E4,4.6925E4,5.792E3,1.454E4,5.102E3,4.6208E4,2.7659E4,5.348E4,4.419E3,3.3468E4,2.5736E4,1.4743E4,1.3414E4,4.999E3,2.238E3,2.798E3,1.88E3,2.09E2,8.95E2,6E2,2.546E3,2.94E2,1E1,1.824E3,2.775E3,5.579E3,4.206E3,8.934E3,4.517E3,8.566E3,4.383E3,4.212E3,2.852E3,2.382E3,2.6041E4,5.5417E4,7.4723E4,1.804E3,6.5E2,5.53E2,2.052E3,5.422E3,4.198E3,8.689E3,4.413E3,4.115E3,4.021E3,2.956E3,4.016E3,1.348E3,1.074E3,2.58E2,1.087E3,6.583E3,3.29E3,2.292E3,1.181E3,3E1,4.16E2,7.82E2,9.4E2],"tree_param":{"num_deleted":"0","num_feature":"8","num_nodes":"127","size_leaf_vector":"1"}},{"base_weights":[7.23641E-7,-7.197715E-2,1.641781E-1,-8.8655405E-2,1.2303875E-1,1.8514553E-1,4.396832E-2,-6.512023E-2,-1.1809898E-1,5.5534493E-2,1.6064629E-1,1.6985187E-1,2.842445E-1,1.0207572E-2,8.032487E-2,-4.740759E-2,-1.0788955E-1,-1.0577885E-1,-1.3224408E-1,2.9345576E-2,1.2066824E-1,1.16696455E-1,1.709966E-1,5.4521065E-2,1.8476573E-1,2.3292413E-1,2.9564002E-1,-7.404728E-3,7.679812E-2,6.710281E-2,1.4757976E-1,-3.3282224E-2,-6.5541506E-2,-1.2084021E-1,-6.791605E-2,-9.3923636E-2,-1.20747894E-1,-1.2635432E-1,-1.4851142E-1,1.6165085E-2,5.6152724E-2,8.9991495E-2,1.4746967E-1,2.3491172E-1,1.07129104E-1,2.0653984E-1,1.4127561E-1,2.4716461E-2,1.1430501E-1,1.4035709E-1,1.9470838E-1,3.968428E-1,2.1811691E-1,3.39929E-1,2.6315692E-1,-1.9914858E-2,1.5112543E-2,5.541553E-2,1.250137E-1,4.3664236E-2,1.12706095E-1,1.06394075E-1,1.5847069E-1,-4.1401084E-3,1.7571686E-3,-7.394516E-3,-3.042309E-3,-1.2957995E-2,-7.7701667E-3,-8.123872E-3,-3.143644E-3,-9.716541E-3,-5.0296295E-3,-1.2441392E-2,-7.141178E-3,-1.1674198E-2,-1.387613E-2,-1.4442748E-2,-1.592241E-2,-1.2545682E-4,3.4941398E-3,1.8711372E-3,6.603308E-3,7.4848714E-3,1.1291577E-2,1.054935E-2,1.5743222E-2,2.5510732E-2,1.7239897E-2,4.8250197E-3,1.2007611E-2,2.3154967E-2,1.7860016E-2,1.1083194E-2,1.9440284E-2,8.02934E-4,5.0411667E-3,9.067433E-3,1.4311333E-2,2.6843345E-2,1.2885659E-2,2.3151668E-2,1.6769638E-2,4.166426E-2,3.1460535E-2,2.7182167E-2,1.7900309E-2,3.730527E-2,2.9688677E-2,2.2413528E-2,3.3983346E-2,-9.789851E-4,-3.2734019E-3,-1.2379716E-3,2.12826E-3,2.1410724E-3,6.251804E-3,9.220715E-3,1.3353961E-2,2.6708355E-3,6.56455E-3,9.478208E-3,1.4807651E-2,2.249906E-2,9.8676495E-3,1.9643528E-2,1.3231741E-2],"categories":[],"categories_nodes":[],"categories_segments":[],"categories_sizes":[],"default_left":[0,0,0,0,0,0,0,0,0,0,0,0,0,0,0,0,0,0,0,0,0,0,0,0,0,0,0,0,0,0,0,0,0,0,0,0,0,0,0,0,0,0,0,0,0,0,0,0,0,0,0,0,0,0,0,0,0,0,0,0,0,0,0,0,0,0,0,0,0,0,0,0,0,0,0,0,0,0,0,0,0,0,0,0,0,0,0,0,0,0,0,0,0,0,0,0,0,0,0,0,0,0,0,0,0,0,0,0,0,0,0,0,0,0,0,0,0,0,0,0,0,0,0,0,0,0,0],"id":1,"left_children":[1,3,5,7,9,11,13,15,17,19,21,23,25,27,29,31,33,35,37,39,41,43,45,47,49,51,53,55,57,59,61,63,65,67,69,71,73,75,77,79,81,83,85,87,89,91,93,95,97,99,101,103,105,107,109,111,113,115,117,119,121,123,125,-1,-1,-1,-1,-1,-1,-1,-1,-1,-1,-1,-1,-1,-1,-1,-1,-1,-1,-1,-1,-1,-1,-1,-1,-1,-1,-1,-1,-1,-1,-1,-1,-1,-1,-1,-1,-1,-1,-1,-1,-1,-1,-1,-1,-1,-1,-1,-1,-1,-1,-1,-1,-1,-1,-1,-1,-1,-1,-1,-1,-1,-1,-1,-1],"loss_changes":[9.453734E3,1.8089639E3,6.145703E2,3.5503223E2,1.1123041E2,3.146162E2,4.4450348E1,2.1570789E2,3.965039E1,2.674142E1,1.2780823E1,3.0936084E2,1.6163574E1,2.2024817E1,1.5495911E1,5.1575592E1,4.3161377E1,2.1577759E1,1.0132446E1,3.9507494E0,3.6832504E0,6.0449524E0,2.402887E1,3.6697666E1,7.02959E1,1.21658325E1,3.2580566E1,4.18402E0,4.042738E0,1.5572876E1,1.2677841E0,4.6734978E1,2.6018097E1,2.3735718E1,9.915855E0,9.597168E0,9.715027E0,9.261475E0,1.2089233E0,2.452793E0,1.3623419E0,7.2019005E-1,9.862137E-1,4.6227455E-1,3.7805748E0,7.204132E0,2.0043777E1,5.893593E0,4.6515884E0,4.2885498E1,1.2934424E2,5.479126E-1,9.68132E0,1.3583252E1,3.9134583E1,1.2389534E0,9.001442E-1,6.563196E-1,3.250122E-1,3.5867157E0,3.122261E0,5.287962E-1,2.2209396E0,0E0,0E0,0E0,0E0,0E0,0E0,0E0,0E0,0E0,0E0,0E0,0E0,0E0,0E0,0E0,0E0,0E0,0E0,0E0,0E0,0E0,0E0,0E0,0E0,0E0,0E0,0E0,0E0,0E0,0E0,0E0,0E0,0E0,0E0,0E0,0E0,0E0,0E0,0E0,0E0,0E0,0E0,0E0,0E0,0E0,0E0,0E0,0E0,0E0,0E0,0E0,0E0,0E0,0E0,0E0,0E0,0E0,0E0,0E0,0E0,0E0,0E0,0E0,0E0],"parents":[2147483647,0,0,1,1,2,2,3,3,4,4,5,5,6,6,7,7,8,8,9,9,10,10,11,11,12,12,13,13,14,14,15,15,16,16,17,17,18,18,19,19,20,20,21,21,22,22,23,23,24,24,25,25,26,26,27,27,28,28,29,29,30,30,31,31,32,32,33,33,34,34,35,35,36,36,37,37,38,38,39,39,40,40,41,41,42,42,43,43,44,44,45,45,46,46,47,47,48,48,49,49,50,50,51,51,52,52,53,53,54,54,55,55,56,56,57,57,58,58,59,59,60,60,61,61,62,62],"right_children":[2,4,6,8,10,12,14,16,18,20,22,24,26,28,30,32,34,36,38,40,42,44,46,48,50,52,54,56,58,60,62,64,66,68,70,72,74,76,78,80,82,84,86,88,90,92,94,96,98,100,102,104,106,108,110,112,114,116,118,120,122,124,126,-1,-1,-1,-1,-1,-1,-1,-1,-1,-1,-1,-1,-1,-1,-1,-1,-1,-1,-1,-1,-1,-1,-1,-1,-1,-1,-1,-1,-1,-1,-1,-1,-1,-1,-1,-1,-1,-1,-1,-1,-1,-1,-1,-1,-1,-1,-1,-1,-1,-1,-1,-1,-1,-1,-1,-1,-1,-1,-1,-1,-1,-1,-1,-1],"split_conditions":[2.8751865E-1,4.5222068E-1,7.433355E-2,3.0729306E-1,6.6276175E-1,6.720418E-1,3.7776715E-1,2.697435E-1,4.5247126E-1,1.547208E-1,1.2448508E-1,2.6296327E-1,1.2383555E-1,2.1142848E-1,2.2703153E-1,1.4718837E-1,1.22650206E-1,1.4716558E-1,6.552611E-1,5.514354E-1,2.4449606E-1,-3.8384788E-2,1.4718837E-1,4.5228672E-1,1.2409899E-1,-3.8384788E-2,1.4657323E-1,1.0319753E-1,3.5530424E-1,4.8822126E-1,1.248019E-1,6.577632E-1,2.567903E-1,1.8320085E-1,1.5419042E-1,1.547208E-1,1.8320085E-1,1.4718837E-1,1.0973136E-1,6.1239522E-2,1.2502557E-1,5.225734E-1,1.2409899E-1,1.1823397E-1,1.0526086E-1,2.8389875E-2,1.7511722E-1,1.2561496E-1,5.354404E-1,-3.8384788E-2,1.4657323E-1,-4.6300173E-2,1.1208628E-1,2.8389875E-2,1.7511722E-1,1.4718837E-1,1.2383555E-1,1.2383555E-1,1.2502557E-1,8.080237E-2,5.752477E-1,-4.6300173E-2,1.4657323E-1,-4.1401084E-3,1.7571686E-3,-7.394516E-3,-3.042309E-3,-1.2957995E-2,-7.7701667E-3,-8.123872E-3,-3.143644E-3,-9.716541E-3,-5.0296295E-3,-1.2441392E-2,-7.141178E-3,-1.1674198E-2,-1.387613E-2,-1.4442748E-2,-1.592241E-2,-1.2545682E-4,3.4941398E-3,1.8711372E-3,6.603308E-3,7.4848714E-3,1.1291577E-2,1.054935E-2,1.5743222E-2,2.5510732E-2,1.7239897E-2,4.8250197E-3,1.2007611E-2,2.3154967E-2,1.7860016E-2,1.1083194E-2,1.9440284E-2,8.02934E-4,5.0411667E-3,9.067433E-3,1.4311333E-2,2.6843345E-2,1.2885659E-2,2.3151668E-2,1.6769638E-2,4.166426E-2,3.1460535E-2,2.7182167E-2,1.7900309E-2,3.730527E-2,2.9688677E-2,2.2413528E-2,3.3983346E-2,-9.789851E-4,-3.2734019E-3,-1.2379716E-3,2.12826E-3,2.1410724E-3,6.251804E-3,9.220715E-3,1.3353961E-2,2.6708355E-3,6.56455E-3,9.478208E-3,1.4807651E-2,2.249906E-2,9.8676495E-3,1.9643528E-2,1.3231741E-2],"split_indices":[3,2,0,0,2,3,3,4,0,3,7,2,7,2,2,7,3,7,0,2,3,6,7,3,7,6,7,2,2,3,7,5,2,2,2,3,2,7,6,3,7,2,7,7,7,6,7,2,3,6,7,6,7,6,7,7,7,7,7,2,3,6,7,0,0,0,0,0,0,0,0,0,0,0,0,0,0,0,0,0,0,0,0,0,0,0,0,0,0,0,0,0,0,0,0,0,0,0,0,0,0,0,0,0,0,0,0,0,0,0,0,0,0,0,0,0,0,0,0,0,0,0,0,0,0,0,0],"split_type":[0,0,0,0,0,0,0,0,0,0,0,0,0,0,0,0,0,0,0,0,0,0,0,0,0,0,0,0,0,0,0,0,0,0,0,0,0,0,0,0,0,0,0,0,0,0,0,0,0,0,0,0,0,0,0,0,0,0,0,0,0,0,0,0,0,0,0,0,0,0,0,0,0,0,0,0,0,0,0,0,0,0,0,0,0,0,0,0,0,0,0,0,0,0,0,0,0,0,0,0,0,0,0,0,0,0,0,0,0,0,0,0,0,0,0,0,0,0,0,0,0,0,0,0,0,0,0],"sum_hessian":[8E5,5.56168E5,2.43832E5,5.12351E5,4.3817E4,2.07618E5,3.6214E4,2.84747E5,2.27604E5,1.5678E4,2.8139E4,1.79863E5,2.7755E4,1.8778E4,1.7436E4,2.01358E5,8.3389E4,1.21654E5,1.0595E5,1.1183E4,4.495E3,5.366E3,2.2773E4,2.0596E4,1.59267E5,5.047E3,2.2708E4,1.4851E4,3.927E3,1.4573E4,2.863E3,1.13191E5,8.8167E4,6.2982E4,2.0407E4,6.7892E4,5.3762E4,7.7793E4,2.8157E4,7.498E3,3.685E3,2.098E3,2.397E3,4E2,4.966E3,1.0368E4,1.2405E4,1.3745E4,6.851E3,2.9138E4,1.30129E5,4.16E2,4.631E3,9.604E3,1.3104E4,9.547E3,5.304E3,2.722E3,1.205E3,9.627E3,4.946E3,6.01E2,2.262E3,9.7608E4,1.5583E4,7.1142E4,1.7025E4,5.237E4,1.0612E4,1.4947E4,5.46E3,6.3195E4,4.697E3,5.0042E4,3.72E3,4.3839E4,3.3954E4,2.0396E4,7.761E3,3.89E3,3.608E3,7.7E2,2.915E3,1.266E3,8.32E2,4.62E2,1.935E3,3E2,1E2,8.96E2,4.07E3,5.467E3,4.901E3,7.888E3,4.517E3,8.334E3,5.411E3,3.766E3,3.085E3,2.399E3,2.6739E4,5.5074E4,7.5055E4,3.32E2,8.4E1,1.949E3,2.682E3,5.423E3,4.181E3,8.687E3,4.417E3,5.335E3,4.212E3,9.72E2,4.332E3,4.71E2,2.251E3,2.51E2,9.54E2,5.436E3,4.191E3,3.285E3,1.661E3,3.5E1,5.66E2,9.2E2,1.342E3],"tree_param":{"num_deleted":"0","num_feature":"8","num_nodes":"127","size_leaf_vector":"1"}},{"base_weights":[1.3133316E-6,-6.360061E-2,1.5051627E-1,-8.0181554E-2,1.0199757E-1,1.6838488E-1,4.37664E-2,-6.060479E-2,-1.0820994E-1,4.998849E-2,1.4458631E-1,1.5457514E-1,2.5579116E-1,1.843199E-2,7.985154E-2,-4.8719365E-2,-1.0593679E-1,-1.1091426E-1,-6.1680727E-2,2.335925E-2,1.22366585E-1,1.0265609E-1,1.5342917E-1,5.269952E-2,1.6699894E-1,2.0922132E-1,2.661522E-1,2.1101872E-3,8.814934E-2,6.639129E-2,1.2837666E-1,-3.485903E-2,-6.8172045E-2,-1.14109285E-1,-6.3977614E-2,-1.0335256E-1,-1.2591244E-1,-7.26653E-2,-2.7054993E-2,1.0025729E-2,5.024652E-2,9.385848E-2,1.3833074E-1,2.1152715E-1,9.294029E-2,1.8351221E-1,1.271505E-1,2.077424E-2,9.6943475E-2,1.5786508E-1,2.145747E-1,3.5725024E-1,1.958814E-1,3.031235E-1,2.3389655E-1,-8.31712E-3,2.8727101E-2,6.235145E-2,1.262666E-1,4.716611E-2,1.0974774E-1,1.0884385E-1,1.4984025E-1,-2.086765E-3,-5.2487007E-3,-8.245423E-3,-3.1932523E-3,-1.0173104E-2,-1.2989326E-2,-7.58235E-3,-4.041982E-3,-9.216038E-3,-1.1581755E-2,-1.1840593E-2,-1.3428362E-2,-8.82529E-3,-5.244646E-3,-3.8501073E-3,-4.2811813E-4,-5.939275E-4,3.290214E-3,3.8699955E-3,8.025306E-3,1.1015402E-2,7.218048E-3,1.0059415E-2,1.47028705E-2,2.2968134E-2,1.5532975E-2,1.2683553E-2,7.0183338E-3,2.0492839E-2,1.6034601E-2,9.975015E-3,1.7496686E-2,9.3356904E-4,5.4074945E-3,7.337203E-3,1.232822E-2,1.7924884E-2,1.0686001E-2,1.9555872E-2,2.2886438E-2,3.753182E-2,2.8334556E-2,2.4391875E-2,1.6088367E-2,3.2001495E-2,2.2381308E-2,1.9266678E-2,3.060237E-2,-1.9314707E-3,5.1192055E-4,1.0263974E-4,3.4815953E-3,4.555389E-3,7.6780915E-3,3.560926E-3,1.2974583E-2,1.4753202E-3,5.479307E-3,9.31196E-3,1.40429875E-2,9.371736E-3,1.4866906E-2,1.3990129E-2,1.9990772E-2],"categories":[],"categories_nodes":[],"categories_segments":[],"categories_sizes":[],"default_left":[0,0,0,0,0,0,0,0,0,0,0,0,0,0,0,0,0,0,0,0,0,0,0,0,0,0,0,0,0,0,0,0,0,0,0,0,0,0,0,0,0,0,0,0,0,0,0,0,0,0,0,0,0,0,0,0,0,0,0,0,0,0,0,0,0,0,0,0,0,0,0,0,0,0,0,0,0,0,0,0,0,0,0,0,0,0,0,0,0,0,0,0,0,0,0,0,0,0,0,0,0,0,0,0,0,0,0,0,0,0,0,0,0,0,0,0,0,0,0,0,0,0,0,0,0,0,0],"id":2,"left_children":[1,3,5,7,9,11,13,15,17,19,21,23,25,27,29,31,33,35,37,39,41,43,45,47,49,51,53,55,57,59,61,63,65,67,69,71,73,75,77,79,81,83,85,87,89,91,93,95,97,99,101,103,105,107,109,111,113,115,117,119,121,123,125,-1,-1,-1,-1,-1,-1,-1,-1,-1,-1,-1,-1,-1,-1,-1,-1,-1,-1,-1,-1,-1,-1,-1,-1,-1,-1,-1,-1,-1,-1,-1,-1,-1,-1,-1,-1,-1,-1,-1,-1,-1,-1,-1,-1,-1,-1,-1,-1,-1,-1,-1,-1,-1,-1,-1,-1,-1,-1,-1,-1,-1,-1,-1,-1],"loss_changes":[7.658452E3,1.5441411E3,4.532744E2,2.8048242E2,1.1336542E2,2.456709E2,3.114975E1,1.6215503E2,2.6444336E1,4.441347E1,1.041803E1,2.2248584E2,1.3344482E1,2.2781963E1,9.171646E0,6.4289734E1,2.1430847E1,2.2518066E1,4.390682E0,6.0395384E0,2.8077774E0,5.1676445E0,1.8346497E1,2.6989456E1,6.8052246E1,9.920013E0,2.7016357E1,4.503093E0,3.7268715E0,9.167881E0,1.2628098E0,3.4342026E1,5.1346924E1,1.02099E1,2.8416977E0,1.8416138E1,4.168213E0,2.7584114E0,7.252822E-1,4.1140556E0,1.9319429E0,7.791004E-1,1.2886124E0,3.7343216E-1,3.4652672E0,5.3412476E0,1.6236694E1,4.227997E0,4.9632797E0,1.4335107E2,6.8117676E0,4.504776E-1,7.766556E0,1.4102112E1,3.6027893E1,1.7227683E0,7.702589E-1,5.459776E-1,4.7859955E-1,1.8844299E0,1.7113533E0,9.505348E-1,6.9407654E-1,0E0,0E0,0E0,0E0,0E0,0E0,0E0,0E0,0E0,0E0,0E0,0E0,0E0,0E0,0E0,0E0,0E0,0E0,0E0,0E0,0E0,0E0,0E0,0E0,0E0,0E0,0E0,0E0,0E0,0E0,0E0,0E0,0E0,0E0,0E0,0E0,0E0,0E0,0E0,0E0,0E0,0E0,0E0,0E0,0E0,0E0,0E0,0E0,0E0,0E0,0E0,0E0,0E0,0E0,0E0,0E0,0E0,0E0,0E0,0E0,0E0,0E0,0E0,0E0],"parents":[2147483647,0,0,1,1,2,2,3,3,4,4,5,5,6,6,7,7,8,8,9,9,10,10,11,11,12,12,13,13,14,14,15,15,16,16,17,17,18,18,19,19,20,20,21,21,22,22,23,23,24,24,25,25,26,26,27,27,28,28,29,29,30,30,31,31,32,32,33,33,34,34,35,35,36,36,37,37,38,38,39,39,40,40,41,41,42,42,43,43,44,44,45,45,46,46,47,47,48,48,49,49,50,50,51,51,52,52,53,53,54,54,55,55,56,56,57,57,58,58,59,59,60,60,61,61,62,62],"right_children":[2,4,6,8,10,12,14,16,18,20,22,24,26,28,30,32,34,36,38,40,42,44,46,48,50,52,54,56,58,60,62,64,66,68,70,72,74,76,78,80,82,84,86,88,90,92,94,96,98,100,102,104,106,108,110,112,114,116,118,120,122,124,126,-1,-1,-1,-1,-1,-1,-1,-1,-1,-1,-1,-1,-1,-1,-1,-1,-1,-1,-1,-1,-1,-1,-1,-1,-1,-1,-1,-1,-1,-1,-1,-1,-1,-1,-1,-1,-1,-1,-1,-1,-1,-1,-1,-1,-1,-1,-1,-1,-1,-1,-1,-1,-1,-1,-1,-1,-1,-1,-1,-1,-1,-1,-1,-1],"split_conditions":[2.981662E-1,4.178013E-1,7.374218E-2,3.3486477E-1,6.6276175E-1,6.720418E-1,4.0168148E-1,3.4499827E-1,1.3286793E-1,1.9245249E-1,1.2383555E-1,2.6296327E-1,1.2383555E-1,2.3254527E-1,1.7464414E-1,1.2834628E-1,1.3635938E-1,4.963255E-1,1.3940665E-1,9.475864E-2,5.225734E-1,-3.8384788E-2,1.4718837E-1,4.3068224E-1,1.7511722E-1,-3.8384788E-2,1.4718837E-1,1.29116E-1,3.7406978E-1,5.168062E-1,3.1733614E-1,1.4716558E-1,1.5866446E-1,1.4718837E-1,1.09421976E-1,1.4657323E-1,1.4657323E-1,2.019308E-1,2.019308E-1,5.112456E-1,5.288193E-1,1.4723718E-1,1.2383555E-1,1.1823397E-1,1.1208628E-1,2.8389875E-2,1.7511722E-1,1.6620475E-1,5.168062E-1,1.482499E-1,4.211443E-1,-4.6300173E-2,1.1208628E-1,1.353877E-1,1.7511722E-1,3.4779102E-1,1.2383555E-1,3.3537447E-1,1.0526086E-1,1.2383555E-1,5.9620726E-1,4.8407137E-1,1.8240888E-1,-2.086765E-3,-5.2487007E-3,-8.245423E-3,-3.1932523E-3,-1.0173104E-2,-1.2989326E-2,-7.58235E-3,-4.041982E-3,-9.216038E-3,-1.1581755E-2,-1.1840593E-2,-1.3428362E-2,-8.82529E-3,-5.244646E-3,-3.8501073E-3,-4.2811813E-4,-5.939275E-4,3.290214E-3,3.8699955E-3,8.025306E-3,1.1015402E-2,7.218048E-3,1.0059415E-2,1.47028705E-2,2.2968134E-2,1.5532975E-2,1.2683553E-2,7.0183338E-3,2.0492839E-2,1.6034601E-2,9.975015E-3,1.7496686E-2,9.3356904E-4,5.4074945E-3,7.337203E-3,1.232822E-2,1.7924884E-2,1.0686001E-2,1.9555872E-2,2.2886438E-2,3.753182E-2,2.8334556E-2,2.4391875E-2,1.6088367E-2,3.2001495E-2,2.2381308E-2,1.9266678E-2,3.060237E-2,-1.9314707E-3,5.1192055E-4,1.0263974E-4,3.4815953E-3,4.555389E-3,7.6780915E-3,3.560926E-3,1.2974583E-2,1.4753202E-3,5.479307E-3,9.31196E-3,1.40429875E-2,9.371736E-3,1.4866906E-2,1.3990129E-2,1.9990772E-2],"split_indices":[3,2,4,0,2,3,3,4,3,3,7,2,7,2,2,0,3,0,2,3,2,6,7,3,7,6,7,2,2,3,2,7,3,7,2,7,7,3,3,2,2,7,7,7,7,6,7,2,3,7,3,6,7,6,7,3,7,3,7,7,3,3,7,0,0,0,0,0,0,0,0,0,0,0,0,0,0,0,0,0,0,0,0,0,0,0,0,0,0,0,0,0,0,0,0,0,0,0,0,0,0,0,0,0,0,0,0,0,0,0,0,0,0,0,0,0,0,0,0,0,0,0,0,0,0,0,0],"split_type":[0,0,0,0,0,0,0,0,0,0,0,0,0,0,0,0,0,0,0,0,0,0,0,0,0,0,0,0,0,0,0,0,0,0,0,0,0,0,0,0,0,0,0,0,0,0,0,0,0,0,0,0,0,0,0,0,0,0,0,0,0,0,0,0,0,0,0,0,0,0,0,0,0,0,0,0,0,0,0,0,0,0,0,0,0,0,0,0,0,0,0,0,0,0,0,0,0,0,0,0,0,0,0,0,0,0,0,0,0,0,0,0,0,0,0,0,0,0,0,0,0,0,0,0,0,0,0],"sum_hessian":[8E5,5.62366E5,2.37634E5,5.11183E5,5.1183E4,2.0356E5,3.4074E4,3.0097E5,2.10213E5,2.3044E4,2.8139E4,1.75789E5,2.7771E4,2.002E4,1.4054E4,2.38453E5,6.2517E4,1.98665E5,1.1548E4,1.6847E4,6.197E3,4.903E3,2.3236E4,1.9108E4,1.56681E5,5.058E3,2.2713E4,1.6223E4,3.797E3,1.1004E4,3.05E3,1.39243E5,9.921E4,5.2324E4,1.0193E4,1.32081E5,6.6584E4,8.766E3,2.782E3,1.1263E4,5.584E3,2.227E3,3.97E3,4E2,4.503E3,1.0831E4,1.2405E4,1.11E4,8.008E3,1.31449E5,2.5232E4,4.16E2,4.642E3,1.0579E4,1.2134E4,1.1657E4,4.566E3,2.266E3,1.531E3,7.625E3,3.379E3,1.6E3,1.45E3,7.763E4,6.1613E4,7.1163E4,2.8047E4,2.933E4,2.2994E4,6.781E3,3.412E3,6.9598E4,6.2483E4,3.5113E4,3.1471E4,4.948E3,3.818E3,1.851E3,9.31E2,6.634E3,4.629E3,4.034E3,1.55E3,1.269E3,9.58E2,7.46E2,3.224E3,3E2,1E2,1.807E3,2.696E3,5.624E3,5.207E3,7.888E3,4.517E3,8.263E3,2.837E3,4.228E3,3.78E3,9.2617E4,3.8832E4,1.0832E4,1.44E4,3.31E2,8.5E1,1.954E3,2.688E3,8.719E3,1.86E3,7.723E3,4.411E3,6.41E3,5.247E3,8.23E2,3.743E3,1.049E3,1.217E3,5.7E1,1.474E3,1.453E3,6.172E3,2.194E3,1.185E3,1.162E3,4.38E2,1.213E3,2.37E2],"tree_param":{"num_deleted":"0","num_feature":"8","num_nodes":"127","size_leaf_vector":"1"}},{"base_weights":[1.7930671E-6,-5.887427E-2,1.3182409E-1,-7.403266E-2,8.1608154E-2,1.4955081E-1,3.3665158E-2,-5.4370552E-2,-9.47163E-2,2.8517555E-2,1.3013202E-1,1.3718846E-1,2.3036428E-1,1.2302121E-2,7.254599E-2,-3.4554783E-2,-8.289286E-2,-9.8326154E-2,-5.829278E-2,6.9652954E-3,6.805618E-2,3.0761149E-2,1.3339901E-1,4.2766508E-2,1.4952731E-1,1.9163702E-1,2.4050136E-1,-3.3538667E-3,6.861414E-2,5.7809997E-2,1.0709215E-1,-4.0989954E-2,-2.119362E-3,-9.969364E-2,-5.673012E-2,-8.977558E-2,-1.1019464E-1,-7.175431E-2,-2.641628E-2,-5.0966316E-3,3.26429E-2,5.228586E-2,1.0620505E-1,-1.4399456E-4,3.4293346E-2,1.4924245E-1,1.1443768E-1,2.1935316E-2,9.946339E-2,1.10805005E-1,1.5961818E-1,3.218574E-1,1.814456E-1,2.778072E-1,2.1071145E-1,-1.7271053E-2,1.1216025E-2,4.851865E-2,1.05562575E-1,4.4226926E-2,1.0703103E-1,9.422432E-2,1.3608067E-1,-4.9164104E-3,-8.3955994E-4,2.2994026E-3,-2.9069379E-3,-1.0557863E-2,-6.1945273E-3,-6.8745874E-3,-2.2183452E-3,-9.866011E-3,-7.3198834E-3,-1.0217435E-2,-1.1785503E-2,-8.307072E-3,-5.0322013E-3,-3.8694893E-3,-1.9989473E-4,6.8778306E-4,-1.9952387E-3,-1.5091289E-4,4.002789E-3,1.5524905E-3,6.0843267E-3,1.2185716E-2,8.343752E-3,8.1446965E-4,-1.967648E-3,2.8838178E-3,3.9176024E-3,1.0760055E-2,1.6916059E-2,8.97764E-3,1.5747406E-2,4.0515556E-4,4.2823986E-3,8.0956E-3,1.2466749E-2,2.3938557E-2,1.0298254E-2,1.9505804E-2,1.3542696E-2,3.378254E-2,2.5551373E-2,2.2036962E-2,1.5905501E-2,2.9580299E-2,1.93256E-2,1.741017E-2,2.7543103E-2,-2.6225725E-3,-8.487085E-5,1.11425696E-4,2.7376853E-3,6.1720866E-3,3.177954E-3,7.376729E-3,1.1398412E-2,3.1360884E-3,6.3080303E-3,6.5590176E-3,1.1734451E-2,7.901772E-3,1.2675236E-2,9.537566E-3,1.4685101E-2],"categories":[],"categories_nodes":[],"categories_segments":[],"categories_sizes":[],"default_left":[0,0,0,0,0,0,0,0,0,0,0,0,0,0,0,0,0,0,0,0,0,0,0,0,0,0,0,0,0,0,0,0,0,0,0,0,0,0,0,0,0,0,0,0,0,0,0,0,0,0,0,0,0,0,0,0,0,0,0,0,0,0,0,0,0,0,0,0,0,0,0,0,0,0,0,0,0,0,0,0,0,0,0,0,0,0,0,0,0,0,0,0,0,0,0,0,0,0,0,0,0,0,0,0,0,0,0,0,0,0,0,0,0,0,0,0,0,0,0,0,0,0,0,0,0,0,0],"id":3,"left_children":[1,3,5,7,9,11,13,15,17,19,21,23,25,27,29,31,33,35,37,39,41,43,45,47,49,51,53,55,57,59,61,63,65,67,69,71,73,75,77,79,81,83,85,87,89,91,93,95,97,99,101,103,105,107,109,111,113,115,117,119,121,123,125,-1,-1,-1,-1,-1,-1,-1,-1,-1,-1,-1,-1,-1,-1,-1,-1,-1,-1,-1,-1,-1,-1,-1,-1,-1,-1,-1,-1,-1,-1,-1,-1,-1,-1,-1,-1,-1,-1,-1,-1,-1,-1,-1,-1,-1,-1,-1,-1,-1,-1,-1,-1,-1,-1,-1,-1,-1,-1,-1,-1,-1,-1,-1,-1],"loss_changes":[6.2089575E3,1.1776337E3,4.297705E2,2.029917E2,1.3874832E2,2.0897803E2,3.1382141E1,1.446278E2,3.1978027E1,2.1917597E1,9.131348E0,2.1139941E2,1.0850342E1,2.149942E1,6.814354E0,3.1516922E1,4.6104553E1,2.2450195E1,9.4114E0,5.156409E0,5.4535446E0,9.792417E-2,8.167358E0,2.4768265E1,6.2689453E1,7.5898438E0,2.4384277E1,3.869487E0,3.9338245E0,6.275837E0,1.4811211E0,3.356938E1,1.6920149E1,1.4184082E1,1.702771E1,1.8939331E1,5.6817627E0,3.736473E0,1.9531908E0,2.0152717E0,1.342082E0,2.0192776E0,9.3525696E-1,1.5216841E-2,2.031207E-2,1.2289703E1,1.31527405E1,5.7299857E0,2.6184235E0,3.334735E1,1.09116455E2,3.5544205E-1,4.6250305E0,1.4796387E1,2.8936523E1,1.4352512E0,1.5219767E0,7.5781345E-1,4.9177933E-1,1.7842951E0,8.6035347E-1,1.3636017E0,5.2479553E-1,0E0,0E0,0E0,0E0,0E0,0E0,0E0,0E0,0E0,0E0,0E0,0E0,0E0,0E0,0E0,0E0,0E0,0E0,0E0,0E0,0E0,0E0,0E0,0E0,0E0,0E0,0E0,0E0,0E0,0E0,0E0,0E0,0E0,0E0,0E0,0E0,0E0,0E0,0E0,0E0,0E0,0E0,0E0,0E0,0E0,0E0,0E0,0E0,0E0,0E0,0E0,0E0,0E0,0E0,0E0,0E0,0E0,0E0,0E0,0E0,0E0,0E0,0E0,0E0],"parents":[2147483647,0,0,1,1,2,2,3,3,4,4,5,5,6,6,7,7,8,8,9,9,10,10,11,11,12,12,13,13,14,14,15,15,16,16,17,17,18,18,19,19,20,20,21,21,22,22,23,23,24,24,25,25,26,26,27,27,28,28,29,29,30,30,31,31,32,32,33,33,34,34,35,35,36,36,37,37,38,38,39,39,40,40,41,41,42,42,43,43,44,44,45,45,46,46,47,47,48,48,49,49,50,50,51,51,52,52,53,53,54,54,55,55,56,56,57,57,58,58,59,59,60,60,61,61,62,62],"right_children":[2,4,6,8,10,12,14,16,18,20,22,24,26,28,30,32,34,36,38,40,42,44,46,48,50,52,54,56,58,60,62,64,66,68,70,72,74,76,78,80,82,84,86,88,90,92,94,96,98,100,102,104,106,108,110,112,114,116,118,120,122,124,126,-1,-1,-1,-1,-1,-1,-1,-1,-1,-1,-1,-1,-1,-1,-1,-1,-1,-1,-1,-1,-1,-1,-1,-1,-1,-1,-1,-1,-1,-1,-1,-1,-1,-1,-1,-1,-1,-1,-1,-1,-1,-1,-1,-1,-1,-1,-1,-1,-1,-1,-1,-1,-1,-1,-1,-1,-1,-1,-1,-1,-1,-1,-1,-1],"split_conditions":[2.8172314E-1,3.8811457E-1,7.433355E-2,2.744257E-1,6.6276175E-1,6.720418E-1,4.0501025E-1,1.965377E-1,1.130097E-1,1.1942272E-1,1.0526086E-1,2.567903E-1,1.2502557E-1,2.1142848E-1,1.3257706E-1,8.446384E-1,8.9192346E-2,1.4783001E-1,1.3940665E-1,5.112456E-1,2.27421E-1,8.446343E-1,1.4718837E-1,4.7269154E-1,1.2502557E-1,-3.8384788E-2,1.4716558E-1,7.623287E-2,3.5530424E-1,5.518351E-1,3.2643998E-1,1.8802685E-1,1.4657323E-1,2.2168107E-1,1.8320085E-1,4.3642673E-1,4.4001597E-1,2.019308E-1,2.3254527E-1,1.4716558E-1,1.2383555E-1,1.2448508E-1,1.4723718E-1,4.351625E-2,8.8584423E-1,1.2502557E-1,1.7511722E-1,3.667602E-1,9.4275646E-2,-4.6300173E-2,1.4657323E-1,-4.6300173E-2,1.1208628E-1,1.353877E-1,1.7511722E-1,3.517817E-1,3.4366938E-1,1.4716558E-1,1.2502557E-1,4.7269154E-1,1.2448508E-1,4.8407137E-1,1.2502557E-1,-4.9164104E-3,-8.3955994E-4,2.2994026E-3,-2.9069379E-3,-1.0557863E-2,-6.1945273E-3,-6.8745874E-3,-2.2183452E-3,-9.866011E-3,-7.3198834E-3,-1.0217435E-2,-1.1785503E-2,-8.307072E-3,-5.0322013E-3,-3.8694893E-3,-1.9989473E-4,6.8778306E-4,-1.9952387E-3,-1.5091289E-4,4.002789E-3,1.5524905E-3,6.0843267E-3,1.2185716E-2,8.343752E-3,8.1446965E-4,-1.967648E-3,2.8838178E-3,3.9176024E-3,1.0760055E-2,1.6916059E-2,8.97764E-3,1.5747406E-2,4.0515556E-4,4.2823986E-3,8.0956E-3,1.2466749E-2,2.3938557E-2,1.0298254E-2,1.9505804E-2,1.3542696E-2,3.378254E-2,2.5551373E-2,2.2036962E-2,1.5905501E-2,2.9580299E-2,1.93256E-2,1.741017E-2,2.7543103E-2,-2.6225725E-3,-8.487085E-5,1.11425696E-4,2.7376853E-3,6.1720866E-3,3.177954E-3,7.376729E-3,1.1398412E-2,3.1360884E-3,6.3080303E-3,6.5590176E-3,1.1734451E-2,7.901772E-3,1.2675236E-2,9.537566E-3,1.4685101E-2],"split_indices":[3,2,0,0,2,3,3,4,3,3,7,2,7,2,2,5,3,7,2,2,3,2,7,3,7,6,7,2,2,3,2,3,7,2,2,5,0,3,2,7,7,7,7,0,2,7,7,3,2,6,7,6,7,6,7,3,3,7,7,3,7,3,7,0,0,0,0,0,0,0,0,0,0,0,0,0,0,0,0,0,0,0,0,0,0,0,0,0,0,0,0,0,0,0,0,0,0,0,0,0,0,0,0,0,0,0,0,0,0,0,0,0,0,0,0,0,0,0,0,0,0,0,0,0,0,0,0],"split_type":[0,0,0,0,0,0,0,0,0,0,0,0,0,0,0,0,0,0,0,0,0,0,0,0,0,0,0,0,0,0,0,0,0,0,0,0,0,0,0,0,0,0,0,0,0,0,0,0,0,0,0,0,0,0,0,0,0,0,0,0,0,0,0,0,0,0,0,0,0,0,0,0,0,0,0,0,0,0,0,0,0,0,0,0,0,0,0,0,0,0,0,0,0,0,0,0,0,0,0,0,0,0,0,0,0,0,0,0,0,0,0,0,0,0,0,0,0,0,0,0,0,0,0,0,0,0,0],"sum_hessian":[8E5,5.53009E5,2.46991E5,4.9915E5,5.3859E4,2.09209E5,3.7782E4,2.55896E5,2.43254E5,2.572E4,2.8139E4,1.81454E5,2.7755E4,2.4385E4,1.3397E4,1.50995E5,1.04901E5,2.21318E5,2.1936E4,1.6647E4,9.073E3,8.96E2,2.7243E4,2.0972E4,1.60482E5,5.762E3,2.1993E4,1.9081E4,5.304E3,9.393E3,4.004E3,1.25997E5,2.4998E4,6.3878E4,4.1023E4,1.28645E5,9.2673E4,1.5422E4,6.514E3,1.1327E4,5.32E3,6.421E3,2.652E3,9.2E1,8.04E2,1.4838E4,1.2405E4,1.5338E4,5.634E3,3.3178E4,1.27304E5,4.16E2,5.346E3,9.761E3,1.2232E4,9.759E3,9.322E3,3.437E3,1.867E3,7.363E3,2.03E3,2.776E3,1.228E3,1.00734E5,2.5263E4,1.294E4,1.2058E4,5.5261E4,8.617E3,3.0436E4,1.0587E4,8.3752E4,4.4893E4,4.528E4,4.7393E4,1.0091E4,5.331E3,4.334E3,2.18E3,6.272E3,5.055E3,9.46E2,4.374E3,1.213E3,5.208E3,1.569E3,1.083E3,6.5E1,2.7E1,3.83E2,4.21E2,4.803E3,1.0035E4,7.888E3,4.517E3,8.264E3,7.074E3,3.251E3,2.383E3,1.901E3,3.1277E4,5.1642E4,7.5662E4,3.32E2,8.4E1,1.949E3,3.397E3,8.046E3,1.715E3,7.815E3,4.417E3,6.315E3,3.444E3,5.737E3,3.585E3,1.92E3,1.517E3,3.93E2,1.474E3,4.378E3,2.985E3,4.06E2,1.624E3,1.894E3,8.82E2,2.59E2,9.69E2],"tree_param":{"num_deleted":"0","num_feature":"8","num_nodes":"127","size_leaf_vector":"1"}},{"base_weights":[2.0952366E-6,-5.2501082E-2,1.19758815E-1,-6.711387E-2,6.75524E-2,1.3542747E-1,3.1633046E-2,-5.2853886E-2,-8.977016E-2,2.4247902E-2,1.1712088E-1,1.248953E-1,2.1211736E-1,1.3516475E-2,6.795826E-2,-4.0223114E-2,-7.8135714E-2,-8.4653005E-2,-1.0557998E-1,9.848303E-3,8.253754E-2,2.7691329E-2,1.2006102E-1,5.600274E-2,1.350696E-1,1.0731342E-1,2.1592356E-1,-3.318226E-3,5.6993507E-2,5.593153E-2,1.02429636E-1,-2.3771299E-2,-5.575071E-2,-8.795302E-2,-4.1124664E-2,-7.896457E-2,-1.0003618E-1,-1.074072E-1,-7.530814E-2,-6.7233746E-3,2.595497E-2,6.728658E-2,1.102601E-1,-1.419962E-4,3.0872457E-2,1.3355188E-1,1.0187456E-1,2.4856104E-2,1.2354204E-1,1.2658527E-1,1.7928256E-1,1.0023002E-1,1.1822705E-2,2.3435315E-1,1.9358724E-1,-1.5643552E-2,8.847045E-3,4.1070424E-2,1.0005831E-1,4.3232746E-2,9.904098E-2,9.401302E-2,1.4274956E-1,-9.5248345E-4,-3.943969E-3,-6.748844E-3,-2.609145E-3,-9.582707E-3,-6.2338705E-3,-5.47271E-3,-1.4457711E-3,-7.148889E-3,-9.15105E-3,-1.0259372E-2,-6.7096795E-3,-1.033373E-2,-1.1817731E-2,-8.3312625E-3,-5.4172277E-3,-1.8987572E-3,1.8883189E-3,1.510399E-3,4.9361098E-3,3.535114E-3,7.545688E-3,1.8904511E-3,1.1390395E-2,6.998506E-4,-1.9844102E-3,2.4414149E-3,3.4289192E-3,9.684272E-3,1.49815595E-2,7.646281E-3,1.4173013E-2,4.9599E-4,4.648976E-3,9.918374E-3,1.6401866E-2,1.4513174E-2,8.232705E-3,1.6544815E-2,1.9609915E-2,9.408327E-3,1.0380841E-2,2.010709E-2,2.6287526E-2,1.597547E-2,2.5290122E-2,-3.0181042E-3,-6.712798E-4,-1.7549256E-3,1.4585886E-3,3.4816165E-3,7.471446E-3,9.229915E-3,1.3860484E-2,3.6597215E-3,7.7236146E-3,9.067259E-3,1.4475566E-2,1.1380328E-2,4.7020684E-3,1.2444311E-2,1.6922753E-2],"categories":[],"categories_nodes":[],"categories_segments":[],"categories_sizes":[],"default_left":[0,0,0,0,0,0,0,0,0,0,0,0,0,0,0,0,0,0,0,0,0,0,0,0,0,0,0,0,0,0,0,0,0,0,0,0,0,0,0,0,0,0,0,0,0,0,0,0,0,0,0,0,0,0,0,0,0,0,0,0,0,0,0,0,0,0,0,0,0,0,0,0,0,0,0,0,0,0,0,0,0,0,0,0,0,0,0,0,0,0,0,0,0,0,0,0,0,0,0,0,0,0,0,0,0,0,0,0,0,0,0,0,0,0,0,0,0,0,0,0,0,0,0,0,0],"id":4,"left_children":[1,3,5,7,9,11,13,15,17,19,21,23,25,27,29,31,33,35,37,39,41,43,45,47,49,51,53,55,57,59,61,63,65,67,69,71,73,75,77,79,81,83,85,87,89,91,93,95,97,99,101,103,-1,105,107,109,111,113,115,117,119,121,123,-1,-1,-1,-1,-1,-1,-1,-1,-1,-1,-1,-1,-1,-1,-1,-1,-1,-1,-1,-1,-1,-1,-1,-1,-1,-1,-1,-1,-1,-1,-1,-1,-1,-1,-1,-1,-1,-1,-1,-1,-1,-1,-1,-1,-1,-1,-1,-1,-1,-1,-1,-1,-1,-1,-1,-1,-1,-1,-1,-1,-1,-1],"loss_changes":[5.030099E3,9.7570056E2,3.366836E2,1.601836E2,1.2954288E2,1.6718945E2,2.4223312E1,9.716766E1,1.5485474E1,2.7036243E1,7.395691E0,1.2758179E2,9.948242E0,1.7977676E1,5.0724373E0,5.1836304E1,3.6831604E1,1.2653809E1,2.5820923E0,6.8951097E0,2.6904373E0,7.942599E-2,6.670746E0,4.9274277E1,5.9472412E1,5.602455E-2,9.883667E0,2.6551425E0,4.697218E0,4.96809E0,1.0613251E0,2.1993412E1,3.6340454E1,1.615393E1,7.709152E0,9.901306E0,3.2835083E0,1.9234619E0,4.4703388E-1,3.9990807E0,3.3263845E0,1.0720711E0,7.511711E-1,1.3222391E-2,1.6926289E-2,9.321808E0,1.174472E1,6.900816E0,7.2728043E0,1.0921802E2,5.907715E0,2.0885468E-3,0E0,1.2488037E1,2.185315E1,1.1417887E0,1.3502829E0,1.0509644E0,5.405216E-1,1.5806494E0,7.7724075E-1,2.4340134E0,2.4311256E-1,0E0,0E0,0E0,0E0,0E0,0E0,0E0,0E0,0E0,0E0,0E0,0E0,0E0,0E0,0E0,0E0,0E0,0E0,0E0,0E0,0E0,0E0,0E0,0E0,0E0,0E0,0E0,0E0,0E0,0E0,0E0,0E0,0E0,0E0,0E0,0E0,0E0,0E0,0E0,0E0,0E0,0E0,0E0,0E0,0E0,0E0,0E0,0E0,0E0,0E0,0E0,0E0,0E0,0E0,0E0,0E0,0E0,0E0,0E0,0E0,0E0,0E0],"parents":[2147483647,0,0,1,1,2,2,3,3,4,4,5,5,6,6,7,7,8,8,9,9,10,10,11,11,12,12,13,13,14,14,15,15,16,16,17,17,18,18,19,19,20,20,21,21,22,22,23,23,24,24,25,25,26,26,27,27,28,28,29,29,30,30,31,31,32,32,33,33,34,34,35,35,36,36,37,37,38,38,39,39,40,40,41,41,42,42,43,43,44,44,45,45,46,46,47,47,48,48,49,49,50,50,51,51,53,53,54,54,55,55,56,56,57,57,58,58,59,59,60,60,61,61,62,62],"right_children":[2,4,6,8,10,12,14,16,18,20,22,24,26,28,30,32,34,36,38,40,42,44,46,48,50,52,54,56,58,60,62,64,66,68,70,72,74,76,78,80,82,84,86,88,90,92,94,96,98,100,102,104,-1,106,108,110,112,114,116,118,120,122,124,-1,-1,-1,-1,-1,-1,-1,-1,-1,-1,-1,-1,-1,-1,-1,-1,-1,-1,-1,-1,-1,-1,-1,-1,-1,-1,-1,-1,-1,-1,-1,-1,-1,-1,-1,-1,-1,-1,-1,-1,-1,-1,-1,-1,-1,-1,-1,-1,-1,-1,-1,-1,-1,-1,-1,-1,-1,-1,-1,-1,-1,-1],"split_conditions":[2.8751865E-1,3.6302423E-1,7.374218E-2,3.592549E-1,6.6276175E-1,8.459128E-1,4.1479164E-1,2.2151591E-1,5.3502214E-1,1.8373853E-1,1.0526086E-1,2.6931837E-1,1.0526086E-1,1.8320085E-1,1.4680421E-1,9.978659E-2,1.5086423E-1,1.0973136E-1,7.917036E-2,6.358587E-2,5.288193E-1,8.446343E-1,1.482499E-1,5.0132424E-1,1.7511722E-1,8.945276E-1,1.4718837E-1,6.750263E-2,3.7406978E-1,5.518351E-1,1.7511722E-1,1.4657323E-1,1.4711997E-1,1.5419042E-1,1.3257706E-1,1.485127E-1,1.00704096E-1,1.0973136E-1,1.6264111E-1,4.9677262E-1,4.8395526E-1,1.2502557E-1,1.0526086E-1,4.3278933E-2,8.7773246E-1,1.2502557E-1,1.7511722E-1,3.740398E-1,6.720418E-1,1.482499E-1,4.429801E-1,8.6993736E-1,1.1822705E-2,1.3153906E-1,1.7511722E-1,3.2659087E-1,1.2383555E-1,1.8240888E-1,1.7511722E-1,1.7511722E-1,1.7511722E-1,1.482499E-1,2.8153855E-1,-9.5248345E-4,-3.943969E-3,-6.748844E-3,-2.609145E-3,-9.582707E-3,-6.2338705E-3,-5.47271E-3,-1.4457711E-3,-7.148889E-3,-9.15105E-3,-1.0259372E-2,-6.7096795E-3,-1.033373E-2,-1.1817731E-2,-8.3312625E-3,-5.4172277E-3,-1.8987572E-3,1.8883189E-3,1.510399E-3,4.9361098E-3,3.535114E-3,7.545688E-3,1.8904511E-3,1.1390395E-2,6.998506E-4,-1.9844102E-3,2.4414149E-3,3.4289192E-3,9.684272E-3,1.49815595E-2,7.646281E-3,1.4173013E-2,4.9599E-4,4.648976E-3,9.918374E-3,1.6401866E-2,1.4513174E-2,8.232705E-3,1.6544815E-2,1.9609915E-2,9.408327E-3,1.0380841E-2,2.010709E-2,2.6287526E-2,1.597547E-2,2.5290122E-2,-3.0181042E-3,-6.712798E-4,-1.7549256E-3,1.4585886E-3,3.4816165E-3,7.471446E-3,9.229915E-3,1.3860484E-2,3.6597215E-3,7.7236146E-3,9.067259E-3,1.4475566E-2,1.1380328E-2,4.7020684E-3,1.2444311E-2,1.6922753E-2],"split_indices":[3,2,4,0,2,3,3,4,0,3,7,2,7,2,2,0,3,6,3,3,2,2,7,3,7,3,7,2,2,3,7,7,3,2,2,7,3,6,3,2,2,7,7,4,2,7,7,3,3,7,3,3,0,7,7,3,7,7,7,7,7,7,2,0,0,0,0,0,0,0,0,0,0,0,0,0,0,0,0,0,0,0,0,0,0,0,0,0,0,0,0,0,0,0,0,0,0,0,0,0,0,0,0,0,0,0,0,0,0,0,0,0,0,0,0,0,0,0,0,0,0,0,0,0,0],"split_type":[0,0,0,0,0,0,0,0,0,0,0,0,0,0,0,0,0,0,0,0,0,0,0,0,0,0,0,0,0,0,0,0,0,0,0,0,0,0,0,0,0,0,0,0,0,0,0,0,0,0,0,0,0,0,0,0,0,0,0,0,0,0,0,0,0,0,0,0,0,0,0,0,0,0,0,0,0,0,0,0,0,0,0,0,0,0,0,0,0,0,0,0,0,0,0,0,0,0,0,0,0,0,0,0,0,0,0,0,0,0,0,0,0,0,0,0,0,0,0,0,0,0,0,0,0],"sum_hessian":[8E5,5.56168E5,2.43832E5,4.95818E5,6.035E4,2.07023E5,3.6809E4,3.04296E5,1.91522E5,3.2211E4,2.8139E4,1.82027E5,2.4996E4,2.4561E4,1.2248E4,2.0292E5,1.01376E5,1.44695E5,4.6827E4,2.5831E4,6.38E3,8.96E2,2.7243E4,2.3424E4,1.58603E5,8.77E2,2.4119E4,1.7706E4,6.855E3,9.082E3,3.166E3,9.8529E4,1.04391E5,8.0122E4,2.1254E4,1.05638E5,3.9057E4,4.4159E4,2.668E3,1.2732E4,1.3099E4,4.118E3,2.262E3,9.2E1,8.04E2,1.5637E4,1.1606E4,1.6032E4,7.392E3,1.33071E5,2.5532E4,5.38E2,3.39E2,1.321E4,1.0909E4,8.795E3,8.911E3,5.006E3,1.849E3,7.017E3,2.065E3,2.622E3,5.44E2,5.1607E4,4.6922E4,7.4791E4,2.96E4,6.1281E4,1.8841E4,1.4074E4,7.18E3,6.6199E4,3.9439E4,3.6241E4,2.816E3,3.2056E4,1.2103E4,1.933E3,7.35E2,8.609E3,4.123E3,8.951E3,4.148E3,8.4E2,3.278E3,8.7E1,2.175E3,6.8E1,2.4E1,2.81E2,5.23E2,4.803E3,1.0834E4,7.089E3,4.517E3,8.352E3,7.68E3,4.617E3,2.775E3,9.3773E4,3.9298E4,1.4014E4,1.1518E4,2.08E2,3.3E2,6.1E3,7.11E3,6.949E3,3.96E3,3.346E3,5.449E3,1.591E3,7.32E3,4.223E3,7.83E2,1.542E3,3.07E2,5.873E3,1.144E3,1.748E3,3.17E2,1.844E3,7.78E2,3.25E2,2.19E2],"tree_param":{"num_deleted":"0","num_feature":"8","num_nodes":"125","size_leaf_vector":"1"}},{"base_weights":[2.257908E-6,-4.5985583E-2,1.1089695E-1,-6.0412385E-2,5.8060996E-2,1.2413653E-1,3.5760224E-2,-4.710369E-2,-8.0044664E-2,1.3097991E-2,9.628971E-2,1.1456342E-1,1.9091125E-1,2.5532395E-2,9.070721E-2,-3.2997336E-2,-6.6922165E-2,-8.186399E-2,-4.0958457E-2,-7.973234E-3,4.5525394E-2,6.819705E-2,1.09994695E-1,1.2089278E-1,3.7027586E-2,9.6618086E-2,1.9433558E-1,8.866123E-3,6.2344916E-2,5.4082565E-2,1.0026367E-1,-2.1443918E-2,-5.0696634E-2,-7.64237E-2,-2.7534952E-2,-7.660224E-2,-9.402025E-2,-5.190694E-2,-1.923802E-2,2.5646233E-3,-2.1362903E-2,2.9886404E-2,6.929087E-2,4.8437342E-2,1.00150526E-1,2.7792515E-2,1.12723544E-1,8.508786E-2,1.3025631E-1,2.5107168E-2,8.143443E-2,9.024374E-2,1.0643913E-2,2.1092108E-1,1.7423612E-1,-5.0775297E-3,2.6880445E-2,5.3796843E-2,9.8046824E-2,1.7143342E-1,4.71934E-2,1.28904E-1,7.885776E-2,-1.3098802E-3,-4.370305E-3,-6.0098916E-3,-2.0542385E-3,-8.535029E-3,-5.674308E-3,-4.28907E-3,-4.0897104E-4,-6.8240757E-3,-8.595928E-3,-9.015103E-3,-1.043111E-2,-6.085526E-3,-3.186933E-3,-2.9050764E-3,1.5727711E-4,-2.9254323E-3,2.083448E-3,-3.920757E-3,9.387649E-4,-7.545712E-5,3.6339336E-3,8.2890345E-3,5.103325E-3,2.536015E-3,6.1429148E-3,9.310835E-3,1.3821107E-2,2.452405E-3,3.345073E-3,1.2575336E-2,9.7096935E-3,1.8802855E-2,7.702533E-3,1.5895916E-2,1.0724826E-2,8.229466E-4,4.958686E-3,4.3839673E-3,8.996464E-3,8.471996E-3,9.345893E-3,2.2681912E-2,1.5609729E-2,1.437919E-2,2.276175E-2,3.9436264E-4,-1.9689496E-3,1.4784863E-3,4.1725175E-3,4.138881E-3,7.848173E-3,5.2458025E-3,1.082565E-2,1.7570807E-2,8.670604E-3,3.7902594E-4,5.7902145E-3,1.4195323E-2,6.4118616E-3,5.2629523E-3,1.2728579E-2],"categories":[],"categories_nodes":[],"categories_segments":[],"categories_sizes":[],"default_left":[0,0,0,0,0,0,0,0,0,0,0,0,0,0,0,0,0,0,0,0,0,0,0,0,0,0,0,0,0,0,0,0,0,0,0,0,0,0,0,0,0,0,0,0,0,0,0,0,0,0,0,0,0,0,0,0,0,0,0,0,0,0,0,0,0,0,0,0,0,0,0,0,0,0,0,0,0,0,0,0,0,0,0,0,0,0,0,0,0,0,0,0,0,0,0,0,0,0,0,0,0,0,0,0,0,0,0,0,0,0,0,0,0,0,0,0,0,0,0,0,0,0,0,0,0],"id":5,"left_children":[1,3,5,7,9,11,13,15,17,19,21,23,25,27,29,31,33,35,37,39,41,43,45,47,49,51,53,55,57,59,61,63,65,67,69,71,73,75,77,79,81,83,85,87,89,91,93,95,97,99,101,103,-1,105,107,109,111,113,115,117,119,121,123,-1,-1,-1,-1,-1,-1,-1,-1,-1,-1,-1,-1,-1,-1,-1,-1,-1,-1,-1,-1,-1,-1,-1,-1,-1,-1,-1,-1,-1,-1,-1,-1,-1,-1,-1,-1,-1,-1,-1,-1,-1,-1,-1,-1,-1,-1,-1,-1,-1,-1,-1,-1,-1,-1,-1,-1,-1,-1,-1,-1,-1,-1],"loss_changes":[4.0798564E3,8.488419E2,2.3328003E2,1.2975623E2,1.18364105E2,1.2742822E2,1.9742023E1,8.274585E1,1.42647705E1,2.162292E1,1.4321777E1,8.5572754E1,8.052856E0,1.8172743E1,1.9241371E0,3.5357666E1,4.6056946E1,1.2255981E1,2.1216555E0,2.7066045E0,4.630398E0,7.701912E0,5.6076965E0,5.4039062E1,6.9652348E0,4.535961E-2,8.00415E0,5.122059E0,2.8118668E0,9.159672E-1,2.6695786E0,1.9433678E1,1.936084E1,1.7414612E1,8.611847E0,1.0463257E1,2.2965088E0,1.0620451E0,6.112491E-1,6.2411613E0,4.6360693E0,1.4867153E0,1.2238331E0,2.2602406E0,1.2369537E0,1.4067113E-2,4.917053E0,2.7726166E1,8.437915E1,4.2873755E0,8.8918304E-1,1.6546249E-3,0E0,1.1479248E1,1.769931E1,1.515312E0,1.596889E0,2.2786198E0,8.2374763E-1,7.582307E-3,5.0222206E-1,1.5701046E0,3.1738358E0,0E0,0E0,0E0,0E0,0E0,0E0,0E0,0E0,0E0,0E0,0E0,0E0,0E0,0E0,0E0,0E0,0E0,0E0,0E0,0E0,0E0,0E0,0E0,0E0,0E0,0E0,0E0,0E0,0E0,0E0,0E0,0E0,0E0,0E0,0E0,0E0,0E0,0E0,0E0,0E0,0E0,0E0,0E0,0E0,0E0,0E0,0E0,0E0,0E0,0E0,0E0,0E0,0E0,0E0,0E0,0E0,0E0,0E0,0E0,0E0,0E0,0E0],"parents":[2147483647,0,0,1,1,2,2,3,3,4,4,5,5,6,6,7,7,8,8,9,9,10,10,11,11,12,12,13,13,14,14,15,15,16,16,17,17,18,18,19,19,20,20,21,21,22,22,23,23,24,24,25,25,26,26,27,27,28,28,29,29,30,30,31,31,32,32,33,33,34,34,35,35,36,36,37,37,38,38,39,39,40,40,41,41,42,42,43,43,44,44,45,45,46,46,47,47,48,48,49,49,50,50,51,51,53,53,54,54,55,55,56,56,57,57,58,58,59,59,60,60,61,61,62,62],"right_children":[2,4,6,8,10,12,14,16,18,20,22,24,26,28,30,32,34,36,38,40,42,44,46,48,50,52,54,56,58,60,62,64,66,68,70,72,74,76,78,80,82,84,86,88,90,92,94,96,98,100,102,104,-1,106,108,110,112,114,116,118,120,122,124,-1,-1,-1,-1,-1,-1,-1,-1,-1,-1,-1,-1,-1,-1,-1,-1,-1,-1,-1,-1,-1,-1,-1,-1,-1,-1,-1,-1,-1,-1,-1,-1,-1,-1,-1,-1,-1,-1,-1,-1,-1,-1,-1,-1,-1,-1,-1,-1,-1,-1,-1,-1,-1,-1,-1,-1,-1,-1,-1,-1,-1,-1],"split_conditions":[3.0313194E-1,3.434451E-1,7.04384E-2,3.4737352E-1,5.3550535E-1,8.459128E-1,3.0308935E-1,1.7016755E-1,1.4711997E-1,1.1942272E-1,8.446343E-1,8.3655074E-2,1.0526086E-1,4.367823E-1,1.2502557E-1,1.4620571E-1,1.7482589E-1,5.108083E-1,1.0627198E-1,1.4718837E-1,2.1165277E-1,1.5086423E-1,1.0526086E-1,1.2502557E-1,4.8407137E-1,8.945276E-1,1.4718837E-1,1.0015303E-1,5.752477E-1,-4.6300173E-2,1.4698885E-1,1.0973136E-1,1.6663297E-1,1.3257706E-1,1.1893553E-1,1.4657323E-1,1.0973136E-1,2.3293021E-1,2.1666558E-1,1.2502557E-1,1.7511722E-1,1.2383555E-1,1.4723718E-1,5.957324E-1,1.7511722E-1,8.942972E-1,1.4718837E-1,-3.8384788E-2,1.4716558E-1,1.3940665E-1,1.2409899E-1,8.6993736E-1,1.0643913E-2,1.138246E-1,1.7511722E-1,5.8781892E-2,3.5941553E-1,1.0319753E-1,1.2383555E-1,8.082407E-2,1.0526086E-1,1.353877E-1,1.7511722E-1,-1.3098802E-3,-4.370305E-3,-6.0098916E-3,-2.0542385E-3,-8.535029E-3,-5.674308E-3,-4.28907E-3,-4.0897104E-4,-6.8240757E-3,-8.595928E-3,-9.015103E-3,-1.043111E-2,-6.085526E-3,-3.186933E-3,-2.9050764E-3,1.5727711E-4,-2.9254323E-3,2.083448E-3,-3.920757E-3,9.387649E-4,-7.545712E-5,3.6339336E-3,8.2890345E-3,5.103325E-3,2.536015E-3,6.1429148E-3,9.310835E-3,1.3821107E-2,2.452405E-3,3.345073E-3,1.2575336E-2,9.7096935E-3,1.8802855E-2,7.702533E-3,1.5895916E-2,1.0724826E-2,8.229466E-4,4.958686E-3,4.3839673E-3,8.996464E-3,8.471996E-3,9.345893E-3,2.2681912E-2,1.5609729E-2,1.437919E-2,2.276175E-2,3.9436264E-4,-1.9689496E-3,1.4784863E-3,4.1725175E-3,4.138881E-3,7.848173E-3,5.2458025E-3,1.082565E-2,1.7570807E-2,8.670604E-3,3.7902594E-4,5.7902145E-3,1.4195323E-2,6.4118616E-3,5.2629523E-3,1.2728579E-2],"split_indices":[3,2,0,0,2,3,2,4,3,3,2,4,7,3,7,0,3,0,2,7,3,3,7,7,3,3,7,2,3,6,7,6,3,2,2,7,6,3,3,7,7,7,7,2,7,2,7,6,7,2,7,3,0,6,7,6,3,2,7,5,7,6,7,0,0,0,0,0,0,0,0,0,0,0,0,0,0,0,0,0,0,0,0,0,0,0,0,0,0,0,0,0,0,0,0,0,0,0,0,0,0,0,0,0,0,0,0,0,0,0,0,0,0,0,0,0,0,0,0,0,0,0,0,0,0],"split_type":[0,0,0,0,0,0,0,0,0,0,0,0,0,0,0,0,0,0,0,0,0,0,0,0,0,0,0,0,0,0,0,0,0,0,0,0,0,0,0,0,0,0,0,0,0,0,0,0,0,0,0,0,0,0,0,0,0,0,0,0,0,0,0,0,0,0,0,0,0,0,0,0,0,0,0,0,0,0,0,0,0,0,0,0,0,0,0,0,0,0,0,0,0,0,0,0,0,0,0,0,0,0,0,0,0,0,0,0,0,0,0,0,0,0,0,0,0,0,0,0,0,0,0,0,0],"sum_hessian":[8E5,5.65492E5,2.34508E5,4.96631E5,6.8861E4,1.99376E5,3.5132E4,2.95986E5,2.00645E5,3.1644E4,3.7217E4,1.74379E5,2.4997E4,2.962E4,5.512E3,1.72913E5,1.23073E5,1.9172E5,8.925E3,1.9181E4,1.2463E4,1.2205E4,2.5012E4,1.61218E5,1.3161E4,8.77E2,2.412E4,2.039E4,9.23E3,1.142E3,4.37E3,1.04622E5,6.8291E4,9.9153E4,2.392E4,1.33809E5,5.7911E4,5.933E3,2.992E3,1.0734E4,8.447E3,7.518E3,4.945E3,7.543E3,4.662E3,8.04E2,2.4208E4,3.3423E4,1.27795E5,1.0377E4,2.784E3,5.38E2,3.39E2,1.321E4,1.091E4,1.1494E4,8.896E3,7.449E3,1.781E3,6.2E1,1.08E3,1.867E3,2.503E3,7.6095E4,2.8527E4,5.2058E4,1.6233E4,6.8211E4,3.0942E4,1.4453E4,9.467E3,7.0668E4,6.3141E4,4.2094E4,1.5817E4,4.1E3,1.833E3,2.033E3,9.59E2,3.915E3,6.819E3,5.345E3,3.102E3,1.308E3,6.21E3,2.832E3,2.113E3,2.718E3,4.825E3,3.937E3,7.25E2,5.13E2,2.91E2,1.3197E4,1.1011E4,2.426E3,3.0997E4,5.6858E4,7.0937E4,6.143E3,4.234E3,5.16E2,2.268E3,2.08E2,3.3E2,1.0238E4,2.972E3,6.95E3,3.96E3,7.107E3,4.387E3,4.903E3,3.993E3,4.959E3,2.49E3,3.27E2,1.454E3,5.8E1,4E0,2.14E2,8.66E2,1.553E3,3.14E2,1.625E3,8.78E2],"tree_param":{"num_deleted":"0","num_feature":"8","num_nodes":"125","size_leaf_vector":"1"}},{"base_weights":[2.373929E-6,-4.335868E-2,9.534211E-2,-5.5787124E-2,4.7889926E-2,1.0950088E-1,2.5448693E-2,-5.926746E-2,6.1467045E-4,1.2844005E-2,9.494241E-2,1.16304025E-1,2.7155818E-2,9.12938E-3,5.457454E-2,-6.632493E-2,-2.954176E-2,1.9369047E-2,-2.468038E-2,-2.3128742E-3,4.1109897E-2,6.572315E-2,1.0182416E-1,1.0564341E-1,1.611267E-1,1.2639577E-2,6.0797848E-2,-5.823222E-3,4.0096365E-2,3.9717518E-2,7.835121E-2,-6.983086E-2,-2.3609152E-2,-4.342335E-2,-9.778272E-4,3.5669174E-2,-6.861172E-3,-1.7410945E-2,-4.490577E-2,-1.1280848E-2,1.9694941E-2,3.146597E-2,6.599017E-2,1.751004E-1,5.9121177E-2,1.2689538E-1,8.44408E-2,9.79232E-2,1.4581674E-1,1.2822263E-1,1.6986085E-1,-1.4189216E-3,4.4745162E-2,2.3857493E-2,6.909528E-2,4.216755E-3,-1.8378677E-2,3.0005828E-2,6.83526E-2,2.8428216E-2,7.44277E-2,4.3254063E-2,8.592063E-2,-6.1451187E-3,-8.044536E-3,6.0440577E-3,-2.6608051E-3,-5.2484153E-3,-2.6926086E-3,-1.2869993E-3,1.9914065E-3,6.1106016E-3,2.821108E-3,4.1107528E-4,-1.9022468E-3,1.3083137E-4,-4.0210797E-3,-4.9458076E-3,-4.1165613E-3,-2.2377002E-3,1.02725346E-4,3.2003664E-3,4.568615E-4,4.4187093E-3,1.5135423E-3,3.4834524E-3,7.433571E-3,1.7680632E-2,7.721878E-3,9.423244E-3,3.9319643E-3,1.4584558E-2,1.00519145E-2,6.7350506E-3,1.18220635E-2,1.0724011E-2,2.6542593E-3,5.6140604E-3,1.49537055E-2,2.5403425E-2,1.2086609E-2,2.0085504E-2,1.4871637E-2,8.9781464E-4,-1.4315947E-3,3.2910982E-3,6.585744E-3,1.4185006E-2,1.687134E-3,1.0228278E-2,4.3633296E-3,-2.5721155E-3,2.1651792E-3,-3.8541954E-3,1.5966989E-3,4.0266346E-3,1.2985213E-3,6.0766186E-3,1.0739718E-2,4.06707E-3,1.2266515E-3,9.050346E-3,5.33829E-3,7.776437E-3,1.2147076E-3,1.1419951E-2,6.628714E-3],"categories":[],"categories_nodes":[],"categories_segments":[],"categories_sizes":[],"default_left":[0,0,0,0,0,0,0,0,0,0,0,0,0,0,0,0,0,0,0,0,0,0,0,0,0,0,0,0,0,0,0,0,0,0,0,0,0,0,0,0,0,0,0,0,0,0,0,0,0,0,0,0,0,0,0,0,0,0,0,0,0,0,0,0,0,0,0,0,0,0,0,0,0,0,0,0,0,0,0,0,0,0,0,0,0,0,0,0,0,0,0,0,0,0,0,0,0,0,0,0,0,0,0,0,0,0,0,0,0,0,0,0,0,0,0,0,0,0,0,0,0,0,0,0,0,0,0],"id":6,"left_children":[1,3,5,7,9,11,13,15,17,19,21,23,25,27,29,31,33,35,37,39,41,43,45,47,49,51,53,55,57,59,61,63,65,67,69,71,73,75,77,79,81,83,85,87,89,91,93,95,97,99,101,103,105,107,109,111,113,115,117,119,121,123,125,-1,-1,-1,-1,-1,-1,-1,-1,-1,-1,-1,-1,-1,-1,-1,-1,-1,-1,-1,-1,-1,-1,-1,-1,-1,-1,-1,-1,-1,-1,-1,-1,-1,-1,-1,-1,-1,-1,-1,-1,-1,-1,-1,-1,-1,-1,-1,-1,-1,-1,-1,-1,-1,-1,-1,-1,-1,-1,-1,-1,-1,-1,-1,-1],"loss_changes":[3.3072334E3,6.2363574E2,2.4749634E2,9.500464E1,1.0870235E2,1.165022E2,2.0024948E1,9.5630615E1,1.3345152E1,1.6186764E1,5.6516876E0,9.177466E1,7.750416E0,1.2503621E1,5.341217E0,5.516797E1,3.4680946E1,6.906983E0,1.7601624E0,4.854427E0,3.1622982E0,3.8651886E0,9.914719E0,4.8117676E1,1.0585144E1,5.0051537E0,1.464695E0,2.2956922E0,2.5050154E0,3.6472187E0,1.5416565E0,3.027649E1,7.0450764E0,8.79689E0,7.1074133E0,1.8883591E0,8.2629424E-1,3.7609816E0,5.1869392E-2,2.3866289E0,1.3256824E0,1.9741354E0,9.5502853E-1,3.7275314E-2,3.5163803E0,4.645294E0,7.7579727E0,8.6571655E1,8.336853E0,7.1385117E0,1.9082275E1,1.0343742E0,8.415637E-1,7.221789E-1,3.2961826E0,5.282879E0,5.6044955E0,1.1313214E0,6.786041E-1,1.390254E0,7.682085E-1,1.1090664E0,2.6485672E0,0E0,0E0,0E0,0E0,0E0,0E0,0E0,0E0,0E0,0E0,0E0,0E0,0E0,0E0,0E0,0E0,0E0,0E0,0E0,0E0,0E0,0E0,0E0,0E0,0E0,0E0,0E0,0E0,0E0,0E0,0E0,0E0,0E0,0E0,0E0,0E0,0E0,0E0,0E0,0E0,0E0,0E0,0E0,0E0,0E0,0E0,0E0,0E0,0E0,0E0,0E0,0E0,0E0,0E0,0E0,0E0,0E0,0E0,0E0,0E0,0E0,0E0,0E0,0E0],"parents":[2147483647,0,0,1,1,2,2,3,3,4,4,5,5,6,6,7,7,8,8,9,9,10,10,11,11,12,12,13,13,14,14,15,15,16,16,17,17,18,18,19,19,20,20,21,21,22,22,23,23,24,24,25,25,26,26,27,27,28,28,29,29,30,30,31,31,32,32,33,33,34,34,35,35,36,36,37,37,38,38,39,39,40,40,41,41,42,42,43,43,44,44,45,45,46,46,47,47,48,48,49,49,50,50,51,51,52,52,53,53,54,54,55,55,56,56,57,57,58,58,59,59,60,60,61,61,62,62],"right_children":[2,4,6,8,10,12,14,16,18,20,22,24,26,28,30,32,34,36,38,40,42,44,46,48,50,52,54,56,58,60,62,64,66,68,70,72,74,76,78,80,82,84,86,88,90,92,94,96,98,100,102,104,106,108,110,112,114,116,118,120,122,124,126,-1,-1,-1,-1,-1,-1,-1,-1,-1,-1,-1,-1,-1,-1,-1,-1,-1,-1,-1,-1,-1,-1,-1,-1,-1,-1,-1,-1,-1,-1,-1,-1,-1,-1,-1,-1,-1,-1,-1,-1,-1,-1,-1,-1,-1,-1,-1,-1,-1,-1,-1,-1,-1,-1,-1,-1,-1,-1,-1,-1,-1,-1,-1,-1],"split_conditions":[2.7560204E-1,3.349649E-1,7.06687E-2,6.577632E-1,6.6276175E-1,8.3655074E-2,4.0168148E-1,1.2606218E-1,1.4783001E-1,1.1942272E-1,1.2448508E-1,5.518351E-1,4.3068224E-1,1.7041864E-1,1.1893553E-1,6.5430105E-1,1.6214205E-1,5.8781892E-2,3.0731788E-1,4.8395526E-1,2.1666558E-1,-4.6300173E-2,1.4657323E-1,1.7511722E-1,1.2502557E-1,1.8766941E-1,1.2409899E-1,1.4716558E-1,3.7774584E-1,5.431159E-1,1.2383555E-1,1.4716558E-1,1.0526086E-1,2.1165277E-1,2.0673884E-1,-3.6453184E-2,1.353877E-1,1.1603439E-1,8.777691E-1,5.265845E-2,1.4718837E-1,1.4718837E-1,1.2502557E-1,4.7617685E-2,1.1208628E-1,2.8389875E-2,1.7511722E-1,1.6209307E-1,2.4454616E-1,-4.6300173E-2,1.4657323E-1,1.4702743E-1,3.079388E-1,-4.6300173E-2,1.4702743E-1,1.2502557E-1,1.7511722E-1,5.8781892E-2,1.7511722E-1,1.4718837E-1,1.4718837E-1,5.3608295E-2,1.4657323E-1,-6.1451187E-3,-8.044536E-3,6.0440577E-3,-2.6608051E-3,-5.2484153E-3,-2.6926086E-3,-1.2869993E-3,1.9914065E-3,6.1106016E-3,2.821108E-3,4.1107528E-4,-1.9022468E-3,1.3083137E-4,-4.0210797E-3,-4.9458076E-3,-4.1165613E-3,-2.2377002E-3,1.02725346E-4,3.2003664E-3,4.568615E-4,4.4187093E-3,1.5135423E-3,3.4834524E-3,7.433571E-3,1.7680632E-2,7.721878E-3,9.423244E-3,3.9319643E-3,1.4584558E-2,1.00519145E-2,6.7350506E-3,1.18220635E-2,1.0724011E-2,2.6542593E-3,5.6140604E-3,1.49537055E-2,2.5403425E-2,1.2086609E-2,2.0085504E-2,1.4871637E-2,8.9781464E-4,-1.4315947E-3,3.2910982E-3,6.585744E-3,1.4185006E-2,1.687134E-3,1.0228278E-2,4.3633296E-3,-2.5721155E-3,2.1651792E-3,-3.8541954E-3,1.5966989E-3,4.0266346E-3,1.2985213E-3,6.0766186E-3,1.0739718E-2,4.06707E-3,1.2266515E-3,9.050346E-3,5.33829E-3,7.776437E-3,1.2147076E-3,1.1419951E-2,6.628714E-3],"split_indices":[3,2,5,5,2,4,3,3,7,3,7,3,3,2,2,1,2,6,7,2,3,6,7,7,7,2,7,7,2,3,7,7,7,3,3,6,6,6,5,3,7,7,7,0,7,6,7,7,2,6,7,7,2,6,7,7,7,6,7,7,7,6,7,0,0,0,0,0,0,0,0,0,0,0,0,0,0,0,0,0,0,0,0,0,0,0,0,0,0,0,0,0,0,0,0,0,0,0,0,0,0,0,0,0,0,0,0,0,0,0,0,0,0,0,0,0,0,0,0,0,0,0,0,0,0,0,0],"split_type":[0,0,0,0,0,0,0,0,0,0,0,0,0,0,0,0,0,0,0,0,0,0,0,0,0,0,0,0,0,0,0,0,0,0,0,0,0,0,0,0,0,0,0,0,0,0,0,0,0,0,0,0,0,0,0,0,0,0,0,0,0,0,0,0,0,0,0,0,0,0,0,0,0,0,0,0,0,0,0,0,0,0,0,0,0,0,0,0,0,0,0,0,0,0,0,0,0,0,0,0,0,0,0,0,0,0,0,0,0,0,0,0,0,0,0,0,0,0,0,0,0,0,0,0,0,0,0],"sum_hessian":[8E5,5.49902E5,2.50098E5,4.83982E5,6.592E4,2.07968E5,4.213E4,4.55853E5,2.8129E4,3.7781E4,2.8139E4,1.92097E5,1.5871E4,2.7002E4,1.5128E4,3.68389E5,8.7464E4,1.6153E4,1.1976E4,2.4594E4,1.3187E4,5.366E3,2.2773E4,1.5519E5,3.6907E4,1.1088E4,4.783E3,1.821E4,8.792E3,9.312E3,5.816E3,3.40446E5,2.7943E4,5.8859E4,2.8605E4,9.962E3,6.191E3,8.811E3,3.165E3,1.7474E4,7.12E3,9.505E3,3.682E3,3.04E2,5.062E3,9.322E3,1.3451E4,1.30177E5,2.5013E4,7.745E3,2.9162E4,7.712E3,3.376E3,8.78E2,3.905E3,1.0119E4,8.091E3,6.48E3,2.312E3,7.028E3,2.284E3,1.033E3,4.783E3,1.90255E5,1.50191E5,9.62E2,2.6981E4,3.7991E4,2.0868E4,1.8229E4,1.0376E4,2.257E3,7.705E3,3.255E3,2.936E3,4.839E3,3.972E3,1.422E3,1.743E3,9.189E3,8.285E3,3.925E3,3.195E3,5.342E3,4.163E3,7.79E2,2.903E3,2.98E2,6E0,1.824E3,3.238E3,5.422E3,3.9E3,8.934E3,4.517E3,1.15147E5,1.503E4,9.97E2,2.4016E4,4.26E2,7.319E3,1.1823E4,1.7339E4,4.27E3,3.442E3,2.165E3,1.211E3,4.8E1,8.3E2,1.694E3,2.211E3,3.724E3,6.395E3,5.098E3,2.993E3,4.042E3,2.438E3,1.938E3,3.74E2,3.998E3,3.03E3,1.293E3,9.91E2,4.89E2,5.44E2,1.958E3,2.825E3],"tree_param":{"num_deleted":"0","num_feature":"8","num_nodes":"127","size_leaf_vector":"1"}},{"base_weights":[2.5008248E-6,-3.6947247E-2,9.081514E-2,-4.9615327E-2,4.277611E-2,1.0196269E-1,3.1902485E-2,-3.995306E-2,-6.778933E-2,7.311412E-3,7.68493E-2,9.404062E-2,1.5569203E-1,2.0755908E-2,7.257967E-2,-3.4447655E-2,-6.864481E-2,-6.335895E-2,-7.970351E-2,-1.0791669E-2,3.1120766E-2,5.538991E-2,8.95024E-2,9.9461496E-2,3.2907955E-2,7.491933E-2,1.5862568E-1,8.686911E-3,5.337696E-2,4.006284E-2,8.137694E-2,-1.7975306E-2,-4.3728687E-2,-5.8203574E-2,-8.179501E-2,-5.995137E-2,-8.068993E-2,-8.142844E-2,-5.4150004E-2,-1.4158412E-3,-2.2564411E-2,1.8376354E-2,4.8986237E-2,3.512037E-2,7.870363E-2,1.5608916E-2,9.195582E-2,1.1240684E-2,1.0264287E-1,1.5206112E-2,5.2981555E-2,6.9193885E-2,8.377548E-2,2.424911E-1,1.553948E-1,-5.7658837E-3,2.056064E-2,1.7955666E-2,6.1354917E-2,1.4075658E-1,3.4170248E-2,1.0981741E-1,6.253144E-2,-6.7011244E-4,-3.224801E-3,-5.1195477E-3,-1.579795E-3,-8.00305E-3,-4.548862E-3,-8.960856E-3,-6.2235417E-3,-5.45637E-3,-6.8962076E-3,-5.6764386E-3,-8.1929555E-3,-8.552554E-3,-7.5940923E-3,-6.4453194E-3,-3.7918133E-3,-2.9198555E-3,1.4952909E-3,-3.7818744E-3,3.949395E-4,-9.5503265E-4,2.4379208E-3,1.99271E-3,5.622098E-3,1.7291306E-3,4.7499016E-3,-7.834903E-4,8.142418E-3,8.182226E-4,1.7811748E-3,1.5748193E-2,8.959084E-3,-3.0474068E-5,2.3958671E-3,9.5775835E-3,1.3682489E-2,7.982726E-4,5.7672407E-3,4.584601E-3,8.908443E-3,5.778969E-3,7.055504E-3,7.994242E-3,9.217541E-3,2.0998958E-2,2.6107801E-2,1.0112579E-2,1.6273446E-2,-2.9889734E-3,-3.9740044E-5,3.1966546E-3,7.0563395E-4,1.2142585E-2,9.5337443E-4,9.237915E-3,3.8965014E-3,1.0823793E-2,1.481831E-2,6.2094154E-3,1.7105598E-3,1.3210251E-2,7.5469515E-3,4.125581E-3,1.0394635E-2],"categories":[],"categories_nodes":[],"categories_segments":[],"categories_sizes":[],"default_left":[0,0,0,0,0,0,0,0,0,0,0,0,0,0,0,0,0,0,0,0,0,0,0,0,0,0,0,0,0,0,0,0,0,0,0,0,0,0,0,0,0,0,0,0,0,0,0,0,0,0,0,0,0,0,0,0,0,0,0,0,0,0,0,0,0,0,0,0,0,0,0,0,0,0,0,0,0,0,0,0,0,0,0,0,0,0,0,0,0,0,0,0,0,0,0,0,0,0,0,0,0,0,0,0,0,0,0,0,0,0,0,0,0,0,0,0,0,0,0,0,0,0,0,0,0,0,0],"id":7,"left_children":[1,3,5,7,9,11,13,15,17,19,21,23,25,27,29,31,33,35,37,39,41,43,45,47,49,51,53,55,57,59,61,63,65,67,69,71,73,75,77,79,81,83,85,87,89,91,93,95,97,99,101,103,105,107,109,111,113,115,117,119,121,123,125,-1,-1,-1,-1,-1,-1,-1,-1,-1,-1,-1,-1,-1,-1,-1,-1,-1,-1,-1,-1,-1,-1,-1,-1,-1,-1,-1,-1,-1,-1,-1,-1,-1,-1,-1,-1,-1,-1,-1,-1,-1,-1,-1,-1,-1,-1,-1,-1,-1,-1,-1,-1,-1,-1,-1,-1,-1,-1,-1,-1,-1,-1,-1,-1],"loss_changes":[2.6844102E3,5.7429156E2,1.5194202E2,8.615967E1,9.421561E1,8.279602E1,1.669083E1,5.06008E1,8.984924E0,1.6467558E1,1.0792084E1,5.6186157E1,5.911621E0,1.1376776E1,2.2617607E0,4.109085E1,7.0764313E0,7.3272705E0,2.0303345E0,2.395638E0,3.7563553E0,6.968418E0,4.533203E0,4.371045E1,4.9071484E0,3.872204E-2,6.498169E0,3.6202013E0,2.2042255E0,9.9676085E-1,3.3327942E0,1.5586788E1,3.585318E1,7.9755707E0,3.4824524E0,5.033325E0,6.00296E-1,9.6569824E-1,4.862318E-1,5.4954023E0,3.8917713E0,1.6151066E0,1.4431973E0,1.7411623E0,1.6156998E0,1.3023853E-2,3.7375183E0,7.961441E-1,3.5272095E1,2.2513947E0,1.6631908E0,4.2893887E-3,3.5784245E-3,4.846382E-1,9.236084E0,1.2322614E0,1.7835813E0,1.2501984E0,4.4205E0,6.420493E-3,7.594503E-1,1.8898659E0,3.299944E0,0E0,0E0,0E0,0E0,0E0,0E0,0E0,0E0,0E0,0E0,0E0,0E0,0E0,0E0,0E0,0E0,0E0,0E0,0E0,0E0,0E0,0E0,0E0,0E0,0E0,0E0,0E0,0E0,0E0,0E0,0E0,0E0,0E0,0E0,0E0,0E0,0E0,0E0,0E0,0E0,0E0,0E0,0E0,0E0,0E0,0E0,0E0,0E0,0E0,0E0,0E0,0E0,0E0,0E0,0E0,0E0,0E0,0E0,0E0,0E0,0E0,0E0,0E0,0E0],"parents":[2147483647,0,0,1,1,2,2,3,3,4,4,5,5,6,6,7,7,8,8,9,9,10,10,11,11,12,12,13,13,14,14,15,15,16,16,17,17,18,18,19,19,20,20,21,21,22,22,23,23,24,24,25,25,26,26,27,27,28,28,29,29,30,30,31,31,32,32,33,33,34,34,35,35,36,36,37,37,38,38,39,39,40,40,41,41,42,42,43,43,44,44,45,45,46,46,47,47,48,48,49,49,50,50,51,51,52,52,53,53,54,54,55,55,56,56,57,57,58,58,59,59,60,60,61,61,62,62],"right_children":[2,4,6,8,10,12,14,16,18,20,22,24,26,28,30,32,34,36,38,40,42,44,46,48,50,52,54,56,58,60,62,64,66,68,70,72,74,76,78,80,82,84,86,88,90,92,94,96,98,100,102,104,106,108,110,112,114,116,118,120,122,124,126,-1,-1,-1,-1,-1,-1,-1,-1,-1,-1,-1,-1,-1,-1,-1,-1,-1,-1,-1,-1,-1,-1,-1,-1,-1,-1,-1,-1,-1,-1,-1,-1,-1,-1,-1,-1,-1,-1,-1,-1,-1,-1,-1,-1,-1,-1,-1,-1,-1,-1,-1,-1,-1,-1,-1,-1,-1,-1,-1,-1,-1,-1,-1,-1],"split_conditions":[3.0819649E-1,3.1733614E-1,6.740898E-2,3.8465938E-1,5.225734E-1,8.459128E-1,2.8705215E-1,3.9382228E-1,1.0973136E-1,1.0981958E-1,8.446343E-1,7.644933E-2,1.0526086E-1,4.5559973E-1,1.2502557E-1,6.456108E-2,1.4716558E-1,6.552611E-1,9.475864E-2,1.4716558E-1,1.9716947E-1,1.2937486E-1,1.0526086E-1,1.0526086E-1,4.0835848E-1,8.945276E-1,1.1208628E-1,7.2508834E-2,1.2383555E-1,-4.6300173E-2,1.4657323E-1,1.4718837E-1,1.8373853E-1,1.2502557E-1,5.90862E-2,1.485127E-1,1.0526086E-1,3.9456728E-1,9.1413826E-2,1.2502557E-1,1.7511722E-1,1.2383555E-1,1.2502557E-1,5.957324E-1,1.0526086E-1,8.6946493E-1,1.1208628E-1,4.429801E-1,1.7511722E-1,3.4744135E-1,1.7511722E-1,5.2465934E-2,9.1731846E-1,1.8847506E-2,1.2383555E-1,1.2383555E-1,1.4702743E-1,-3.8384788E-2,1.4657323E-1,3.4366938E-1,1.1208628E-1,2.8389875E-2,1.7511722E-1,-6.7011244E-4,-3.224801E-3,-5.1195477E-3,-1.579795E-3,-8.00305E-3,-4.548862E-3,-8.960856E-3,-6.2235417E-3,-5.45637E-3,-6.8962076E-3,-5.6764386E-3,-8.1929555E-3,-8.552554E-3,-7.5940923E-3,-6.4453194E-3,-3.7918133E-3,-2.9198555E-3,1.4952909E-3,-3.7818744E-3,3.949395E-4,-9.5503265E-4,2.4379208E-3,1.99271E-3,5.622098E-3,1.7291306E-3,4.7499016E-3,-7.834903E-4,8.142418E-3,8.182226E-4,1.7811748E-3,1.5748193E-2,8.959084E-3,-3.0474068E-5,2.3958671E-3,9.5775835E-3,1.3682489E-2,7.982726E-4,5.7672407E-3,4.584601E-3,8.908443E-3,5.778969E-3,7.055504E-3,7.994242E-3,9.217541E-3,2.0998958E-2,2.6107801E-2,1.0112579E-2,1.6273446E-2,-2.9889734E-3,-3.9740044E-5,3.1966546E-3,7.0563395E-4,1.2142585E-2,9.5337443E-4,9.237915E-3,3.8965014E-3,1.0823793E-2,1.481831E-2,6.2094154E-3,1.7105598E-3,1.3210251E-2,7.5469515E-3,4.125581E-3,1.0394635E-2],"split_indices":[3,2,0,0,2,3,2,4,6,3,2,5,7,3,7,0,7,0,3,7,3,3,7,7,3,3,7,2,7,6,7,7,3,7,3,7,7,5,2,7,7,7,7,2,7,2,7,3,7,2,7,6,3,6,7,7,7,6,7,3,7,6,7,0,0,0,0,0,0,0,0,0,0,0,0,0,0,0,0,0,0,0,0,0,0,0,0,0,0,0,0,0,0,0,0,0,0,0,0,0,0,0,0,0,0,0,0,0,0,0,0,0,0,0,0,0,0,0,0,0,0,0,0,0,0,0,0],"split_type":[0,0,0,0,0,0,0,0,0,0,0,0,0,0,0,0,0,0,0,0,0,0,0,0,0,0,0,0,0,0,0,0,0,0,0,0,0,0,0,0,0,0,0,0,0,0,0,0,0,0,0,0,0,0,0,0,0,0,0,0,0,0,0,0,0,0,0,0,0,0,0,0,0,0,0,0,0,0,0,0,0,0,0,0,0,0,0,0,0,0,0,0,0,0,0,0,0,0,0,0,0,0,0,0,0,0,0,0,0,0,0,0,0,0,0,0,0,0,0,0,0,0,0,0,0,0,0],"sum_hessian":[8E5,5.68635E5,2.31365E5,4.90668E5,7.7967E4,1.94551E5,3.6814E4,3.20354E5,1.70314E5,3.8204E4,3.9763E4,1.69554E5,2.4997E4,2.8897E4,7.917E3,2.68782E5,5.1572E4,1.24153E5,4.6161E4,2.1703E4,1.6501E4,1.4751E4,2.5012E4,1.55743E5,1.3811E4,8.77E2,2.412E4,2.1094E4,7.803E3,1.687E3,6.23E3,9.6865E4,1.71917E5,2.875E4,2.2822E4,1.03757E5,2.0396E4,4.324E4,2.921E3,1.2082E4,9.621E3,9.632E3,6.869E3,7.892E3,6.859E3,8.04E2,2.4208E4,5.421E3,1.50322E5,7.34E3,6.471E3,5.38E2,3.39E2,8.92E2,2.3228E4,9.514E3,1.158E4,1.435E3,6.368E3,9.2E1,1.595E3,2.481E3,3.749E3,5.4118E4,4.2747E4,1.35652E5,3.6265E4,1.0581E4,1.8169E4,1.6305E4,6.517E3,6.4937E4,3.882E4,1.007E3,1.9389E4,2.4748E4,1.8492E4,1.785E3,1.136E3,4.479E3,7.603E3,6.107E3,3.514E3,1.704E3,7.928E3,1.37E3,5.499E3,3.235E3,4.657E3,2.09E2,6.65E3,1.85E2,6.19E2,8.41E2,2.3367E4,2.842E3,2.579E3,1.25178E5,2.5144E4,6.274E3,1.066E3,5.405E3,1.066E3,6.2E1,4.76E2,2.4E2,9.9E1,3.29E2,5.63E2,2.769E3,2.0459E4,1.731E3,7.783E3,6.277E3,5.303E3,1.07E2,1.328E3,2.668E3,3.7E3,2E1,7.2E1,6.04E2,9.91E2,1.503E3,9.78E2,2.478E3,1.271E3],"tree_param":{"num_deleted":"0","num_feature":"8","num_nodes":"127","size_leaf_vector":"1"}},{"base_weights":[2.5018774E-6,-3.5159107E-2,7.731379E-2,-4.6238616E-2,3.2572117E-2,8.904075E-2,1.97995E-2,-4.9318414E-2,2.4252927E-3,5.582824E-3,7.466936E-2,6.789411E-2,1.09358214E-1,4.9935677E-3,4.106002E-2,-5.4591566E-2,-2.4651524E-2,1.8277643E-2,-1.8955797E-2,-1.1852874E-2,2.4079263E-2,4.5975287E-2,8.072879E-2,8.1372345E-3,7.901652E-2,9.985452E-2,1.4013048E-1,-8.6618755E-3,2.7610729E-2,2.9566698E-2,6.363212E-2,-5.7502747E-2,-1.9391399E-2,-3.7988037E-2,-5.651176E-3,3.294401E-2,-5.323662E-3,-1.2230272E-2,-3.682245E-2,-1.9562548E-2,2.921718E-3,1.5481839E-2,4.557572E-2,1.4813061E-1,3.925068E-2,1.0243891E-1,6.491829E-2,-5.610134E-3,2.4829203E-2,4.6081014E-2,8.635207E-2,6.621721E-2,1.0725155E-1,1.338733E-1,1.7460224E-1,-5.2661775E-4,-2.2091748E-2,-9.3884846E-5,3.3805784E-2,2.2434305E-2,6.453024E-2,3.1188508E-2,7.093846E-2,-5.040616E-3,-6.6495487E-3,5.14482E-3,-2.2205305E-3,-4.4540106E-3,-2.3245865E-3,-1.3450886E-3,1.6195107E-3,5.846426E-3,2.6817084E-3,1.8963548E-4,-2.053628E-3,5.1587087E-4,-3.293378E-3,-4.1065044E-3,-3.339972E-3,-1.1640252E-3,-2.974036E-3,-5.7968413E-3,5.113338E-4,2.6059966E-3,1.8323865E-4,5.8083376E-3,2.8351448E-3,1.3027421E-2,1.5653836E-2,7.21053E-3,1.764641E-3,1.2824728E-2,8.901032E-3,4.9113478E-3,9.626283E-3,2.6969315E-4,-1.9231631E-3,1.9247798E-3,5.3650006E-3,1.3829472E-2,3.765963E-3,1.0943331E-2,6.6648433E-3,1.0027272E-2,3.4574238E-3,1.3153982E-2,8.579153E-3,1.4431218E-2,5.890207E-3,1.644149E-2,1.9109374E-2,1.4994827E-3,-1.9804516E-3,-4.737401E-3,-1.4324983E-3,9.606654E-3,-6.855574E-4,5.706377E-3,1.6732505E-3,1.6537622E-3,5.366422E-3,8.022688E-3,4.39576E-3,6.4554275E-3,1.881392E-4,9.67782E-3,4.943916E-3],"categories":[],"categories_nodes":[],"categories_segments":[],"categories_sizes":[],"default_left":[0,0,0,0,0,0,0,0,0,0,0,0,0,0,0,0,0,0,0,0,0,0,0,0,0,0,0,0,0,0,0,0,0,0,0,0,0,0,0,0,0,0,0,0,0,0,0,0,0,0,0,0,0,0,0,0,0,0,0,0,0,0,0,0,0,0,0,0,0,0,0,0,0,0,0,0,0,0,0,0,0,0,0,0,0,0,0,0,0,0,0,0,0,0,0,0,0,0,0,0,0,0,0,0,0,0,0,0,0,0,0,0,0,0,0,0,0,0,0,0,0,0,0,0,0,0,0],"id":8,"left_children":[1,3,5,7,9,11,13,15,17,19,21,23,25,27,29,31,33,35,37,39,41,43,45,47,49,51,53,55,57,59,61,63,65,67,69,71,73,75,77,79,81,83,85,87,89,91,93,95,97,99,101,103,105,107,109,111,113,115,117,119,121,123,125,-1,-1,-1,-1,-1,-1,-1,-1,-1,-1,-1,-1,-1,-1,-1,-1,-1,-1,-1,-1,-1,-1,-1,-1,-1,-1,-1,-1,-1,-1,-1,-1,-1,-1,-1,-1,-1,-1,-1,-1,-1,-1,-1,-1,-1,-1,-1,-1,-1,-1,-1,-1,-1,-1,-1,-1,-1,-1,-1,-1,-1,-1,-1,-1],"loss_changes":[2.1747168E3,4.1266437E2,1.6868188E2,7.0830505E1,8.7835E1,8.92478E1,1.3333637E1,5.78114E1,9.534744E0,1.5192536E1,5.2473297E0,6.7657166E1,3.0969849E1,7.7124667E0,4.5093155E0,3.7523315E1,1.9836575E1,5.5918074E0,1.4387379E0,2.7623093E0,4.223962E0,3.613061E0,8.551895E0,3.6659327E0,2.0730652E1,2.0134583E1,5.3683777E0,1.7012054E0,1.613512E0,2.8723354E0,1.3882904E0,2.1580688E1,5.5771675E0,4.441887E0,5.501751E0,1.5562544E0,6.801394E-1,3.133362E0,4.6185493E-2,1.2845187E0,1.1100501E0,2.35777E0,1.4051456E0,2.8399944E-2,3.5079794E0,3.629303E0,7.1438103E0,9.9139977E-1,1.1595764E0,1.2136414E1,3.1913086E1,1.5724361E1,3.4575256E1,1.655243E1,6.132126E-1,2.9021404E0,1.1527479E0,1.1183641E0,3.0498896E0,1.7620082E0,6.268158E-1,1.0559611E0,2.6545658E0,0E0,0E0,0E0,0E0,0E0,0E0,0E0,0E0,0E0,0E0,0E0,0E0,0E0,0E0,0E0,0E0,0E0,0E0,0E0,0E0,0E0,0E0,0E0,0E0,0E0,0E0,0E0,0E0,0E0,0E0,0E0,0E0,0E0,0E0,0E0,0E0,0E0,0E0,0E0,0E0,0E0,0E0,0E0,0E0,0E0,0E0,0E0,0E0,0E0,0E0,0E0,0E0,0E0,0E0,0E0,0E0,0E0,0E0,0E0,0E0,0E0,0E0,0E0,0E0],"parents":[2147483647,0,0,1,1,2,2,3,3,4,4,5,5,6,6,7,7,8,8,9,9,10,10,11,11,12,12,13,13,14,14,15,15,16,16,17,17,18,18,19,19,20,20,21,21,22,22,23,23,24,24,25,25,26,26,27,27,28,28,29,29,30,30,31,31,32,32,33,33,34,34,35,35,36,36,37,37,38,38,39,39,40,40,41,41,42,42,43,43,44,44,45,45,46,46,47,47,48,48,49,49,50,50,51,51,52,52,53,53,54,54,55,55,56,56,57,57,58,58,59,59,60,60,61,61,62,62],"right_children":[2,4,6,8,10,12,14,16,18,20,22,24,26,28,30,32,34,36,38,40,42,44,46,48,50,52,54,56,58,60,62,64,66,68,70,72,74,76,78,80,82,84,86,88,90,92,94,96,98,100,102,104,106,108,110,112,114,116,118,120,122,124,126,-1,-1,-1,-1,-1,-1,-1,-1,-1,-1,-1,-1,-1,-1,-1,-1,-1,-1,-1,-1,-1,-1,-1,-1,-1,-1,-1,-1,-1,-1,-1,-1,-1,-1,-1,-1,-1,-1,-1,-1,-1,-1,-1,-1,-1,-1,-1,-1,-1,-1,-1,-1,-1,-1,-1,-1,-1,-1,-1,-1,-1,-1,-1,-1],"split_conditions":[2.7560204E-1,2.980583E-1,7.050094E-2,6.577632E-1,5.957324E-1,4.429801E-1,3.8836828E-1,1.3286793E-1,1.4783001E-1,8.9192346E-2,1.2383555E-1,3.434451E-1,8.459128E-1,1.4680421E-1,1.4305957E-1,6.5430105E-1,1.2561496E-1,5.8781892E-2,3.02688E-1,4.3041208E-1,1.9716947E-1,-4.6300173E-2,1.4657323E-1,1.3257706E-1,1.2409899E-1,1.2383555E-1,1.8240888E-1,5.8781892E-2,1.2383555E-1,5.621368E-1,1.2383555E-1,1.4716558E-1,1.06686264E-1,2.2207442E-1,2.27421E-1,-4.1229106E-2,1.7494397E-1,1.1603439E-1,8.777691E-1,1.4718837E-1,1.0526086E-1,1.4718837E-1,1.4718837E-1,8.6946493E-1,1.1208628E-1,8.6494925E-4,1.7511722E-1,5.8781892E-2,1.7511722E-1,-3.8384788E-2,1.4716558E-1,5.3608295E-2,1.4718837E-1,1.6209307E-1,8.945276E-1,1.4716558E-1,1.2383555E-1,-4.6300173E-2,1.4657323E-1,1.7511722E-1,1.4716558E-1,5.3608295E-2,1.4716558E-1,-5.040616E-3,-6.6495487E-3,5.14482E-3,-2.2205305E-3,-4.4540106E-3,-2.3245865E-3,-1.3450886E-3,1.6195107E-3,5.846426E-3,2.6817084E-3,1.8963548E-4,-2.053628E-3,5.1587087E-4,-3.293378E-3,-4.1065044E-3,-3.339972E-3,-1.1640252E-3,-2.974036E-3,-5.7968413E-3,5.113338E-4,2.6059966E-3,1.8323865E-4,5.8083376E-3,2.8351448E-3,1.3027421E-2,1.5653836E-2,7.21053E-3,1.764641E-3,1.2824728E-2,8.901032E-3,4.9113478E-3,9.626283E-3,2.6969315E-4,-1.9231631E-3,1.9247798E-3,5.3650006E-3,1.3829472E-2,3.765963E-3,1.0943331E-2,6.6648433E-3,1.0027272E-2,3.4574238E-3,1.3153982E-2,8.579153E-3,1.4431218E-2,5.890207E-3,1.644149E-2,1.9109374E-2,1.4994827E-3,-1.9804516E-3,-4.737401E-3,-1.4324983E-3,9.606654E-3,-6.855574E-4,5.706377E-3,1.6732505E-3,1.6537622E-3,5.366422E-3,8.022688E-3,4.39576E-3,6.4554275E-3,1.881392E-4,9.67782E-3,4.943916E-3],"split_indices":[3,2,1,5,2,3,3,3,7,3,7,2,3,2,2,1,2,6,7,2,3,6,7,2,7,7,7,6,7,3,7,7,7,3,3,6,6,6,5,7,7,7,7,2,7,6,7,6,7,6,7,6,7,7,3,7,7,6,7,7,7,6,7,0,0,0,0,0,0,0,0,0,0,0,0,0,0,0,0,0,0,0,0,0,0,0,0,0,0,0,0,0,0,0,0,0,0,0,0,0,0,0,0,0,0,0,0,0,0,0,0,0,0,0,0,0,0,0,0,0,0,0,0,0,0,0,0],"split_type":[0,0,0,0,0,0,0,0,0,0,0,0,0,0,0,0,0,0,0,0,0,0,0,0,0,0,0,0,0,0,0,0,0,0,0,0,0,0,0,0,0,0,0,0,0,0,0,0,0,0,0,0,0,0,0,0,0,0,0,0,0,0,0,0,0,0,0,0,0,0,0,0,0,0,0,0,0,0,0,0,0,0,0,0,0,0,0,0,0,0,0,0,0,0,0,0,0,0,0,0,0,0,0,0,0,0,0,0,0,0,0,0,0,0,0,0,0,0,0,0,0,0,0,0,0,0,0],"sum_hessian":[8E5,5.49902E5,2.50098E5,4.72595E5,7.7307E4,2.0774E5,4.2358E4,4.44466E5,2.8129E4,4.7107E4,3.02E4,1.01795E5,1.05945E5,2.497E4,1.7388E4,3.66184E5,7.8282E4,1.6153E4,1.1976E4,2.4249E4,2.2858E4,5.267E3,2.4933E4,1.5974E4,8.5821E4,8.0949E4,2.4996E4,1.557E4,9.4E3,1.1523E4,5.865E3,3.38212E5,2.7972E4,4.5996E4,3.2286E4,9.962E3,6.191E3,8.702E3,3.274E3,1.5934E4,8.315E3,1.6329E4,6.529E3,3.24E2,4.943E3,1.0504E4,1.4429E4,8.76E3,7.214E3,1.5634E4,7.0187E4,1.4594E4,6.6355E4,2.116E4,3.836E3,9.697E3,5.873E3,1.718E3,7.682E3,9.572E3,1.951E3,1.079E3,4.786E3,1.89039E5,1.49173E5,1.068E3,2.6904E4,3.1842E4,1.4154E4,2.3792E4,8.494E3,1.927E3,8.035E3,4.199E3,1.992E3,4.73E3,3.972E3,1.457E3,1.817E3,8.961E3,6.973E3,2.88E2,8.027E3,9.199E3,7.13E3,3.781E3,2.748E3,1.09E2,2.15E2,1.96E3,2.983E3,3.592E3,6.912E3,9.594E3,4.835E3,5.442E3,3.318E3,6.045E3,1.169E3,1.307E3,1.4327E4,3.2321E4,3.7866E4,7.028E3,7.566E3,3.1124E4,3.5231E4,1.8573E4,2.587E3,2.378E3,1.458E3,5.372E3,4.325E3,1.379E3,4.494E3,1.12E2,1.606E3,3.251E3,4.431E3,8.053E3,1.519E3,1.105E3,8.46E2,5.04E2,5.75E2,2.172E3,2.614E3],"tree_param":{"num_deleted":"0","num_feature":"8","num_nodes":"127","size_leaf_vector":"1"}},{"base_weights":[2.553004E-6,-2.9393284E-2,7.506979E-2,-3.8418233E-2,4.7553696E-2,8.403941E-2,2.7611624E-2,-4.3355986E-2,-8.930288E-3,1.384635E-2,6.2596336E-2,6.952912E-2,1.0398716E-1,1.5337604E-2,5.3950593E-2,-4.6640247E-2,-1.2882712E-4,-2.756469E-2,8.2388E-3,2.1352037E-3,3.74656E-2,6.7152776E-2,2.42487E-2,1.6304031E-2,7.6417305E-2,9.463016E-2,1.2871802E-1,6.0244626E-3,4.5611154E-2,4.7689103E-2,8.675428E-2,-5.036306E-2,-1.9956319E-2,1.3995159E-2,-1.928372E-2,-3.5341557E-2,-1.857746E-2,-1.6062101E-3,2.404448E-2,-2.1292606E-2,7.134694E-3,3.1266145E-2,6.961917E-2,-1.7631418E-3,6.9412425E-2,1.0896907E-2,4.9625706E-2,1.6501512E-3,2.7372025E-2,6.978066E-2,1.1097356E-1,8.768212E-2,1.3105741E-1,5.4487586E-2,1.3143373E-1,9.790886E-4,3.1651884E-2,3.8825944E-2,8.151086E-2,6.4226374E-2,1.40163E-2,7.575167E-2,1.0610273E-1,-5.3149764E-3,-1.741199E-3,-3.0173785E-3,-8.8835246E-4,2.7017829E-3,-6.9733005E-4,-1.3421447E-3,-3.4720302E-3,-2.833413E-3,-4.416696E-3,-1.1881406E-3,-2.9850898E-3,-2.303414E-3,3.1207682E-4,-2.1140196E-4,3.0797473E-3,6.226362E-3,-2.853519E-3,2.779387E-3,-7.974054E-4,4.849972E-3,-3.5508495E-4,6.4324895E-3,8.164739E-3,-1.995624E-3,6.849695E-4,7.98518E-3,5.522693E-3,-1.6180257E-3,1.6929721E-3,1.8680992E-3,5.6921155E-3,1.1405632E-3,-1.0926939E-3,2.1225016E-3,5.8265263E-3,7.7998624E-3,7.413022E-4,1.1927662E-2,1.02279065E-2,9.648478E-3,1.9034898E-3,1.3357773E-2,8.833337E-3,5.0550657E-3,6.392849E-3,1.451014E-2,1.1482173E-2,1.6043636E-3,-2.9698478E-3,1.5816841E-3,4.0270365E-3,5.7362523E-3,-4.8778352E-4,7.110347E-3,1.1553949E-2,8.601889E-3,3.0067477E-3,-1.6875219E-3,4.499716E-3,6.1130244E-3,8.923097E-3,1.0046419E-2,1.2844632E-2],"categories":[],"categories_nodes":[],"categories_segments":[],"categories_sizes":[],"default_left":[0,0,0,0,0,0,0,0,0,0,0,0,0,0,0,0,0,0,0,0,0,0,0,0,0,0,0,0,0,0,0,0,0,0,0,0,0,0,0,0,0,0,0,0,0,0,0,0,0,0,0,0,0,0,0,0,0,0,0,0,0,0,0,0,0,0,0,0,0,0,0,0,0,0,0,0,0,0,0,0,0,0,0,0,0,0,0,0,0,0,0,0,0,0,0,0,0,0,0,0,0,0,0,0,0,0,0,0,0,0,0,0,0,0,0,0,0,0,0,0,0,0,0,0,0,0,0],"id":9,"left_children":[1,3,5,7,9,11,13,15,17,19,21,23,25,27,29,31,33,35,37,39,41,43,45,47,49,51,53,55,57,59,61,63,65,67,69,71,73,75,77,79,81,83,85,87,89,91,93,95,97,99,101,103,105,107,109,111,113,115,117,119,121,123,125,-1,-1,-1,-1,-1,-1,-1,-1,-1,-1,-1,-1,-1,-1,-1,-1,-1,-1,-1,-1,-1,-1,-1,-1,-1,-1,-1,-1,-1,-1,-1,-1,-1,-1,-1,-1,-1,-1,-1,-1,-1,-1,-1,-1,-1,-1,-1,-1,-1,-1,-1,-1,-1,-1,-1,-1,-1,-1,-1,-1,-1,-1,-1,-1],"loss_changes":[1.7653358E3,3.9922437E2,9.582727E1,7.491803E1,3.0598953E1,5.4795288E1,1.1568249E1,6.2570435E1,2.361212E1,5.151201E0,7.289261E0,4.018402E1,1.8437256E1,6.8824887E0,2.3322868E0,4.0689575E1,8.420122E0,2.472908E0,5.9772177E0,1.4585016E0,1.2283154E0,5.8079224E0,1.5014863E0,2.0372114E0,2.2249268E1,1.4629211E1,4.403961E0,2.4139984E0,1.3957558E0,5.3193035E0,3.7983608E-1,3.300653E1,5.673723E0,4.891881E0,1.1948624E0,1.1720428E0,1.2391505E0,2.397591E0,2.6043882E0,1.3270833E0,3.2033434E0,3.1064825E0,5.823803E-2,1.8581928E-1,5.34317E0,4.7497335E-1,3.4389114E-1,6.6341674E-1,1.3576946E0,4.1727966E1,1.1164398E0,2.9355774E1,9.857178E-1,2.5536537E-2,4.7760925E0,7.2099166E0,4.1847467E-1,3.9147744E0,3.147688E-1,4.766842E0,3.0135398E0,2.2415113E-1,6.999397E-2,0E0,0E0,0E0,0E0,0E0,0E0,0E0,0E0,0E0,0E0,0E0,0E0,0E0,0E0,0E0,0E0,0E0,0E0,0E0,0E0,0E0,0E0,0E0,0E0,0E0,0E0,0E0,0E0,0E0,0E0,0E0,0E0,0E0,0E0,0E0,0E0,0E0,0E0,0E0,0E0,0E0,0E0,0E0,0E0,0E0,0E0,0E0,0E0,0E0,0E0,0E0,0E0,0E0,0E0,0E0,0E0,0E0,0E0,0E0,0E0,0E0,0E0,0E0,0E0],"parents":[2147483647,0,0,1,1,2,2,3,3,4,4,5,5,6,6,7,7,8,8,9,9,10,10,11,11,12,12,13,13,14,14,15,15,16,16,17,17,18,18,19,19,20,20,21,21,22,22,23,23,24,24,25,25,26,26,27,27,28,28,29,29,30,30,31,31,32,32,33,33,34,34,35,35,36,36,37,37,38,38,39,39,40,40,41,41,42,42,43,43,44,44,45,45,46,46,47,47,48,48,49,49,50,50,51,51,52,52,53,53,54,54,55,55,56,56,57,57,58,58,59,59,60,60,61,61,62,62],"right_children":[2,4,6,8,10,12,14,16,18,20,22,24,26,28,30,32,34,36,38,40,42,44,46,48,50,52,54,56,58,60,62,64,66,68,70,72,74,76,78,80,82,84,86,88,90,92,94,96,98,100,102,104,106,108,110,112,114,116,118,120,122,124,126,-1,-1,-1,-1,-1,-1,-1,-1,-1,-1,-1,-1,-1,-1,-1,-1,-1,-1,-1,-1,-1,-1,-1,-1,-1,-1,-1,-1,-1,-1,-1,-1,-1,-1,-1,-1,-1,-1,-1,-1,-1,-1,-1,-1,-1,-1,-1,-1,-1,-1,-1,-1,-1,-1,-1,-1,-1,-1,-1,-1,-1,-1,-1,-1],"split_conditions":[3.1777054E-1,3.9833137E-1,6.625279E-2,1.9682895E-1,5.225734E-1,4.7269154E-1,2.0154361E-1,5.9519684E-1,9.475864E-2,1.5086423E-1,6.085975E-2,3.434451E-1,8.6039275E-1,4.8015112E-1,1.7511722E-1,1.7920502E-1,1.4783001E-1,4.5663197E-2,1.9716947E-1,1.2383555E-1,1.7511722E-1,1.0526086E-1,1.0370746E-1,1.0015303E-1,1.7511722E-1,1.7511722E-1,1.0526086E-1,1.7511722E-1,1.7511722E-1,1.4718837E-1,4.211443E-1,6.5430105E-1,8.080237E-2,5.8781892E-2,3.02688E-1,1.4718837E-1,5.8781892E-2,1.2383555E-1,1.2502557E-1,-3.8384788E-2,1.4657323E-1,1.4723718E-1,4.9677262E-1,8.446343E-1,1.482499E-1,1.2383555E-1,1.2433242E-1,1.4718837E-1,1.7511722E-1,1.6209307E-1,3.5364438E-2,1.6209307E-1,7.841893E-2,9.0399367E-1,1.4718837E-1,1.4718837E-1,4.855111E-2,1.482499E-1,5.9620726E-1,5.8781892E-2,3.2530412E-2,3.8466668E-1,5.0132424E-1,-5.3149764E-3,-1.741199E-3,-3.0173785E-3,-8.8835246E-4,2.7017829E-3,-6.9733005E-4,-1.3421447E-3,-3.4720302E-3,-2.833413E-3,-4.416696E-3,-1.1881406E-3,-2.9850898E-3,-2.303414E-3,3.1207682E-4,-2.1140196E-4,3.0797473E-3,6.226362E-3,-2.853519E-3,2.779387E-3,-7.974054E-4,4.849972E-3,-3.5508495E-4,6.4324895E-3,8.164739E-3,-1.995624E-3,6.849695E-4,7.98518E-3,5.522693E-3,-1.6180257E-3,1.6929721E-3,1.8680992E-3,5.6921155E-3,1.1405632E-3,-1.0926939E-3,2.1225016E-3,5.8265263E-3,7.7998624E-3,7.413022E-4,1.1927662E-2,1.02279065E-2,9.648478E-3,1.9034898E-3,1.3357773E-2,8.833337E-3,5.0550657E-3,6.392849E-3,1.451014E-2,1.1482173E-2,1.6043636E-3,-2.9698478E-3,1.5816841E-3,4.0270365E-3,5.7362523E-3,-4.8778352E-4,7.110347E-3,1.1553949E-2,8.601889E-3,3.0067477E-3,-1.6875219E-3,4.499716E-3,6.1130244E-3,8.923097E-3,1.0046419E-2,1.2844632E-2],"split_indices":[3,2,4,2,2,3,2,5,3,3,0,2,3,3,7,3,7,3,3,7,7,7,3,2,7,7,7,7,7,7,3,1,2,6,7,7,6,7,7,6,7,7,2,2,7,7,7,7,7,7,0,7,5,3,7,7,2,7,3,6,6,2,3,0,0,0,0,0,0,0,0,0,0,0,0,0,0,0,0,0,0,0,0,0,0,0,0,0,0,0,0,0,0,0,0,0,0,0,0,0,0,0,0,0,0,0,0,0,0,0,0,0,0,0,0,0,0,0,0,0,0,0,0,0,0,0,0],"split_type":[0,0,0,0,0,0,0,0,0,0,0,0,0,0,0,0,0,0,0,0,0,0,0,0,0,0,0,0,0,0,0,0,0,0,0,0,0,0,0,0,0,0,0,0,0,0,0,0,0,0,0,0,0,0,0,0,0,0,0,0,0,0,0,0,0,0,0,0,0,0,0,0,0,0,0,0,0,0,0,0,0,0,0,0,0,0,0,0,0,0,0,0,0,0,0,0,0,0,0,0,0,0,0,0,0,0,0,0,0,0,0,0,0,0,0,0,0,0,0,0,0,0,0,0,0,0,0],"sum_hessian":[8E5,5.74881E5,2.25119E5,5.14533E5,6.0348E4,1.89334E5,3.5785E4,4.40732E5,7.3801E4,1.8622E4,4.1726E4,1.09608E5,7.9726E4,2.4411E4,1.1374E4,4.09611E5,3.1121E4,3.539E4,3.8411E4,1.245E4,6.172E3,3.7294E4,4.432E3,1.256E4,9.7048E4,5.7845E4,2.1881E4,1.8669E4,5.742E3,9.553E3,1.821E3,3.5946E5,5.0151E4,1.7913E4,1.3208E4,1.8971E4,1.6419E4,2.3669E4,1.4742E4,2.189E3,1.0261E4,5.176E3,9.96E2,1.184E3,3.611E4,2.905E3,1.527E3,5.405E3,7.155E3,8.1415E4,1.5633E4,4.8582E4,9.263E3,7.73E2,2.1108E4,1.5599E4,3.07E3,4.831E3,9.11E2,6.406E3,3.147E3,1.164E3,6.57E2,3.3143E5,2.803E4,2.6082E4,2.4069E4,1.105E4,6.863E3,9.574E3,3.634E3,1.0577E4,8.394E3,1.0302E4,6.117E3,4.277E3,1.9392E4,3.025E3,1.1717E4,1.74E2,2.015E3,4.334E3,5.927E3,3.462E3,1.714E3,6.96E2,3E2,3.8E2,8.04E2,2.0799E4,1.5311E4,5.29E2,2.376E3,2.92E2,1.235E3,3.044E3,2.361E3,5.969E3,1.186E3,7.1936E4,9.479E3,7.99E3,7.643E3,4.306E4,5.522E3,8.745E3,5.18E2,5.5E2,2.23E2,1.1576E4,9.532E3,1.0462E4,5.137E3,1.083E3,1.987E3,3.392E3,1.439E3,7E2,2.11E2,3.91E3,2.496E3,1.576E3,1.571E3,5.61E2,6.03E2,5.29E2,1.28E2],"tree_param":{"num_deleted":"0","num_feature":"8","num_nodes":"127","size_leaf_vector":"1"}},{"base_weights":[2.5595202E-6,-2.6199412E-2,6.822107E-2,-3.489444E-2,3.994479E-2,7.6925896E-2,2.8373627E-2,-2.7653066E-2,-5.0961282E-2,1.115857E-2,5.645566E-2,6.732501E-2,1.0157295E-1,1.44226905E-2,4.7843613E-2,-2.0782983E-2,-4.213857E-2,-4.7151633E-2,-6.1416518E-2,-6.665107E-3,2.4616254E-2,6.0278688E-2,1.54894795E-2,1.3242771E-2,7.27678E-2,9.5203355E-2,1.3516307E-1,7.0478804E-3,4.0228866E-2,3.7268132E-2,6.573586E-2,-1.2155368E-2,-3.1830024E-2,-5.3985227E-2,-2.9291727E-2,-4.360498E-2,-6.004887E-2,-6.274887E-2,-3.4327205E-2,9.856034E-4,-1.6317008E-2,-6.742845E-4,3.1019617E-2,3.5739265E-2,6.6575736E-2,5.2330173E-3,3.5964362E-2,7.6070796E-3,4.1595995E-2,4.4081602E-2,8.0228955E-2,1.03858925E-1,2.6443666E-2,1.2687866E-1,1.5404856E-1,-1.6412497E-2,1.2280969E-2,7.116268E-3,4.7894098E-2,3.143535E-2,6.794133E-2,5.9635025E-2,9.752679E-2,-1.917484E-4,-2.8722214E-3,-2.3569227E-3,-4.2205555E-3,-4.560294E-3,-6.4531364E-3,-3.954954E-3,-1.7408188E-3,-3.9347797E-3,-5.0677746E-3,-6.1211376E-3,-3.7276174E-3,-6.0442057E-3,-6.9885436E-3,-4.126458E-3,-1.3750264E-3,-2.318221E-3,1.4845436E-3,-3.0799916E-3,9.365383E-4,9.478482E-3,-6.2260625E-4,5.5574467E-3,1.3777672E-3,1.174163E-2,2.951773E-3,8.886634E-3,5.154314E-3,1.6404182E-3,-8.573889E-4,-2.0433751E-4,4.313693E-3,2.2300316E-3,-2.2343912E-3,2.7386995E-3,5.4212194E-3,1.41921835E-2,3.7949886E-3,1.1130112E-2,6.535854E-3,1.5839947E-2,9.529297E-3,2.1540949E-3,1.5750231E-2,1.2916996E-2,8.70326E-3,1.6239231E-2,1.3960249E-2,7.5485604E-3,-2.235336E-3,3.4926985E-3,-3.853739E-4,1.1034591E-2,-1.159205E-4,7.343087E-3,2.527922E-3,3.8362525E-3,-2.3409135E-3,5.282302E-3,7.8088604E-3,7.4821673E-3,2.904164E-3,9.0304455E-3,1.153018E-2],"categories":[],"categories_nodes":[],"categories_segments":[],"categories_sizes":[],"default_left":[0,0,0,0,0,0,0,0,0,0,0,0,0,0,0,0,0,0,0,0,0,0,0,0,0,0,0,0,0,0,0,0,0,0,0,0,0,0,0,0,0,0,0,0,0,0,0,0,0,0,0,0,0,0,0,0,0,0,0,0,0,0,0,0,0,0,0,0,0,0,0,0,0,0,0,0,0,0,0,0,0,0,0,0,0,0,0,0,0,0,0,0,0,0,0,0,0,0,0,0,0,0,0,0,0,0,0,0,0,0,0,0,0,0,0,0,0,0,0,0,0,0,0,0,0,0,0],"id":10,"left_children":[1,3,5,7,9,11,13,15,17,19,21,23,25,27,29,31,33,35,37,39,41,43,45,47,49,51,53,55,57,59,61,63,65,67,69,71,73,75,77,79,81,83,85,87,89,91,93,95,97,99,101,103,105,107,109,111,113,115,117,119,121,123,125,-1,-1,-1,-1,-1,-1,-1,-1,-1,-1,-1,-1,-1,-1,-1,-1,-1,-1,-1,-1,-1,-1,-1,-1,-1,-1,-1,-1,-1,-1,-1,-1,-1,-1,-1,-1,-1,-1,-1,-1,-1,-1,-1,-1,-1,-1,-1,-1,-1,-1,-1,-1,-1,-1,-1,-1,-1,-1,-1,-1,-1,-1,-1,-1],"loss_changes":[1.4299712E3,3.3242352E2,7.700281E1,5.9433533E1,3.1916702E1,4.3107788E1,1.0811054E1,3.5042786E1,6.318573E0,5.87183E0,6.6827545E0,3.8597046E1,1.0914917E1,4.4131355E0,3.1414223E0,2.2765083E1,1.723906E1,5.31839E0,1.5275269E0,7.7774E-1,2.2588224E0,6.0292206E0,7.650513E-1,1.9157257E0,2.5495422E1,2.5551392E1,1.2538452E0,2.2146082E0,1.307826E0,1.866579E0,1.1910591E0,2.2747452E1,8.976456E0,5.2068787E0,6.6244087E0,2.745285E0,6.6184235E-1,6.6075134E-1,2.8336215E-1,1.9685799E0,1.7324861E0,1.4945692E0,4.711379E0,4.048067E0,1.0403534E1,3.747877E-1,3.3158565E-1,4.4030285E0,3.5489154E-1,1.4748657E1,4.367737E1,1.7801697E1,3.082102E0,5.057831E-1,2.7589798E-1,1.7978756E0,5.3888607E0,8.2877374E-1,2.4150267E0,3.3358116E0,2.517619E-1,2.4045086E0,1.1693764E-1,0E0,0E0,0E0,0E0,0E0,0E0,0E0,0E0,0E0,0E0,0E0,0E0,0E0,0E0,0E0,0E0,0E0,0E0,0E0,0E0,0E0,0E0,0E0,0E0,0E0,0E0,0E0,0E0,0E0,0E0,0E0,0E0,0E0,0E0,0E0,0E0,0E0,0E0,0E0,0E0,0E0,0E0,0E0,0E0,0E0,0E0,0E0,0E0,0E0,0E0,0E0,0E0,0E0,0E0,0E0,0E0,0E0,0E0,0E0,0E0,0E0,0E0,0E0,0E0],"parents":[2147483647,0,0,1,1,2,2,3,3,4,4,5,5,6,6,7,7,8,8,9,9,10,10,11,11,12,12,13,13,14,14,15,15,16,16,17,17,18,18,19,19,20,20,21,21,22,22,23,23,24,24,25,25,26,26,27,27,28,28,29,29,30,30,31,31,32,32,33,33,34,34,35,35,36,36,37,37,38,38,39,39,40,40,41,41,42,42,43,43,44,44,45,45,46,46,47,47,48,48,49,49,50,50,51,51,52,52,53,53,54,54,55,55,56,56,57,57,58,58,59,59,60,60,61,61,62,62],"right_children":[2,4,6,8,10,12,14,16,18,20,22,24,26,28,30,32,34,36,38,40,42,44,46,48,50,52,54,56,58,60,62,64,66,68,70,72,74,76,78,80,82,84,86,88,90,92,94,96,98,100,102,104,106,108,110,112,114,116,118,120,122,124,126,-1,-1,-1,-1,-1,-1,-1,-1,-1,-1,-1,-1,-1,-1,-1,-1,-1,-1,-1,-1,-1,-1,-1,-1,-1,-1,-1,-1,-1,-1,-1,-1,-1,-1,-1,-1,-1,-1,-1,-1,-1,-1,-1,-1,-1,-1,-1,-1,-1,-1,-1,-1,-1,-1,-1,-1,-1,-1,-1,-1,-1,-1,-1,-1],"split_conditions":[3.221935E-1,3.7406978E-1,6.2181987E-2,3.9841503E-1,5.225734E-1,5.168062E-1,1.8320085E-1,2.0615293E-1,1.138246E-1,8.161347E-2,6.95874E-2,2.92729E-1,1.7511722E-1,4.9233952E-1,4.2747995E-1,1.4718837E-1,6.767347E-2,5.742561E-1,1.2226336E-1,1.4718837E-1,1.2502557E-1,1.2502557E-1,8.161347E-2,1.7511722E-1,1.2502557E-1,1.653531E-1,8.780553E-1,1.2383555E-1,1.2383555E-1,1.7511722E-1,1.8240888E-1,5.8781892E-2,1.8202536E-1,1.4716558E-1,1.0627198E-1,1.482499E-1,7.692434E-2,5.61211E-1,2.3254527E-1,1.2502557E-1,1.7511722E-1,-4.6300173E-2,1.4657323E-1,-3.8384788E-2,1.4657323E-1,1.4718837E-1,1.2383555E-1,1.4718837E-1,9.4275646E-2,-4.6300173E-2,1.4372428E-1,-3.544177E-2,4.6630683E-3,7.484852E-2,-9.652083E-2,-4.6300173E-2,1.4657323E-1,-3.8384788E-2,1.4718837E-1,1.653531E-1,3.7406978E-1,1.4718837E-1,5.0132424E-1,-1.917484E-4,-2.8722214E-3,-2.3569227E-3,-4.2205555E-3,-4.560294E-3,-6.4531364E-3,-3.954954E-3,-1.7408188E-3,-3.9347797E-3,-5.0677746E-3,-6.1211376E-3,-3.7276174E-3,-6.0442057E-3,-6.9885436E-3,-4.126458E-3,-1.3750264E-3,-2.318221E-3,1.4845436E-3,-3.0799916E-3,9.365383E-4,9.478482E-3,-6.2260625E-4,5.5574467E-3,1.3777672E-3,1.174163E-2,2.951773E-3,8.886634E-3,5.154314E-3,1.6404182E-3,-8.573889E-4,-2.0433751E-4,4.313693E-3,2.2300316E-3,-2.2343912E-3,2.7386995E-3,5.4212194E-3,1.41921835E-2,3.7949886E-3,1.1130112E-2,6.535854E-3,1.5839947E-2,9.529297E-3,2.1540949E-3,1.5750231E-2,1.2916996E-2,8.70326E-3,1.6239231E-2,1.3960249E-2,7.5485604E-3,-2.235336E-3,3.4926985E-3,-3.853739E-4,1.1034591E-2,-1.159205E-4,7.343087E-3,2.527922E-3,3.8362525E-3,-2.3409135E-3,5.282302E-3,7.8088604E-3,7.4821673E-3,2.904164E-3,9.0304455E-3,1.153018E-2],"split_indices":[3,2,5,0,2,3,2,4,6,3,4,2,7,3,3,7,3,0,2,7,7,7,3,7,7,7,3,7,7,7,7,6,0,7,2,7,3,0,2,7,7,6,7,6,7,7,7,7,2,6,7,6,6,1,6,6,7,6,7,7,2,7,3,0,0,0,0,0,0,0,0,0,0,0,0,0,0,0,0,0,0,0,0,0,0,0,0,0,0,0,0,0,0,0,0,0,0,0,0,0,0,0,0,0,0,0,0,0,0,0,0,0,0,0,0,0,0,0,0,0,0,0,0,0,0,0,0],"split_type":[0,0,0,0,0,0,0,0,0,0,0,0,0,0,0,0,0,0,0,0,0,0,0,0,0,0,0,0,0,0,0,0,0,0,0,0,0,0,0,0,0,0,0,0,0,0,0,0,0,0,0,0,0,0,0,0,0,0,0,0,0,0,0,0,0,0,0,0,0,0,0,0,0,0,0,0,0,0,0,0,0,0,0,0,0,0,0,0,0,0,0,0,0,0,0,0,0,0,0,0,0,0,0,0,0,0,0,0,0,0,0,0,0,0,0,0,0,0,0,0,0,0,0,0,0,0,0],"sum_hessian":[8E5,5.77998E5,2.22002E5,5.10845E5,6.7153E4,1.82199E5,3.9803E4,3.52138E5,1.58707E5,2.4478E4,4.2675E4,1.31125E5,5.1074E4,2.3189E4,1.6614E4,2.38857E5,1.13281E5,1.16326E5,4.2381E4,1.0531E4,1.3947E4,3.9032E4,3.643E3,1.199E4,1.19135E5,4.2936E4,8.138E3,1.8036E4,5.153E3,1.0444E4,6.17E3,1.34116E5,1.04741E5,5.8933E4,5.4348E4,9.124E4,2.5086E4,4.0393E4,1.988E3,5.875E3,4.656E3,2.818E3,1.1129E4,7.972E3,3.106E4,2.428E3,1.215E3,1.0003E4,1.987E3,2.4592E4,9.4543E4,3.8135E4,4.801E3,5.662E3,2.476E3,3.289E3,1.4747E4,9.69E2,4.184E3,8.777E3,1.667E3,5.179E3,9.91E2,8.2892E4,5.1224E4,5.8315E4,4.6426E4,3.2838E4,2.6095E4,2.9168E4,2.518E4,5.6961E4,3.4279E4,2.3866E4,1.22E3,3.0533E4,9.86E3,1.486E3,5.02E2,2.141E3,3.734E3,2.977E3,1.679E3,1.54E2,2.664E3,4.59E3,6.539E3,5.63E2,7.409E3,1.2508E4,1.8552E4,1.342E3,1.086E3,1.93E2,1.022E3,6.711E3,3.292E3,9.36E2,1.051E3,1.449E3,2.3143E4,3.0599E4,6.3944E4,5.174E3,3.2961E4,4.629E3,1.72E2,5.352E3,3.1E2,1.563E3,9.13E2,1.99E2,3.09E3,6.135E3,8.612E3,7.1E1,8.98E2,1.964E3,2.22E3,7.793E3,9.84E2,6.72E2,9.95E2,3.46E3,1.719E3,7.09E2,2.82E2],"tree_param":{"num_deleted":"0","num_feature":"8","num_nodes":"127","size_leaf_vector":"1"}},{"base_weights":[2.5491847E-6,-2.6219351E-2,5.5602197E-2,-3.5359174E-2,1.9199155E-2,3.2478034E-2,7.283052E-2,-3.7962765E-2,3.930652E-3,3.6279806E-3,6.032103E-2,5.4108687E-3,5.4319695E-2,7.983835E-2,4.4601005E-2,-4.1673455E-2,-2.3048813E-2,1.7784005E-2,-1.1024009E-2,-7.099175E-3,1.6308533E-2,3.8991727E-2,6.577642E-2,-6.1746817E-3,1.9275386E-2,4.8128575E-2,8.643334E-2,5.0855618E-2,8.6203545E-2,2.4029203E-2,5.9486326E-2,-4.4149157E-2,-1.3960591E-2,-3.3369277E-2,-1.1634432E-2,4.6569213E-2,1.00972485E-2,-3.1497113E-3,-2.657276E-2,-1.4265377E-2,1.29398815E-2,-7.372745E-3,2.1475619E-2,1.1819805E-1,3.450213E-2,8.25E-2,5.2474227E-2,-2.6174452E-2,-1.7919537E-3,1.4229663E-2,4.5399368E-2,5.516543E-2,-8.518333E-3,7.85455E-2,9.442191E-2,8.029173E-2,2.1992253E-2,1.07705966E-1,6.7683265E-2,1.7852005E-2,5.7172295E-2,3.292508E-2,6.6493995E-2,-4.0142396E-3,-5.656282E-3,5.4307487E-3,-1.6395139E-3,-2.6180546E-3,-4.2613912E-3,-1.7493792E-3,8.7898035E-5,4.8748828E-3,-1.748076E-3,1.6098683E-3,-5.836201E-4,1.0520014E-3,-2.6794472E-3,-3.1957233E-3,-2.2213531E-3,-3.103377E-3,-1.0631025E-3,-3.7791565E-4,2.0350383E-3,7.5203674E-3,-1.4607259E-3,4.2442917E-3,5.6576025E-4,1.116269E-2,1.295237E-2,6.4728395E-3,1.8845858E-3,9.324301E-3,3.431874E-3,3.5570934E-3,8.108632E-3,4.1636294E-3,-3.1830934E-3,1.5504734E-3,-1.4324675E-3,2.6782493E-3,-1.5433967E-3,3.626778E-3,5.2573346E-3,7.2070383E-3,3.4813464E-3,-1.3533841E-3,1.0581183E-2,6.486244E-3,8.770119E-3,8.785303E-3,1.0867077E-2,1.4159371E-2,2.9475836E-3,8.9493545E-4,3.4517532E-3,1.3526504E-2,7.7397465E-3,4.337812E-3,1.1007893E-2,3.1983163E-3,-1.6216824E-3,4.831682E-3,8.066698E-3,6.4466125E-3,1.6235091E-3,9.428654E-3,5.314845E-3],"categories":[],"categories_nodes":[],"categories_segments":[],"categories_sizes":[],"default_left":[0,0,0,0,0,0,0,0,0,0,0,0,0,0,0,0,0,0,0,0,0,0,0,0,0,0,0,0,0,0,0,0,0,0,0,0,0,0,0,0,0,0,0,0,0,0,0,0,0,0,0,0,0,0,0,0,0,0,0,0,0,0,0,0,0,0,0,0,0,0,0,0,0,0,0,0,0,0,0,0,0,0,0,0,0,0,0,0,0,0,0,0,0,0,0,0,0,0,0,0,0,0,0,0,0,0,0,0,0,0,0,0,0,0,0,0,0,0,0,0,0,0,0,0,0,0,0],"id":11,"left_children":[1,3,5,7,9,11,13,15,17,19,21,23,25,27,29,31,33,35,37,39,41,43,45,47,49,51,53,55,57,59,61,63,65,67,69,71,73,75,77,79,81,83,85,87,89,91,93,95,97,99,101,103,105,107,109,111,113,115,117,119,121,123,125,-1,-1,-1,-1,-1,-1,-1,-1,-1,-1,-1,-1,-1,-1,-1,-1,-1,-1,-1,-1,-1,-1,-1,-1,-1,-1,-1,-1,-1,-1,-1,-1,-1,-1,-1,-1,-1,-1,-1,-1,-1,-1,-1,-1,-1,-1,-1,-1,-1,-1,-1,-1,-1,-1,-1,-1,-1,-1,-1,-1,-1,-1,-1,-1],"loss_changes":[1.1663457E3,2.2566669E2,1.0213776E2,4.629364E1,5.8313343E1,6.471334E1,2.9061218E1,2.3487244E1,5.8271217E0,8.985738E0,2.9079437E0,7.8524218E0,1.2040115E1,2.1708984E1,8.946568E0,2.3317017E1,9.961277E0,3.230219E0,1.655979E0,5.139195E0,3.7044592E0,1.8084388E0,4.4264145E0,2.3343425E0,2.9327507E0,2.0246185E1,6.094742E-1,1.800774E1,3.8423645E1,2.51083E0,3.1533127E0,1.5515808E1,4.6334343E0,2.9501839E0,2.944203E0,4.3041372E-1,1.1021553E0,2.902774E0,1.0601759E-1,1.6061072E0,1.168049E0,3.2408001E0,8.241869E0,5.858898E-3,2.2821174E0,4.5631714E0,5.3635674E0,1.8374758E0,4.735879E0,6.9460897E0,2.3405981E-1,1.5540939E1,3.2200603E0,6.121826E-1,4.4525146E-1,3.2685837E1,1.7483602E0,3.7288696E1,5.3423157E1,4.979971E0,3.970275E-1,1.8630061E0,4.969963E0,0E0,0E0,0E0,0E0,0E0,0E0,0E0,0E0,0E0,0E0,0E0,0E0,0E0,0E0,0E0,0E0,0E0,0E0,0E0,0E0,0E0,0E0,0E0,0E0,0E0,0E0,0E0,0E0,0E0,0E0,0E0,0E0,0E0,0E0,0E0,0E0,0E0,0E0,0E0,0E0,0E0,0E0,0E0,0E0,0E0,0E0,0E0,0E0,0E0,0E0,0E0,0E0,0E0,0E0,0E0,0E0,0E0,0E0,0E0,0E0,0E0,0E0,0E0,0E0],"parents":[2147483647,0,0,1,1,2,2,3,3,4,4,5,5,6,6,7,7,8,8,9,9,10,10,11,11,12,12,13,13,14,14,15,15,16,16,17,17,18,18,19,19,20,20,21,21,22,22,23,23,24,24,25,25,26,26,27,27,28,28,29,29,30,30,31,31,32,32,33,33,34,34,35,35,36,36,37,37,38,38,39,39,40,40,41,41,42,42,43,43,44,44,45,45,46,46,47,47,48,48,49,49,50,50,51,51,52,52,53,53,54,54,55,55,56,56,57,57,58,58,59,59,60,60,61,61,62,62],"right_children":[2,4,6,8,10,12,14,16,18,20,22,24,26,28,30,32,34,36,38,40,42,44,46,48,50,52,54,56,58,60,62,64,66,68,70,72,74,76,78,80,82,84,86,88,90,92,94,96,98,100,102,104,106,108,110,112,114,116,118,120,122,124,126,-1,-1,-1,-1,-1,-1,-1,-1,-1,-1,-1,-1,-1,-1,-1,-1,-1,-1,-1,-1,-1,-1,-1,-1,-1,-1,-1,-1,-1,-1,-1,-1,-1,-1,-1,-1,-1,-1,-1,-1,-1,-1,-1,-1,-1,-1,-1,-1,-1,-1,-1,-1,-1,-1,-1,-1,-1,-1,-1,-1,-1,-1,-1,-1],"split_conditions":[2.6348102E-1,2.567903E-1,4.114952E-1,6.577632E-1,8.446343E-1,4.081483E-1,5.336507E-2,1.0981958E-1,1.4657323E-1,8.9192346E-2,1.2502557E-1,1.29116E-1,1.7511722E-1,1.2383555E-1,1.8320085E-1,6.5430105E-1,1.0015303E-1,-1.9916028E-2,1.21402204E-1,4.7251797E-1,1.2383555E-1,-4.6300173E-2,1.4716558E-1,1.2383555E-1,1.7511722E-1,1.653531E-1,4.9677262E-1,5.4431017E-2,1.4716558E-1,1.7511722E-1,1.2502557E-1,1.353877E-1,1.0526086E-1,1.4718837E-1,2.019308E-1,1.4347035E-1,1.0254636E-1,2.999822E-1,8.777691E-1,1.2383555E-1,2.3544086E-2,-3.8384788E-2,1.4657323E-1,8.942972E-1,1.1208628E-1,1.353877E-1,1.7285909E-1,-3.8384788E-2,1.4657323E-1,1.482499E-1,2.1636948E-1,5.8781892E-2,4.6630683E-3,3.740398E-1,3.5941553E-1,1.1208628E-1,1.0973136E-1,2.8389875E-2,1.7511722E-1,1.482499E-1,5.354404E-1,1.1208628E-1,1.4372428E-1,-4.0142396E-3,-5.656282E-3,5.4307487E-3,-1.6395139E-3,-2.6180546E-3,-4.2613912E-3,-1.7493792E-3,8.7898035E-5,4.8748828E-3,-1.748076E-3,1.6098683E-3,-5.836201E-4,1.0520014E-3,-2.6794472E-3,-3.1957233E-3,-2.2213531E-3,-3.103377E-3,-1.0631025E-3,-3.7791565E-4,2.0350383E-3,7.5203674E-3,-1.4607259E-3,4.2442917E-3,5.6576025E-4,1.116269E-2,1.295237E-2,6.4728395E-3,1.8845858E-3,9.324301E-3,3.431874E-3,3.5570934E-3,8.108632E-3,4.1636294E-3,-3.1830934E-3,1.5504734E-3,-1.4324675E-3,2.6782493E-3,-1.5433967E-3,3.626778E-3,5.2573346E-3,7.2070383E-3,3.4813464E-3,-1.3533841E-3,1.0581183E-2,6.486244E-3,8.770119E-3,8.785303E-3,1.0867077E-2,1.4159371E-2,2.9475836E-3,8.9493545E-4,3.4517532E-3,1.3526504E-2,7.7397465E-3,4.337812E-3,1.1007893E-2,3.1983163E-3,-1.6216824E-3,4.831682E-3,8.066698E-3,6.4466125E-3,1.6235091E-3,9.428654E-3,5.314845E-3],"split_indices":[3,2,3,5,2,2,0,3,7,3,7,2,7,7,2,1,2,6,6,2,7,6,7,7,7,7,2,6,7,7,7,6,7,7,3,7,6,7,5,7,3,6,7,2,7,6,7,6,7,7,2,6,6,3,3,7,6,6,7,7,3,7,7,0,0,0,0,0,0,0,0,0,0,0,0,0,0,0,0,0,0,0,0,0,0,0,0,0,0,0,0,0,0,0,0,0,0,0,0,0,0,0,0,0,0,0,0,0,0,0,0,0,0,0,0,0,0,0,0,0,0,0,0,0,0,0,0],"split_type":[0,0,0,0,0,0,0,0,0,0,0,0,0,0,0,0,0,0,0,0,0,0,0,0,0,0,0,0,0,0,0,0,0,0,0,0,0,0,0,0,0,0,0,0,0,0,0,0,0,0,0,0,0,0,0,0,0,0,0,0,0,0,0,0,0,0,0,0,0,0,0,0,0,0,0,0,0,0,0,0,0,0,0,0,0,0,0,0,0,0,0,0,0,0,0,0,0,0,0,0,0,0,0,0,0,0,0,0,0,0,0,0,0,0,0,0,0,0,0,0,0,0,0,0,0,0,0],"sum_hessian":[8E5,5.43619E5,2.56381E5,4.5255E5,9.1069E4,1.09462E5,1.46919E5,4.24425E5,2.8125E4,6.6057E4,2.5012E4,4.8884E4,6.0578E4,1.17699E5,2.922E4,3.39863E5,8.4562E4,1.46E4,1.3525E4,3.5785E4,3.0272E4,5.096E3,1.9916E4,2.6631E4,2.2253E4,5.0789E4,9.789E3,2.1196E4,9.6503E4,1.2268E4,1.6952E4,3.11991E5,2.7872E4,4.4408E4,4.0154E4,3.076E3,1.1524E4,8.979E3,4.546E3,2.6359E4,9.426E3,5.422E3,2.485E4,2.72E2,4.824E3,8.821E3,1.1095E4,4.786E3,2.1845E4,1.8652E4,3.601E3,4.5177E4,5.612E3,4.931E3,4.858E3,1.0493E4,1.0703E4,4.4654E4,5.1849E4,1.0342E4,1.926E3,3.54E3,1.3412E4,2.35865E5,7.6126E4,9.59E2,2.6913E4,2.4984E4,1.9424E4,2.7348E4,1.2806E4,2.975E3,1.01E2,8.371E3,3.153E3,5.69E3,3.289E3,2.031E3,2.515E3,4.694E3,2.1665E4,2.895E3,6.531E3,4.36E2,4.986E3,1.0685E4,1.4165E4,1.79E2,9.3E1,1.645E3,3.179E3,7.212E3,1.609E3,6.976E3,4.119E3,3.68E2,4.418E3,9.178E3,1.2667E4,1.3106E4,5.546E3,1.587E3,2.014E3,2.4677E4,2.05E4,5.377E3,2.35E2,1.98E3,2.951E3,3.33E3,1.528E3,4.755E3,5.738E3,5.244E3,5.459E3,2.3386E4,2.1268E4,3.2957E4,1.8892E4,7.31E3,3.032E3,1.401E3,5.25E2,1.224E3,2.316E3,4.349E3,9.063E3],"tree_param":{"num_deleted":"0","num_feature":"8","num_nodes":"127","size_leaf_vector":"1"}},{"base_weights":[2.5557624E-6,-2.3597326E-2,5.0042607E-2,-3.210811E-2,1.6022135E-2,5.9510402E-2,1.5369657E-2,-3.478054E-2,9.733903E-5,1.3856593E-3,5.13865E-2,4.285413E-2,7.235445E-2,5.201537E-3,3.688257E-2,-3.0613868E-2,-4.597019E-2,1.123989E-2,-1.5092169E-2,-1.2193277E-2,1.2251863E-2,-3.5289677E-3,5.3355623E-2,1.102006E-2,5.1938884E-2,5.6421007E-3,7.472384E-2,4.0956493E-5,2.987788E-2,1.3025368E-2,4.3159667E-2,-2.4769133E-2,-4.0439043E-2,-4.9340658E-2,-3.3906285E-2,2.0968862E-2,-4.9063773E-3,-2.9791128E-2,-9.8068975E-3,-1.7651387E-2,-8.2203676E-4,7.7021853E-3,3.6406584E-2,5.6988887E-2,-6.450315E-3,1.4145881E-1,5.1462024E-2,-6.4883434E-4,2.3363674E-2,-1.8143846E-2,5.4484777E-2,-2.771101E-3,3.461235E-2,1.4898126E-1,7.189254E-2,-1.9312926E-2,5.1623164E-3,4.0377665E-2,1.2949011E-2,9.929358E-2,6.839814E-3,6.4214036E-2,2.6323631E-2,-1.9034455E-3,-3.783699E-3,-4.7338246E-3,-3.316634E-3,-5.0918492E-3,-3.0622827E-3,-4.396173E-3,-2.4113131E-3,3.9636497E-3,1.552536E-3,-1.720096E-3,3.2242978E-4,-2.5057162E-3,-3.8988937E-3,-3.675942E-4,-2.177778E-3,-1.2213747E-3,-2.680182E-3,7.6894875E-4,-1.1362148E-3,1.9591355E-3,-2.063571E-3,2.8288565E-3,5.2037304E-3,-5.450297E-4,1.2251396E-2,-2.8741902E-3,-3.8828E-4,1.28812045E-2,1.5070244E-2,2.1448424E-3,5.5799875E-3,-4.9723027E-4,2.2009346E-3,-9.927753E-5,2.9917671E-3,-2.4277202E-3,-1.0966276E-3,1.3232358E-2,5.154496E-3,2.6577862E-4,-1.4680771E-3,1.3017206E-3,3.7215825E-3,6.4854748E-3,1.5792096E-2,2.5746701E-3,7.8104436E-3,4.759835E-3,-2.4006811E-3,2.485647E-3,-8.070826E-4,6.2681804E-3,1.3200728E-3,-2.3279598E-3,2.5418315E-3,9.120755E-3,1.2842238E-2,3.901187E-3,-1.0644614E-3,7.677226E-3,6.9081143E-4,4.914566E-4,6.3291634E-3],"categories":[],"categories_nodes":[],"categories_segments":[],"categories_sizes":[],"default_left":[0,0,0,0,0,0,0,0,0,0,0,0,0,0,0,0,0,0,0,0,0,0,0,0,0,0,0,0,0,0,0,0,0,0,0,0,0,0,0,0,0,0,0,0,0,0,0,0,0,0,0,0,0,0,0,0,0,0,0,0,0,0,0,0,0,0,0,0,0,0,0,0,0,0,0,0,0,0,0,0,0,0,0,0,0,0,0,0,0,0,0,0,0,0,0,0,0,0,0,0,0,0,0,0,0,0,0,0,0,0,0,0,0,0,0,0,0,0,0,0,0,0,0,0,0,0,0],"id":12,"left_children":[1,3,5,7,9,11,13,15,17,19,21,23,25,27,29,31,33,35,37,39,41,43,45,47,49,51,53,55,57,59,61,63,65,67,69,71,73,75,77,79,81,83,85,87,89,91,93,95,97,99,101,103,105,107,109,111,113,115,117,119,121,123,125,-1,-1,-1,-1,-1,-1,-1,-1,-1,-1,-1,-1,-1,-1,-1,-1,-1,-1,-1,-1,-1,-1,-1,-1,-1,-1,-1,-1,-1,-1,-1,-1,-1,-1,-1,-1,-1,-1,-1,-1,-1,-1,-1,-1,-1,-1,-1,-1,-1,-1,-1,-1,-1,-1,-1,-1,-1,-1,-1,-1,-1,-1,-1,-1],"loss_changes":[9.447538E2,1.833052E2,8.416321E1,3.8514282E1,4.975672E1,4.3081116E1,1.20293E1,1.9263702E1,5.803579E0,1.0032174E1,3.043007E0,2.5358337E1,1.7972778E1,4.755543E0,2.6425972E0,1.7289368E1,4.5569916E0,3.1072755E0,1.1269605E0,1.8757896E0,4.1502786E0,1.7274144E-1,4.5247116E0,2.8042583E0,1.217247E1,9.5089656E-1,2.30755E1,3.0614645E0,1.1475611E0,1.9619628E0,4.9513454E0,1.4147194E1,5.6333313E0,2.586441E0,2.4101868E0,1.2536469E0,7.435821E-1,1.6609454E-1,7.833164E-1,1.0157552E0,8.7953806E-1,1.0708541E1,7.580948E-1,1.8477768E-1,5.317324E-2,4.7337532E-2,3.4613266E0,9.8061025E-1,1.5103087E0,1.0503578E-1,1.5056259E1,1.9555952E-1,4.887891E-2,3.022087E0,3.0318726E1,2.0310018E0,6.3654747E0,2.41532E0,1.1182101E0,4.6228886E-2,1.931512E0,4.467123E0,6.1460934E0,0E0,0E0,0E0,0E0,0E0,0E0,0E0,0E0,0E0,0E0,0E0,0E0,0E0,0E0,0E0,0E0,0E0,0E0,0E0,0E0,0E0,0E0,0E0,0E0,0E0,0E0,0E0,0E0,0E0,0E0,0E0,0E0,0E0,0E0,0E0,0E0,0E0,0E0,0E0,0E0,0E0,0E0,0E0,0E0,0E0,0E0,0E0,0E0,0E0,0E0,0E0,0E0,0E0,0E0,0E0,0E0,0E0,0E0,0E0,0E0,0E0,0E0,0E0,0E0],"parents":[2147483647,0,0,1,1,2,2,3,3,4,4,5,5,6,6,7,7,8,8,9,9,10,10,11,11,12,12,13,13,14,14,15,15,16,16,17,17,18,18,19,19,20,20,21,21,22,22,23,23,24,24,25,25,26,26,27,27,28,28,29,29,30,30,31,31,32,32,33,33,34,34,35,35,36,36,37,37,38,38,39,39,40,40,41,41,42,42,43,43,44,44,45,45,46,46,47,47,48,48,49,49,50,50,51,51,52,52,53,53,54,54,55,55,56,56,57,57,58,58,59,59,60,60,61,61,62,62],"right_children":[2,4,6,8,10,12,14,16,18,20,22,24,26,28,30,32,34,36,38,40,42,44,46,48,50,52,54,56,58,60,62,64,66,68,70,72,74,76,78,80,82,84,86,88,90,92,94,96,98,100,102,104,106,108,110,112,114,116,118,120,122,124,126,-1,-1,-1,-1,-1,-1,-1,-1,-1,-1,-1,-1,-1,-1,-1,-1,-1,-1,-1,-1,-1,-1,-1,-1,-1,-1,-1,-1,-1,-1,-1,-1,-1,-1,-1,-1,-1,-1,-1,-1,-1,-1,-1,-1,-1,-1,-1,-1,-1,-1,-1,-1,-1,-1,-1,-1,-1,-1,-1,-1,-1,-1,-1,-1],"split_conditions":[2.6348102E-1,2.4454616E-1,6.354422E-2,5.7473576E-1,6.6276175E-1,4.3068224E-1,2.1142848E-1,1.0973136E-1,1.4783001E-1,7.2899014E-2,1.06686264E-1,4.0486386E-1,1.0526086E-1,4.7269154E-1,1.2502557E-1,1.485127E-1,9.777743E-2,6.0569406E-2,8.446384E-1,4.113105E-1,1.7511722E-1,3.9095737E-2,1.0904709E-1,1.7041864E-1,1.0526086E-1,8.459128E-1,1.1208628E-1,1.2502557E-1,5.8781892E-2,-4.6300173E-2,1.4716558E-1,4.3073282E-1,1.7511722E-1,8.4272283E-1,9.1413826E-2,-3.6453184E-2,1.2383555E-1,1.1603439E-1,1.1603439E-1,5.8781892E-2,1.4718837E-1,1.482499E-1,1.7070626E-1,9.509196E-2,8.446343E-1,8.7773246E-1,1.2383555E-1,1.7511722E-1,1.2502557E-1,3.8128483E-1,1.1208628E-1,4.497232E-2,5.2465934E-2,1.06686264E-1,1.2383555E-1,-3.8384788E-2,1.4657323E-1,1.4718837E-1,1.2383555E-1,4.490731E-1,1.1208628E-1,1.353877E-1,1.7511722E-1,-1.9034455E-3,-3.783699E-3,-4.7338246E-3,-3.316634E-3,-5.0918492E-3,-3.0622827E-3,-4.396173E-3,-2.4113131E-3,3.9636497E-3,1.552536E-3,-1.720096E-3,3.2242978E-4,-2.5057162E-3,-3.8988937E-3,-3.675942E-4,-2.177778E-3,-1.2213747E-3,-2.680182E-3,7.6894875E-4,-1.1362148E-3,1.9591355E-3,-2.063571E-3,2.8288565E-3,5.2037304E-3,-5.450297E-4,1.2251396E-2,-2.8741902E-3,-3.8828E-4,1.28812045E-2,1.5070244E-2,2.1448424E-3,5.5799875E-3,-4.9723027E-4,2.2009346E-3,-9.927753E-5,2.9917671E-3,-2.4277202E-3,-1.0966276E-3,1.3232358E-2,5.154496E-3,2.6577862E-4,-1.4680771E-3,1.3017206E-3,3.7215825E-3,6.4854748E-3,1.5792096E-2,2.5746701E-3,7.8104436E-3,4.759835E-3,-2.4006811E-3,2.485647E-3,-8.070826E-4,6.2681804E-3,1.3200728E-3,-2.3279598E-3,2.5418315E-3,9.120755E-3,1.2842238E-2,3.901187E-3,-1.0644614E-3,7.677226E-3,6.9081143E-4,4.914566E-4,6.3291634E-3],"split_indices":[3,2,4,5,2,3,2,6,7,3,7,2,7,3,7,7,3,6,5,2,7,6,7,2,7,3,7,7,6,6,7,0,7,1,2,6,7,6,6,6,7,7,3,7,2,2,7,7,7,3,7,0,6,7,7,6,7,7,7,3,7,6,7,0,0,0,0,0,0,0,0,0,0,0,0,0,0,0,0,0,0,0,0,0,0,0,0,0,0,0,0,0,0,0,0,0,0,0,0,0,0,0,0,0,0,0,0,0,0,0,0,0,0,0,0,0,0,0,0,0,0,0,0,0,0,0,0],"split_type":[0,0,0,0,0,0,0,0,0,0,0,0,0,0,0,0,0,0,0,0,0,0,0,0,0,0,0,0,0,0,0,0,0,0,0,0,0,0,0,0,0,0,0,0,0,0,0,0,0,0,0,0,0,0,0,0,0,0,0,0,0,0,0,0,0,0,0,0,0,0,0,0,0,0,0,0,0,0,0,0,0,0,0,0,0,0,0,0,0,0,0,0,0,0,0,0,0,0,0,0,0,0,0,0,0,0,0,0,0,0,0,0,0,0,0,0,0,0,0,0,0,0,0,0,0,0,0],"sum_hessian":[8E5,5.43619E5,2.56381E5,4.47492E5,9.6127E4,2.01389E5,5.4992E4,4.13204E5,3.4288E4,6.7989E4,2.8138E4,8.7684E4,1.13705E5,3.7343E4,1.7649E4,3.01091E5,1.12113E5,1.9779E4,1.4509E4,3.0222E4,3.7767E4,9.74E2,2.7164E4,1.9468E4,6.8216E4,3.9E3,1.09805E5,3.0885E4,6.458E3,3.677E3,1.3972E4,1.88789E5,1.12302E5,8.7628E4,2.4485E4,1.2342E4,7.437E3,3.836E3,1.0673E4,2.042E4,9.802E3,3.1782E4,5.985E3,4.4E1,9.3E2,5.7E2,2.6594E4,1.0008E4,9.46E3,2.391E3,6.5825E4,3.023E3,8.77E2,4.031E3,1.05774E5,6.462E3,2.4423E4,3.985E3,2.473E3,2.45E2,3.432E3,6.207E3,7.765E3,1.31211E5,5.7578E4,5.7628E4,5.4674E4,8.0814E4,6.814E3,1.2079E4,1.2406E4,2.785E3,9.557E3,2.96E3,4.477E3,2.535E3,1.301E3,7.059E3,3.614E3,1.281E4,7.61E3,5.423E3,4.379E3,2.2389E4,9.393E3,3.941E3,2.044E3,2.3E1,2.1E1,9.5E1,8.35E2,2.47E2,3.23E2,3.359E3,2.3235E4,8.405E3,1.603E3,2.006E3,7.454E3,1.288E3,1.103E3,2.394E3,6.3431E4,2.077E3,9.46E2,9.5E1,7.82E2,3.88E2,3.643E3,1.255E4,9.3224E4,4.23E2,6.039E3,9.815E3,1.4608E4,2.188E3,1.797E3,6.33E2,1.84E3,1.95E2,5E1,1.208E3,2.224E3,5.091E3,1.116E3,4.918E3,2.847E3],"tree_param":{"num_deleted":"0","num_feature":"8","num_nodes":"127","size_leaf_vector":"1"}},{"base_weights":[2.453456E-6,-2.1434898E-2,4.46542E-2,-2.8193098E-2,1.9117119E-2,2.3467088E-2,5.795052E-2,-3.0235566E-2,3.4057423E-3,4.728092E-3,4.914445E-2,4.218341E-3,4.2825326E-2,5.235243E-2,8.805369E-2,-3.323476E-2,