{"learner":{"attributes":{"scikit_learn":"{\"_estimator_type\": \"regressor\"}"},"feature_names":["w_GC=F","w_SI=F","w_BTC-USD","w_ETH-USD","w_^NSEI_USD","w_NAM-INDIA.NS_USD"],"feature_types":["float","float","float","float","float","float"],"gradient_booster":{"model":{"cats":{"enc":[],"feature_segments":[],"sorted_idx":[]},"gbtree_model_param":{"num_parallel_tree":"1","num_trees":"150"},"iteration_indptr":[0,1,2,3,4,5,6,7,8,9,10,11,12,13,14,15,16,17,18,19,20,21,22,23,24,25,26,27,28,29,30,31,32,33,34,35,36,37,38,39,40,41,42,43,44,45,46,47,48,49,50,51,52,53,54,55,56,57,58,59,60,61,62,63,64,65,66,67,68,69,70,71,72,73,74,75,76,77,78,79,80,81,82,83,84,85,86,87,88,89,90,91,92,93,94,95,96,97,98,99,100,101,102,103,104,105,106,107,108,109,110,111,112,113,114,115,116,117,118,119,120,121,122,123,124,125,126,127,128,129,130,131,132,133,134,135,136,137,138,139,140,141,142,143,144,145,146,147,148,149,150],"tree_info":[0,0,0,0,0,0,0,0,0,0,0,0,0,0,0,0,0,0,0,0,0,0,0,0,0,0,0,0,0,0,0,0,0,0,0,0,0,0,0,0,0,0,0,0,0,0,0,0,0,0,0,0,0,0,0,0,0,0,0,0,0,0,0,0,0,0,0,0,0,0,0,0,0,0,0,0,0,0,0,0,0,0,0,0,0,0,0,0,0,0,0,0,0,0,0,0,0,0,0,0,0,0,0,0,0,0,0,0,0,0,0,0,0,0,0,0,0,0,0,0,0,0,0,0,0,0,0,0,0,0,0,0,0,0,0,0,0,0,0,0,0,0,0,0,0,0,0,0,0,0],"trees":[{"base_weights":[9.751471E-10,-1.2869442E-2,2.9895702E-2,-1.5863067E-2,2.2323532E-2,3.3464883E-2,7.878199E-3,-1.1631443E-2,-2.1201694E-2,1.1076593E-2,2.8599283E-2,3.0778127E-2,5.0816603E-2,2.9642712E-3,1.5453971E-2,-8.769441E-3,-2.0215975E-2,-1.9230574E-2,-2.3468226E-2,5.760772E-3,2.4810039E-2,2.2621859E-2,2.9345647E-2,9.933034E-3,3.34638E-2,4.737462E-2,5.247136E-2,-3.3557796E-4,1.5700888E-2,1.33048445E-2,2.4819285E-2,-6.011503E-3,-1.1718271E-2,-2.2495355E-2,-1.3592081E-2,-1.9881671E-2,-1.1734447E-2,-2.3739496E-2,-1.5976246E-2,3.0812614E-3,1.0609058E-2,1.8554324E-2,2.7311992E-2,2.4169859E-2,1.732553E-2,2.8383946E-2,3.0946514E-2,4.6805944E-3,2.042646E-2,3.0758284E-2,3.567026E-2,4.798414E-2,3.5864636E-2,5.141723E-2,5.4569036E-2,-2.5987502E-3,3.651973E-3,1.1453303E-2,2.4282735E-2,1.0199964E-2,2.4452062E-2,2.3351993E-2,3.4341346E-3,-6.737681E-4,3.2837226E-5,-1.4265741E-3,-5.5313803E-4,-2.3561448E-3,-1.4408631E-3,-1.5633041E-3,-7.376544E-4,-2.0170552E-3,-1.1377727E-3,-1.4183306E-3,-6.0925353E-4,-2.2733358E-3,-2.5334975E-3,-1.7963812E-3,-1.2665483E-3,4.2575368E-5,7.6287467E-4,8.125174E-4,1.5228816E-3,1.6117388E-3,2.2953874E-3,2.508561E-3,2.905986E-3,2.537643E-3,1.8452042E-3,1.5140353E-3,2.0796682E-3,2.758622E-3,2.911443E-3,3.0401757E-3,3.2025955E-3,1.581496E-4,9.193414E-4,1.6528983E-3,2.572789E-3,1.9480605E-3,3.1251144E-3,3.4723084E-3,3.7857199E-3,4.8292256E-3,3.7492556E-3,3.7256002E-3,3.3724576E-3,5.065323E-3,5.217715E-3,5.361158E-3,5.5530835E-3,-4.9690896E-4,-1.5895135E-5,1.4928872E-4,6.496286E-4,9.316411E-4,1.4508781E-3,1.9654916E-3,2.6034908E-3,7.442246E-4,1.403747E-3,1.9949588E-3,3.0065302E-3,2.13077E-3,2.7048388E-3],"categories":[],"categories_nodes":[],"categories_segments":[],"categories_sizes":[],"default_left":[0,0,0,0,0,0,0,0,0,0,0,0,0,0,0,0,0,0,0,0,0,0,0,0,0,0,0,0,0,0,0,0,0,0,0,0,0,0,0,0,0,0,0,0,0,0,0,0,0,0,0,0,0,0,0,0,0,0,0,0,0,0,0,0,0,0,0,0,0,0,0,0,0,0,0,0,0,0,0,0,0,0,0,0,0,0,0,0,0,0,0,0,0,0,0,0,0,0,0,0,0,0,0,0,0,0,0,0,0,0,0,0,0,0,0,0,0,0,0,0,0,0,0,0,0],"id":0,"left_children":[1,3,5,7,9,11,13,15,17,19,21,23,25,27,29,31,33,35,37,39,41,43,45,47,49,51,53,55,57,59,61,63,65,67,69,71,73,75,77,79,81,83,85,87,89,91,93,95,97,99,101,103,105,107,109,111,113,115,117,119,121,123,-1,-1,-1,-1,-1,-1,-1,-1,-1,-1,-1,-1,-1,-1,-1,-1,-1,-1,-1,-1,-1,-1,-1,-1,-1,-1,-1,-1,-1,-1,-1,-1,-1,-1,-1,-1,-1,-1,-1,-1,-1,-1,-1,-1,-1,-1,-1,-1,-1,-1,-1,-1,-1,-1,-1,-1,-1,-1,-1,-1,-1,-1,-1],"loss_changes":[3.077936E2,5.8920403E1,1.8918701E1,1.1643478E1,3.0942535E0,9.656403E0,1.2501788E0,7.063839E0,1.0176926E0,1.1463202E0,1.2487793E-1,1.0042465E1,1.5570831E-1,8.5621834E-1,2.6561093E-1,1.7535896E0,1.0850868E0,5.947075E-1,2.1504593E-1,1.470648E-1,6.807804E-2,2.5226831E-2,3.763199E-2,1.1284614E0,9.4755554E-1,6.1616898E-2,3.8646698E-2,1.4603515E-1,1.5252924E-1,3.7178183E-1,3.363812E-2,5.129852E-1,1.642334E0,4.6073914E-1,2.3338938E-1,2.7529144E-1,1.3453913E-1,1.6363525E-1,2.4165869E-2,8.807824E-2,4.6120286E-2,1.3085455E-2,1.1443377E-2,1.6213298E-2,5.078122E-3,8.308411E-3,4.5394897E-3,1.9084793E-1,1.4069748E-1,3.9620972E-1,1.7999268E-1,2.5896072E-2,1.07347965E-4,4.6157837E-3,2.7809143E-3,5.9698686E-2,3.5971098E-2,1.8185884E-2,1.0735095E-2,8.888602E-2,5.856538E-2,1.5587091E-2,0E0,0E0,0E0,0E0,0E0,0E0,0E0,0E0,0E0,0E0,0E0,0E0,0E0,0E0,0E0,0E0,0E0,0E0,0E0,0E0,0E0,0E0,0E0,0E0,0E0,0E0,0E0,0E0,0E0,0E0,0E0,0E0,0E0,0E0,0E0,0E0,0E0,0E0,0E0,0E0,0E0,0E0,0E0,0E0,0E0,0E0,0E0,0E0,0E0,0E0,0E0,0E0,0E0,0E0,0E0,0E0,0E0,0E0,0E0,0E0,0E0,0E0,0E0],"parents":[2147483647,0,0,1,1,2,2,3,3,4,4,5,5,6,6,7,7,8,8,9,9,10,10,11,11,12,12,13,13,14,14,15,15,16,16,17,17,18,18,19,19,20,20,21,21,22,22,23,23,24,24,25,25,26,26,27,27,28,28,29,29,30,30,31,31,32,32,33,33,34,34,35,35,36,36,37,37,38,38,39,39,40,40,41,41,42,42,43,43,44,44,45,45,46,46,47,47,48,48,49,49,50,50,51,51,52,52,53,53,54,54,55,55,56,56,57,57,58,58,59,59,60,60,61,61],"right_children":[2,4,6,8,10,12,14,16,18,20,22,24,26,28,30,32,34,36,38,40,42,44,46,48,50,52,54,56,58,60,62,64,66,68,70,72,74,76,78,80,82,84,86,88,90,92,94,96,98,100,102,104,106,108,110,112,114,116,118,120,122,124,-1,-1,-1,-1,-1,-1,-1,-1,-1,-1,-1,-1,-1,-1,-1,-1,-1,-1,-1,-1,-1,-1,-1,-1,-1,-1,-1,-1,-1,-1,-1,-1,-1,-1,-1,-1,-1,-1,-1,-1,-1,-1,-1,-1,-1,-1,-1,-1,-1,-1,-1,-1,-1,-1,-1,-1,-1,-1,-1,-1,-1,-1,-1],"split_conditions":[2.9293883E-1,4.588129E-1,7.640959E-2,3.0729306E-1,6.6276175E-1,6.720418E-1,4.0168148E-1,3.0743483E-1,4.5247126E-1,1.8373853E-1,8.446343E-1,2.6296327E-1,8.6993736E-1,2.1142848E-1,5.431159E-1,8.596322E-2,1.0681425E-1,1.434178E-1,1.2937486E-1,8.6460926E-2,2.5705534E-1,4.4474803E-2,8.942972E-1,4.5559973E-1,4.2431468E-1,4.5800693E-2,9.0399367E-1,1.0015303E-1,3.5142273E-1,1.7894192E-1,6.720418E-1,3.1733614E-1,2.2703153E-1,2.0154361E-1,1.5419042E-1,2.5057527E-1,1.3940665E-1,5.5134946E-1,1.9716947E-1,5.514354E-1,5.429028E-1,5.3550535E-1,5.514354E-1,4.4336677E-2,5.1022258E-2,2.5856094E-2,9.1700166E-1,1.2226336E-1,5.431159E-1,3.7774584E-1,5.062653E-1,4.746909E-2,4.688465E-2,8.8611925E-1,9.1731846E-1,3.396328E-1,3.4366938E-1,3.4366938E-1,3.3537447E-1,4.6557042E-1,3.0308935E-1,7.623287E-2,3.4341346E-3,-6.737681E-4,3.2837226E-5,-1.4265741E-3,-5.5313803E-4,-2.3561448E-3,-1.4408631E-3,-1.5633041E-3,-7.376544E-4,-2.0170552E-3,-1.1377727E-3,-1.4183306E-3,-6.0925353E-4,-2.2733358E-3,-2.5334975E-3,-1.7963812E-3,-1.2665483E-3,4.2575368E-5,7.6287467E-4,8.125174E-4,1.5228816E-3,1.6117388E-3,2.2953874E-3,2.508561E-3,2.905986E-3,2.537643E-3,1.8452042E-3,1.5140353E-3,2.0796682E-3,2.758622E-3,2.911443E-3,3.0401757E-3,3.2025955E-3,1.581496E-4,9.193414E-4,1.6528983E-3,2.572789E-3,1.9480605E-3,3.1251144E-3,3.4723084E-3,3.7857199E-3,4.8292256E-3,3.7492556E-3,3.7256002E-3,3.3724576E-3,5.065323E-3,5.217715E-3,5.361158E-3,5.5530835E-3,-4.9690896E-4,-1.5895135E-5,1.4928872E-4,6.496286E-4,9.316411E-4,1.4508781E-3,1.9654916E-3,2.6034908E-3,7.442246E-4,1.403747E-3,1.9949588E-3,3.0065302E-3,2.13077E-3,2.7048388E-3],"split_indices":[3,2,0,0,2,3,3,4,0,3,2,2,3,2,3,0,3,3,3,3,3,5,2,3,3,4,3,2,2,2,3,2,2,2,2,2,2,0,3,2,2,2,2,4,3,3,2,2,3,2,3,1,5,3,3,3,3,3,3,3,2,2,0,0,0,0,0,0,0,0,0,0,0,0,0,0,0,0,0,0,0,0,0,0,0,0,0,0,0,0,0,0,0,0,0,0,0,0,0,0,0,0,0,0,0,0,0,0,0,0,0,0,0,0,0,0,0,0,0,0,0,0,0,0,0],"split_type":[0,0,0,0,0,0,0,0,0,0,0,0,0,0,0,0,0,0,0,0,0,0,0,0,0,0,0,0,0,0,0,0,0,0,0,0,0,0,0,0,0,0,0,0,0,0,0,0,0,0,0,0,0,0,0,0,0,0,0,0,0,0,0,0,0,0,0,0,0,0,0,0,0,0,0,0,0,0,0,0,0,0,0,0,0,0,0,0,0,0,0,0,0,0,0,0,0,0,0,0,0,0,0,0,0,0,0,0,0,0,0,0,0,0,0,0,0,0,0,0,0,0,0,0,0],"sum_hessian":[8E5,5.59254E5,2.40746E5,5.15412E5,4.3842E4,2.07163E5,3.3583E4,2.87517E5,2.27895E5,1.5703E4,2.8139E4,1.79389E5,2.7774E4,2.0371E4,1.3212E4,2.1563E5,7.1887E4,1.21896E5,1.05999E5,1.1322E4,4.381E3,3.127E3,2.5012E4,2.0475E4,1.58914E5,9.027E3,1.8747E4,1.618E4,4.191E3,1.0748E4,2.464E3,1.11423E5,1.04207E5,5.3481E4,1.8406E4,1.12153E5,9.743E3,1.02293E5,3.706E3,7.293E3,4.029E3,1.254E3,3.127E3,2.417E3,7.1E2,1.5637E4,9.375E3,1.3646E4,6.829E3,7.1391E4,8.7523E4,8.57E3,4.57E2,1.2494E4,6.253E3,1.0322E4,5.858E3,2.805E3,1.386E3,8.408E3,2.34E3,2.138E3,3.26E2,9.9972E4,1.1451E4,7.3813E4,3.0394E4,4.725E4,6.231E3,1.3855E4,4.551E3,1.08467E5,3.686E3,6.793E3,2.95E3,6.2742E4,3.9551E4,2.313E3,1.393E3,4.605E3,2.688E3,2.622E3,1.407E3,8.1E2,4.44E2,1.382E3,1.745E3,1.993E3,4.24E2,4.39E2,2.71E2,7.493E3,8.144E3,6.25E3,3.125E3,8.091E3,5.555E3,3.938E3,2.891E3,2.991E3,6.84E4,6.1084E4,2.6439E4,8.322E3,2.48E2,2.67E2,1.9E2,6.264E3,6.23E3,3.162E3,3.091E3,5.235E3,5.087E3,3.331E3,2.527E3,1.653E3,1.152E3,3.84E2,1.002E3,4.894E3,3.514E3,1.301E3,1.039E3,1.381E3,7.57E2],"tree_param":{"num_deleted":"0","num_feature":"6","num_nodes":"125","size_leaf_vector":"1"}},{"base_weights":[1.1039589E-7,-1.1689754E-2,2.6664017E-2,-1.42816445E-2,2.0655548E-2,3.005338E-2,6.9515235E-3,-1.0375863E-2,-1.898843E-2,9.750283E-3,2.5740063E-2,2.7636733E-2,4.5733977E-2,2.0127627E-3,1.3400591E-2,-7.405934E-3,-1.7477075E-2,-1.6945096E-2,-2.0874241E-2,5.2704345E-3,2.0861764E-2,2.0362223E-2,2.641156E-2,8.583272E-3,3.0096646E-2,4.156603E-2,4.6855874E-2,-1.2603455E-3,1.2080573E-2,1.1411411E-2,2.351923E-2,-8.509001E-3,-1.2409306E-3,-1.961835E-2,-1.1129738E-2,-1.7540151E-2,-9.949035E-3,-2.1160185E-2,-1.4951531E-2,2.7182754E-3,8.576799E-3,1.580318E-2,2.4212295E-2,2.1805925E-2,1.5494789E-2,2.5264792E-2,2.7555848E-2,3.539512E-3,1.790447E-2,2.7481198E-2,3.1992737E-2,4.235716E-2,3.2204498E-2,4.5597535E-2,4.8533805E-2,-3.3596507E-3,1.8877891E-3,8.747237E-3,2.0602118E-2,8.087597E-3,1.9862223E-2,1.9450784E-2,2.6732238E-2,-4.9942126E-4,-1.1387912E-3,-5.5427867E-4,5.8990525E-4,-2.075E-3,-1.1467794E-3,-1.3316865E-3,-5.26185E-4,-1.7856531E-3,-9.561886E-4,-1.1831794E-3,-3.1765315E-4,-2.013413E-3,-2.2605106E-3,-1.6620487E-3,-1.1367202E-3,7.8234814E-5,7.288341E-4,6.570228E-4,1.2897264E-3,1.3850038E-3,1.9666401E-3,2.2601935E-3,2.6213962E-3,2.2846889E-3,1.6219743E-3,1.3594165E-3,1.9376023E-3,2.455972E-3,2.602634E-3,2.7130337E-3,2.8824385E-3,1.01330355E-4,8.2036445E-4,1.3877396E-3,2.2489305E-3,2.0131846E-3,2.8152189E-3,3.1273167E-3,3.4432553E-3,4.2753066E-3,3.3080478E-3,3.2911436E-3,2.8614632E-3,4.491553E-3,4.6273344E-3,4.781322E-3,4.997955E-3,-5.214118E-4,-1.1641189E-4,-2.4263116E-5,4.0505684E-4,6.9736934E-4,1.1264643E-3,1.7655306E-3,2.348609E-3,5.644976E-4,1.163515E-3,1.6943079E-3,2.6021483E-3,1.7322286E-3,2.5570123E-3,2.5799295E-3,2.977457E-3],"categories":[],"categories_nodes":[],"categories_segments":[],"categories_sizes":[],"default_left":[0,0,0,0,0,0,0,0,0,0,0,0,0,0,0,0,0,0,0,0,0,0,0,0,0,0,0,0,0,0,0,0,0,0,0,0,0,0,0,0,0,0,0,0,0,0,0,0,0,0,0,0,0,0,0,0,0,0,0,0,0,0,0,0,0,0,0,0,0,0,0,0,0,0,0,0,0,0,0,0,0,0,0,0,0,0,0,0,0,0,0,0,0,0,0,0,0,0,0,0,0,0,0,0,0,0,0,0,0,0,0,0,0,0,0,0,0,0,0,0,0,0,0,0,0,0,0],"id":1,"left_children":[1,3,5,7,9,11,13,15,17,19,21,23,25,27,29,31,33,35,37,39,41,43,45,47,49,51,53,55,57,59,61,63,65,67,69,71,73,75,77,79,81,83,85,87,89,91,93,95,97,99,101,103,105,107,109,111,113,115,117,119,121,123,125,-1,-1,-1,-1,-1,-1,-1,-1,-1,-1,-1,-1,-1,-1,-1,-1,-1,-1,-1,-1,-1,-1,-1,-1,-1,-1,-1,-1,-1,-1,-1,-1,-1,-1,-1,-1,-1,-1,-1,-1,-1,-1,-1,-1,-1,-1,-1,-1,-1,-1,-1,-1,-1,-1,-1,-1,-1,-1,-1,-1,-1,-1,-1,-1],"loss_changes":[2.4935858E2,4.662699E1,1.6290955E1,9.465729E0,2.2875862E0,7.883026E0,1.1394211E0,5.934643E0,8.9943695E-1,6.5307367E-1,1.01083755E-1,8.449341E0,1.2796402E-1,6.6767657E-1,3.1201434E-1,1.3493204E0,1.127636E0,4.664116E-1,2.0533371E-1,7.8900754E-2,6.351483E-2,2.1643043E-2,3.2125473E-2,9.691278E-1,7.909088E-1,4.234028E-2,4.3987274E-2,1.0106296E-1,1.410219E-1,3.6409676E-1,3.2787204E-2,1.70298E0,9.2502034E-1,5.720749E-1,2.6860595E-1,2.6055717E-1,1.1201811E-1,1.712799E-1,3.328693E-2,4.6708114E-2,3.5234094E-2,1.1083454E-2,6.7118406E-3,1.3643503E-2,5.0404966E-3,6.075382E-3,5.970001E-3,1.576189E-1,1.3332653E-1,3.3037567E-1,1.6142273E-1,1.8557549E-2,2.3579597E-4,3.692627E-3,7.3623657E-3,3.734626E-2,2.8190458E-2,1.588285E-2,1.1457801E-2,8.0599904E-2,6.536496E-2,1.4249265E-2,3.2651424E-3,0E0,0E0,0E0,0E0,0E0,0E0,0E0,0E0,0E0,0E0,0E0,0E0,0E0,0E0,0E0,0E0,0E0,0E0,0E0,0E0,0E0,0E0,0E0,0E0,0E0,0E0,0E0,0E0,0E0,0E0,0E0,0E0,0E0,0E0,0E0,0E0,0E0,0E0,0E0,0E0,0E0,0E0,0E0,0E0,0E0,0E0,0E0,0E0,0E0,0E0,0E0,0E0,0E0,0E0,0E0,0E0,0E0,0E0,0E0,0E0,0E0,0E0,0E0,0E0],"parents":[2147483647,0,0,1,1,2,2,3,3,4,4,5,5,6,6,7,7,8,8,9,9,10,10,11,11,12,12,13,13,14,14,15,15,16,16,17,17,18,18,19,19,20,20,21,21,22,22,23,23,24,24,25,25,26,26,27,27,28,28,29,29,30,30,31,31,32,32,33,33,34,34,35,35,36,36,37,37,38,38,39,39,40,40,41,41,42,42,43,43,44,44,45,45,46,46,47,47,48,48,49,49,50,50,51,51,52,52,53,53,54,54,55,55,56,56,57,57,58,58,59,59,60,60,61,61,62,62],"right_children":[2,4,6,8,10,12,14,16,18,20,22,24,26,28,30,32,34,36,38,40,42,44,46,48,50,52,54,56,58,60,62,64,66,68,70,72,74,76,78,80,82,84,86,88,90,92,94,96,98,100,102,104,106,108,110,112,114,116,118,120,122,124,126,-1,-1,-1,-1,-1,-1,-1,-1,-1,-1,-1,-1,-1,-1,-1,-1,-1,-1,-1,-1,-1,-1,-1,-1,-1,-1,-1,-1,-1,-1,-1,-1,-1,-1,-1,-1,-1,-1,-1,-1,-1,-1,-1,-1,-1,-1,-1,-1,-1,-1,-1,-1,-1,-1,-1,-1,-1,-1,-1,-1,-1,-1,-1,-1],"split_conditions":[2.8751865E-1,4.7251797E-1,7.5454E-2,2.9713333E-1,6.6276175E-1,6.720418E-1,3.8836828E-1,2.697435E-1,4.3696082E-1,1.5866446E-1,8.446343E-1,2.6296327E-1,8.6039275E-1,1.9231723E-1,2.0641673E-1,2.980583E-1,1.1942272E-1,1.547208E-1,1.0981958E-1,6.482279E-2,2.4449606E-1,4.419399E-2,8.8584423E-1,4.4599354E-1,4.1802403E-1,4.553035E-2,8.945276E-1,8.862886E-2,3.434451E-1,5.1163524E-1,3.2195044E-1,4.6882667E-2,1.3286793E-1,2.2168107E-1,1.5419042E-1,2.567903E-1,1.7041864E-1,5.281514E-1,1.9245249E-1,5.7491916E-1,5.619518E-1,5.514354E-1,5.619518E-1,4.446078E-2,6.013369E-2,2.8613023E-2,9.1700166E-1,1.3601945E-1,5.288214E-1,4.081483E-1,5.168062E-1,4.6180774E-2,1.3171904E-1,8.780553E-1,9.1731846E-1,3.3537447E-1,3.3105195E-1,3.3537447E-1,4.113105E-1,8.332817E-2,5.9620726E-1,4.691422E-1,4.5228672E-1,-4.9942126E-4,-1.1387912E-3,-5.5427867E-4,5.8990525E-4,-2.075E-3,-1.1467794E-3,-1.3316865E-3,-5.26185E-4,-1.7856531E-3,-9.561886E-4,-1.1831794E-3,-3.1765315E-4,-2.013413E-3,-2.2605106E-3,-1.6620487E-3,-1.1367202E-3,7.8234814E-5,7.288341E-4,6.570228E-4,1.2897264E-3,1.3850038E-3,1.9666401E-3,2.2601935E-3,2.6213962E-3,2.2846889E-3,1.6219743E-3,1.3594165E-3,1.9376023E-3,2.455972E-3,2.602634E-3,2.7130337E-3,2.8824385E-3,1.01330355E-4,8.2036445E-4,1.3877396E-3,2.2489305E-3,2.0131846E-3,2.8152189E-3,3.1273167E-3,3.4432553E-3,4.2753066E-3,3.3080478E-3,3.2911436E-3,2.8614632E-3,4.491553E-3,4.6273344E-3,4.781322E-3,4.997955E-3,-5.214118E-4,-1.1641189E-4,-2.4263116E-5,4.0505684E-4,6.9736934E-4,1.1264643E-3,1.7655306E-3,2.348609E-3,5.644976E-4,1.163515E-3,1.6943079E-3,2.6021483E-3,1.7322286E-3,2.5570123E-3,2.5799295E-3,2.977457E-3],"split_indices":[3,2,4,0,2,3,3,4,0,3,2,2,3,2,2,2,3,3,3,3,3,1,2,3,3,0,3,2,2,3,2,0,3,2,2,2,2,0,3,2,2,2,2,0,3,3,2,2,3,2,3,5,0,3,3,3,3,3,2,2,3,3,3,0,0,0,0,0,0,0,0,0,0,0,0,0,0,0,0,0,0,0,0,0,0,0,0,0,0,0,0,0,0,0,0,0,0,0,0,0,0,0,0,0,0,0,0,0,0,0,0,0,0,0,0,0,0,0,0,0,0,0,0,0,0,0,0],"split_type":[0,0,0,0,0,0,0,0,0,0,0,0,0,0,0,0,0,0,0,0,0,0,0,0,0,0,0,0,0,0,0,0,0,0,0,0,0,0,0,0,0,0,0,0,0,0,0,0,0,0,0,0,0,0,0,0,0,0,0,0,0,0,0,0,0,0,0,0,0,0,0,0,0,0,0,0,0,0,0,0,0,0,0,0,0,0,0,0,0,0,0,0,0,0,0,0,0,0,0,0,0,0,0,0,0,0,0,0,0,0,0,0,0,0,0,0,0,0,0,0,0,0,0,0,0,0,0],"sum_hessian":[8E5,5.56168E5,2.43832E5,5.14908E5,4.126E4,2.08058E5,3.5774E4,2.814E5,2.33508E5,1.3121E4,2.8139E4,1.80277E5,2.7781E4,2.026E4,1.5514E4,1.98418E5,8.2982E4,1.12078E5,1.2143E5,9.352E3,3.769E3,3.127E3,2.5012E4,2.0614E4,1.59663E5,5.9E3,2.1881E4,1.529E4,4.97E3,1.2967E4,2.547E3,1.68304E5,3.0114E4,6.2048E4,2.0934E4,1.03291E5,8.787E3,1.15835E5,5.595E3,5.279E3,4.073E3,1.504E3,2.265E3,2.409E3,7.18E2,1.2504E4,1.2508E4,1.3377E4,7.237E3,6.7109E4,9.2554E4,5.437E3,4.63E2,1.252E4,9.361E3,9.173E3,6.117E3,3.574E3,1.396E3,9.308E3,3.659E3,1.127E3,1.42E3,7.5784E4,9.252E4,1.8792E4,1.1322E4,5.4482E4,7.566E3,1.5249E4,5.685E3,9.935E4,3.941E3,6.875E3,1.912E3,6.7744E4,4.8091E4,3.815E3,1.78E3,3.709E3,1.57E3,2.783E3,1.29E3,1.002E3,5.02E2,1.262E3,1.003E3,2.028E3,3.81E2,4.85E2,2.33E2,6.51E3,5.994E3,9.383E3,3.125E3,8.678E3,4.699E3,3.855E3,3.382E3,5.617E3,6.1492E4,7.1485E4,2.1069E4,5.211E3,2.26E2,3.8E2,8.3E1,6.265E3,6.255E3,6.27E3,3.091E3,4.972E3,4.201E3,3.082E3,3.035E3,2.099E3,1.475E3,6.94E2,7.02E2,5.514E3,3.794E3,2.485E3,1.174E3,8.39E2,2.88E2,1.094E3,3.26E2],"tree_param":{"num_deleted":"0","num_feature":"6","num_nodes":"127","size_leaf_vector":"1"}},{"base_weights":[2.0039788E-7,-1.0425575E-2,2.4219265E-2,-1.2933516E-2,1.7211584E-2,2.7124697E-2,6.296289E-3,-9.644231E-3,-1.7343275E-2,8.0977725E-3,2.3166692E-2,2.4950042E-2,4.1169137E-2,1.6140025E-3,1.1675318E-2,-6.9212527E-3,-1.5278884E-2,-1.5961142E-2,-1.9308161E-2,3.96038E-3,1.9379623E-2,1.8328305E-2,2.377083E-2,7.996347E-3,2.7102968E-2,3.5350688E-2,4.181409E-2,-1.3415886E-3,1.0200807E-2,9.618767E-3,1.9184776E-2,-4.9195914E-3,-1.0073781E-2,-1.7277103E-2,-8.813162E-3,-1.6449643E-2,-1.0084306E-2,-1.9574502E-2,-1.4361367E-2,1.9620259E-3,8.399155E-3,1.4509185E-2,2.1946853E-2,1.9702183E-2,1.3991606E-2,2.2738717E-2,2.480071E-2,2.8573053E-3,1.5231679E-2,2.5209105E-2,2.9248616E-2,3.6545318E-2,2.8742459E-2,4.06934E-2,4.368147E-2,-3.3351136E-3,1.0856063E-3,7.2052795E-3,1.7602734E-2,6.1572604E-3,1.6925514E-2,1.6100368E-2,2.3814332E-2,-5.610025E-4,6.447868E-5,-1.262096E-3,-4.5799805E-4,-1.8708444E-3,-1.1498078E-3,-1.0645343E-3,-2.0451265E-4,-1.6646376E-3,-1.0277167E-3,-1.2243668E-3,-5.648283E-4,-1.8860269E-3,-2.0878462E-3,-1.5974283E-3,-1.1356797E-3,-5.604667E-5,5.577261E-4,6.3312135E-4,1.230868E-3,1.2792883E-3,1.8335123E-3,1.9115296E-3,2.3075358E-3,2.0592092E-3,1.4245835E-3,1.2135422E-3,1.7033803E-3,2.1762564E-3,2.3209204E-3,2.4212028E-3,2.5645548E-3,6.862671E-5,7.0353906E-4,1.1985739E-3,2.0207195E-3,1.5228924E-3,2.5574893E-3,3.038672E-3,2.7974683E-3,3.732339E-3,3.0009623E-3,2.962431E-3,2.583894E-3,3.9725206E-3,4.1333805E-3,4.3032668E-3,4.498321E-3,-5.054598E-4,-1.7254501E-4,-7.9061756E-5,2.860881E-4,5.445408E-4,9.0555236E-4,1.5104344E-3,2.1400263E-3,4.0543653E-4,8.9643075E-4,1.4263846E-3,2.3270163E-3,1.3903432E-3,2.1928314E-3,2.3029677E-3,2.7504424E-3],"categories":[],"categories_nodes":[],"categories_segments":[],"categories_sizes":[],"default_left":[0,0,0,0,0,0,0,0,0,0,0,0,0,0,0,0,0,0,0,0,0,0,0,0,0,0,0,0,0,0,0,0,0,0,0,0,0,0,0,0,0,0,0,0,0,0,0,0,0,0,0,0,0,0,0,0,0,0,0,0,0,0,0,0,0,0,0,0,0,0,0,0,0,0,0,0,0,0,0,0,0,0,0,0,0,0,0,0,0,0,0,0,0,0,0,0,0,0,0,0,0,0,0,0,0,0,0,0,0,0,0,0,0,0,0,0,0,0,0,0,0,0,0,0,0,0,0],"id":2,"left_children":[1,3,5,7,9,11,13,15,17,19,21,23,25,27,29,31,33,35,37,39,41,43,45,47,49,51,53,55,57,59,61,63,65,67,69,71,73,75,77,79,81,83,85,87,89,91,93,95,97,99,101,103,105,107,109,111,113,115,117,119,121,123,125,-1,-1,-1,-1,-1,-1,-1,-1,-1,-1,-1,-1,-1,-1,-1,-1,-1,-1,-1,-1,-1,-1,-1,-1,-1,-1,-1,-1,-1,-1,-1,-1,-1,-1,-1,-1,-1,-1,-1,-1,-1,-1,-1,-1,-1,-1,-1,-1,-1,-1,-1,-1,-1,-1,-1,-1,-1,-1,-1,-1,-1,-1,-1,-1],"loss_changes":[2.0200253E2,3.876351E1,1.2536484E1,7.436928E0,2.5250597E0,6.326126E0,8.458328E-1,4.5057793E0,5.9458923E-1,8.582747E-1,8.181858E-2,6.547516E0,1.02752686E-1,4.5572048E-1,2.4118328E-1,1.2493639E0,1.2360382E0,3.6902618E-1,1.1889267E-1,1.1934152E-1,6.137407E-2,1.836121E-2,2.6022911E-2,7.516043E-1,6.4608765E-1,2.0880222E-2,5.053711E-2,6.4643465E-2,1.0182312E-1,3.102584E-1,4.7581196E-2,4.6526885E-1,1.0759449E0,6.0437393E-1,2.8011274E-1,1.4400864E-1,9.44947E-2,7.954025E-2,2.2231877E-2,8.4631175E-2,3.3691764E-2,1.0967821E-2,9.876847E-3,1.1229157E-2,4.0623248E-3,5.238056E-3,5.6009293E-3,1.07220896E-1,1.3533902E-1,3.082962E-1,1.0734177E-1,1.0825157E-2,3.3554435E-4,8.054733E-3,5.9719086E-3,2.029302E-2,2.0070408E-2,1.0614723E-2,1.22385025E-2,4.9123228E-2,6.627166E-2,2.5545597E-2,3.2494664E-3,0E0,0E0,0E0,0E0,0E0,0E0,0E0,0E0,0E0,0E0,0E0,0E0,0E0,0E0,0E0,0E0,0E0,0E0,0E0,0E0,0E0,0E0,0E0,0E0,0E0,0E0,0E0,0E0,0E0,0E0,0E0,0E0,0E0,0E0,0E0,0E0,0E0,0E0,0E0,0E0,0E0,0E0,0E0,0E0,0E0,0E0,0E0,0E0,0E0,0E0,0E0,0E0,0E0,0E0,0E0,0E0,0E0,0E0,0E0,0E0,0E0,0E0,0E0,0E0],"parents":[2147483647,0,0,1,1,2,2,3,3,4,4,5,5,6,6,7,7,8,8,9,9,10,10,11,11,12,12,13,13,14,14,15,15,16,16,17,17,18,18,19,19,20,20,21,21,22,22,23,23,24,24,25,25,26,26,27,27,28,28,29,29,30,30,31,31,32,32,33,33,34,34,35,35,36,36,37,37,38,38,39,39,40,40,41,41,42,42,43,43,44,44,45,45,46,46,47,47,48,48,49,49,50,50,51,51,52,52,53,53,54,54,55,55,56,56,57,57,58,58,59,59,60,60,61,61,62,62],"right_children":[2,4,6,8,10,12,14,16,18,20,22,24,26,28,30,32,34,36,38,40,42,44,46,48,50,52,54,56,58,60,62,64,66,68,70,72,74,76,78,80,82,84,86,88,90,92,94,96,98,100,102,104,106,108,110,112,114,116,118,120,122,124,126,-1,-1,-1,-1,-1,-1,-1,-1,-1,-1,-1,-1,-1,-1,-1,-1,-1,-1,-1,-1,-1,-1,-1,-1,-1,-1,-1,-1,-1,-1,-1,-1,-1,-1,-1,-1,-1,-1,-1,-1,-1,-1,-1,-1,-1,-1,-1,-1,-1,-1,-1,-1,-1,-1,-1,-1,-1,-1,-1,-1,-1,-1,-1,-1],"split_conditions":[2.9293883E-1,4.3978754E-1,7.640959E-2,3.2132116E-1,6.6276175E-1,6.720418E-1,3.848539E-1,2.3796256E-1,4.6893764E-1,1.7920502E-1,8.446343E-1,2.567903E-1,8.459128E-1,1.8320085E-1,1.7041864E-1,1.2834628E-1,1.3635938E-1,1.3286793E-1,9.777743E-2,9.475864E-2,2.5705534E-1,4.4336677E-2,8.8584423E-1,4.2747995E-1,4.398948E-1,4.4474803E-2,8.945276E-1,7.623287E-2,3.2643998E-1,5.0132424E-1,3.1733614E-1,2.1666558E-1,1.5086423E-1,1.7894192E-1,1.8320085E-1,2.3254527E-1,1.29116E-1,5.938327E-1,1.7482589E-1,5.288193E-1,5.288193E-1,5.288193E-1,5.3550535E-1,5.183847E-2,5.3521883E-2,2.0796118E-2,2.034E-2,1.3940665E-1,5.288214E-1,3.6302423E-1,3.173763E-2,4.4900037E-2,1.1882416E-1,8.6993736E-1,9.1731846E-1,3.3105195E-1,3.3105195E-1,3.3105195E-1,4.178013E-1,7.072646E-2,5.9620726E-1,4.691422E-1,4.6210793E-1,-5.610025E-4,6.447868E-5,-1.262096E-3,-4.5799805E-4,-1.8708444E-3,-1.1498078E-3,-1.0645343E-3,-2.0451265E-4,-1.6646376E-3,-1.0277167E-3,-1.2243668E-3,-5.648283E-4,-1.8860269E-3,-2.0878462E-3,-1.5974283E-3,-1.1356797E-3,-5.604667E-5,5.577261E-4,6.3312135E-4,1.230868E-3,1.2792883E-3,1.8335123E-3,1.9115296E-3,2.3075358E-3,2.0592092E-3,1.4245835E-3,1.2135422E-3,1.7033803E-3,2.1762564E-3,2.3209204E-3,2.4212028E-3,2.5645548E-3,6.862671E-5,7.0353906E-4,1.1985739E-3,2.0207195E-3,1.5228924E-3,2.5574893E-3,3.038672E-3,2.7974683E-3,3.732339E-3,3.0009623E-3,2.962431E-3,2.583894E-3,3.9725206E-3,4.1333805E-3,4.3032668E-3,4.498321E-3,-5.054598E-4,-1.7254501E-4,-7.9061756E-5,2.860881E-4,5.445408E-4,9.0555236E-4,1.5104344E-3,2.1400263E-3,4.0543653E-4,8.9643075E-4,1.4263846E-3,2.3270163E-3,1.3903432E-3,2.1928314E-3,2.3029677E-3,2.7504424E-3],"split_indices":[3,2,0,0,2,3,3,4,0,3,2,2,3,2,2,0,3,3,3,3,3,4,2,3,3,5,3,2,2,3,2,3,3,2,2,2,2,0,3,2,2,2,2,1,3,3,3,2,3,2,0,1,5,3,3,3,3,3,2,2,3,3,3,0,0,0,0,0,0,0,0,0,0,0,0,0,0,0,0,0,0,0,0,0,0,0,0,0,0,0,0,0,0,0,0,0,0,0,0,0,0,0,0,0,0,0,0,0,0,0,0,0,0,0,0,0,0,0,0,0,0,0,0,0,0,0,0],"split_type":[0,0,0,0,0,0,0,0,0,0,0,0,0,0,0,0,0,0,0,0,0,0,0,0,0,0,0,0,0,0,0,0,0,0,0,0,0,0,0,0,0,0,0,0,0,0,0,0,0,0,0,0,0,0,0,0,0,0,0,0,0,0,0,0,0,0,0,0,0,0,0,0,0,0,0,0,0,0,0,0,0,0,0,0,0,0,0,0,0,0,0,0,0,0,0,0,0,0,0,0,0,0,0,0,0,0,0,0,0,0,0,0,0,0,0,0,0,0,0,0,0,0,0,0,0,0,0],"sum_hessian":[8E5,5.59254E5,2.40746E5,5.12727E5,4.6527E4,2.07163E5,3.3583E4,2.93675E5,2.19052E5,1.8388E4,2.8139E4,1.79389E5,2.7774E4,1.7955E4,1.5628E4,1.97995E5,9.568E4,1.28601E5,9.0451E4,1.3455E4,4.933E3,3.127E3,2.5012E4,2.0214E4,1.59175E5,2.777E3,2.4997E4,1.3358E4,4.597E3,1.227E4,3.358E3,1.21104E5,7.6891E4,7.309E4,2.259E4,1.1873E5,9.871E3,8.5827E4,4.624E3,9.279E3,4.176E3,1.705E3,3.228E3,2.372E3,7.55E2,1.2504E4,1.2508E4,1.182E4,8.394E3,8.4555E4,7.462E4,2.348E3,4.29E2,1.5636E4,9.361E3,7.334E3,6.024E3,3.274E3,1.323E3,8.327E3,3.943E3,2.018E3,1.34E3,1.07736E5,1.3368E4,5.2533E4,2.4358E4,5.8579E4,1.4511E4,1.7777E4,4.813E3,1.15061E5,3.669E3,6.638E3,3.233E3,5.5463E4,3.0364E4,3.006E3,1.618E3,5.466E3,3.813E3,2.733E3,1.443E3,1.18E3,5.25E2,9.25E2,2.303E3,2.037E3,3.35E2,4.72E2,2.83E2,4.082E3,8.422E3,7.389E3,5.119E3,7.779E3,4.041E3,5.082E3,3.312E3,2.991E3,8.1564E4,3.9399E4,3.5221E4,2.094E3,2.54E2,3.22E2,1.07E2,6.25E3,9.386E3,6.27E3,3.091E3,3.545E3,3.789E3,2.929E3,3.095E3,1.68E3,1.594E3,8.01E2,5.22E2,4.762E3,3.565E3,2.78E3,1.163E3,1.468E3,5.5E2,1.111E3,2.29E2],"tree_param":{"num_deleted":"0","num_feature":"6","num_nodes":"127","size_leaf_vector":"1"}},{"base_weights":[2.671138E-7,-9.470251E-3,2.1601973E-2,-1.1786329E-2,1.4430594E-2,2.4359701E-2,5.5630696E-3,-8.553412E-3,-1.5269091E-2,5.825067E-3,2.0850588E-2,2.2403164E-2,3.7054833E-2,1.7531944E-3,1.1163339E-2,-5.4349587E-3,-1.3253995E-2,-1.5790457E-2,-9.508773E-3,2.2500826E-3,1.4385014E-2,1.6497519E-2,2.1394126E-2,7.0177317E-3,2.4389511E-2,3.507394E-2,3.8595624E-2,-6.1363267E-4,1.1158172E-2,9.000924E-3,1.7189054E-2,-3.4375696E-3,-7.608364E-3,-1.6016867E-2,-8.949109E-3,-1.4771257E-2,-1.7804684E-2,-1.1469519E-2,-4.245716E-3,5.183953E-5,5.536699E-3,1.07241785E-2,1.878959E-2,1.773942E-2,1.22508025E-2,2.0176057E-2,2.2124317E-2,2.17516E-3,1.3577495E-2,2.1799235E-2,2.574117E-2,3.542286E-2,2.6276635E-2,3.7768915E-2,3.9827272E-2,-2.3121696E-3,2.7240491E-3,8.09929E-3,1.6726168E-2,6.529616E-3,1.6969604E-2,1.4806465E-2,2.1640584E-2,-1.200433E-4,-4.6867394E-4,-1.0300468E-3,-2.9340756E-4,-1.6834211E-3,-9.4453304E-4,-1.0638668E-3,-2.6443027E-4,-1.5478692E-3,-1.2985327E-3,-1.717649E-3,-1.8863525E-3,-1.3462474E-3,-7.9072686E-4,-6.18081E-4,-8.365395E-5,-2.4203994E-4,2.936206E-4,3.4196395E-4,8.0487644E-4,9.1546535E-4,1.4291257E-3,1.5498203E-3,2.0171357E-3,1.8590031E-3,1.2919632E-3,1.0898147E-3,1.5955808E-3,1.9326828E-3,2.066705E-3,2.1538206E-3,2.2998448E-3,-1.0026051E-5,5.705044E-4,1.0388561E-3,1.8081155E-3,1.6152113E-3,2.2605192E-3,2.6835955E-3,2.4403045E-3,3.297506E-3,3.6027443E-3,2.7175294E-3,2.3141531E-3,3.7108217E-3,3.851773E-3,3.91704E-3,4.048635E-3,-3.7178615E-4,8.1058615E-6,1.292551E-4,5.3065515E-4,6.674773E-4,1.0736873E-3,1.3166437E-3,1.8287108E-3,4.5645927E-4,9.5331325E-4,1.3879881E-3,2.0802917E-3,1.2659723E-3,2.046866E-3,2.0879356E-3,2.3682506E-3],"categories":[],"categories_nodes":[],"categories_segments":[],"categories_sizes":[],"default_left":[0,0,0,0,0,0,0,0,0,0,0,0,0,0,0,0,0,0,0,0,0,0,0,0,0,0,0,0,0,0,0,0,0,0,0,0,0,0,0,0,0,0,0,0,0,0,0,0,0,0,0,0,0,0,0,0,0,0,0,0,0,0,0,0,0,0,0,0,0,0,0,0,0,0,0,0,0,0,0,0,0,0,0,0,0,0,0,0,0,0,0,0,0,0,0,0,0,0,0,0,0,0,0,0,0,0,0,0,0,0,0,0,0,0,0,0,0,0,0,0,0,0,0,0,0,0,0],"id":3,"left_children":[1,3,5,7,9,11,13,15,17,19,21,23,25,27,29,31,33,35,37,39,41,43,45,47,49,51,53,55,57,59,61,63,65,67,69,71,73,75,77,79,81,83,85,87,89,91,93,95,97,99,101,103,105,107,109,111,113,115,117,119,121,123,125,-1,-1,-1,-1,-1,-1,-1,-1,-1,-1,-1,-1,-1,-1,-1,-1,-1,-1,-1,-1,-1,-1,-1,-1,-1,-1,-1,-1,-1,-1,-1,-1,-1,-1,-1,-1,-1,-1,-1,-1,-1,-1,-1,-1,-1,-1,-1,-1,-1,-1,-1,-1,-1,-1,-1,-1,-1,-1,-1,-1,-1,-1,-1,-1],"loss_changes":[1.6366388E2,3.078757E1,1.0784828E1,5.7088394E0,2.714406E0,5.1670456E0,7.632874E-1,3.8544216E0,7.3288727E-1,6.424499E-1,6.622791E-2,5.5092697E0,8.343887E-2,4.7396576E-1,1.8857312E-1,6.862254E-1,1.2471886E0,4.5923233E-1,2.0903504E-1,1.0700597E-1,9.9528074E-2,1.6279697E-2,2.1800995E-2,6.5482914E-1,5.584488E-1,3.6414146E-2,1.43966675E-2,9.645032E-2,7.277787E-2,2.098369E-1,4.0237546E-2,2.3020494E-1,9.526043E-1,3.4292603E-1,4.3669653E-1,1.8758011E-1,4.969406E-2,1.0468793E-1,3.6285363E-2,6.3300475E-2,3.1541258E-2,1.879251E-2,1.2448907E-2,9.673059E-3,3.3893585E-3,3.5142899E-3,7.511139E-3,9.526779E-2,1.2555039E-1,2.4884033E-1,1.5303802E-1,1.6124725E-2,6.8965554E-4,3.2024384E-3,1.121521E-3,3.7931E-2,2.1205653E-2,1.0317236E-2,8.188486E-3,4.7992706E-2,2.9593349E-2,3.0056119E-2,1.5743971E-3,0E0,0E0,0E0,0E0,0E0,0E0,0E0,0E0,0E0,0E0,0E0,0E0,0E0,0E0,0E0,0E0,0E0,0E0,0E0,0E0,0E0,0E0,0E0,0E0,0E0,0E0,0E0,0E0,0E0,0E0,0E0,0E0,0E0,0E0,0E0,0E0,0E0,0E0,0E0,0E0,0E0,0E0,0E0,0E0,0E0,0E0,0E0,0E0,0E0,0E0,0E0,0E0,0E0,0E0,0E0,0E0,0E0,0E0,0E0,0E0,0E0,0E0,0E0,0E0],"parents":[2147483647,0,0,1,1,2,2,3,3,4,4,5,5,6,6,7,7,8,8,9,9,10,10,11,11,12,12,13,13,14,14,15,15,16,16,17,17,18,18,19,19,20,20,21,21,22,22,23,23,24,24,25,25,26,26,27,27,28,28,29,29,30,30,31,31,32,32,33,33,34,34,35,35,36,36,37,37,38,38,39,39,40,40,41,41,42,42,43,43,44,44,45,45,46,46,47,47,48,48,49,49,50,50,51,51,52,52,53,53,54,54,55,55,56,56,57,57,58,58,59,59,60,60,61,61,62,62],"right_children":[2,4,6,8,10,12,14,16,18,20,22,24,26,28,30,32,34,36,38,40,42,44,46,48,50,52,54,56,58,60,62,64,66,68,70,72,74,76,78,80,82,84,86,88,90,92,94,96,98,100,102,104,106,108,110,112,114,116,118,120,122,124,126,-1,-1,-1,-1,-1,-1,-1,-1,-1,-1,-1,-1,-1,-1,-1,-1,-1,-1,-1,-1,-1,-1,-1,-1,-1,-1,-1,-1,-1,-1,-1,-1,-1,-1,-1,-1,-1,-1,-1,-1,-1,-1,-1,-1,-1,-1,-1,-1,-1,-1,-1,-1,-1,-1,-1,-1,-1,-1,-1,-1,-1,-1,-1,-1],"split_conditions":[2.8751865E-1,4.178013E-1,7.5454E-2,2.744257E-1,6.6276175E-1,6.720418E-1,3.9515287E-1,2.0131305E-1,1.22650206E-1,1.4711997E-1,8.446343E-1,2.6296327E-1,8.780553E-1,2.1636948E-1,1.4680421E-1,4.7128186E-2,8.9192346E-2,4.837516E-1,1.4680421E-1,5.112456E-1,2.3873566E-1,4.4474803E-2,8.7773246E-1,4.211443E-1,4.0168148E-1,4.6091553E-2,9.0399367E-1,1.09421976E-1,3.4744135E-1,5.354404E-1,3.0308935E-1,4.746909E-2,1.547208E-1,2.5057527E-1,2.0641673E-1,4.7956163E-1,6.552611E-1,2.0673884E-1,2.3254527E-1,6.2363684E-2,5.616845E-2,5.166786E-1,5.225734E-1,4.93863E-2,6.931681E-2,2.399558E-2,9.037723E-1,1.2561496E-1,5.225533E-1,4.3350205E-1,3.459776E-2,8.459128E-1,1.2481224E-1,2.3136858E-2,9.1731846E-1,3.4779102E-1,3.4779102E-1,3.4366938E-1,3.3537447E-1,4.6210793E-1,5.9620726E-1,4.8407137E-1,4.5228672E-1,-1.200433E-4,-4.6867394E-4,-1.0300468E-3,-2.9340756E-4,-1.6834211E-3,-9.4453304E-4,-1.0638668E-3,-2.6443027E-4,-1.5478692E-3,-1.2985327E-3,-1.717649E-3,-1.8863525E-3,-1.3462474E-3,-7.9072686E-4,-6.18081E-4,-8.365395E-5,-2.4203994E-4,2.936206E-4,3.4196395E-4,8.0487644E-4,9.1546535E-4,1.4291257E-3,1.5498203E-3,2.0171357E-3,1.8590031E-3,1.2919632E-3,1.0898147E-3,1.5955808E-3,1.9326828E-3,2.066705E-3,2.1538206E-3,2.2998448E-3,-1.0026051E-5,5.705044E-4,1.0388561E-3,1.8081155E-3,1.6152113E-3,2.2605192E-3,2.6835955E-3,2.4403045E-3,3.297506E-3,3.6027443E-3,2.7175294E-3,2.3141531E-3,3.7108217E-3,3.851773E-3,3.91704E-3,4.048635E-3,-3.7178615E-4,8.1058615E-6,1.292551E-4,5.3065515E-4,6.674773E-4,1.0736873E-3,1.3166437E-3,1.8287108E-3,4.5645927E-4,9.5331325E-4,1.3879881E-3,2.0802917E-3,1.2659723E-3,2.046866E-3,2.0879356E-3,2.3682506E-3],"split_indices":[3,2,4,0,2,3,3,4,3,3,2,2,3,2,2,4,3,0,2,2,3,5,2,3,3,1,3,2,2,3,2,1,3,2,2,5,0,3,2,3,3,2,2,1,3,3,2,2,3,2,1,3,1,2,3,3,3,3,3,3,3,3,3,0,0,0,0,0,0,0,0,0,0,0,0,0,0,0,0,0,0,0,0,0,0,0,0,0,0,0,0,0,0,0,0,0,0,0,0,0,0,0,0,0,0,0,0,0,0,0,0,0,0,0,0,0,0,0,0,0,0,0,0,0,0,0,0],"split_type":[0,0,0,0,0,0,0,0,0,0,0,0,0,0,0,0,0,0,0,0,0,0,0,0,0,0,0,0,0,0,0,0,0,0,0,0,0,0,0,0,0,0,0,0,0,0,0,0,0,0,0,0,0,0,0,0,0,0,0,0,0,0,0,0,0,0,0,0,0,0,0,0,0,0,0,0,0,0,0,0,0,0,0,0,0,0,0,0,0,0,0,0,0,0,0,0,0,0,0,0,0,0,0,0,0,0,0,0,0,0,0,0,0,0,0,0,0,0,0,0,0,0,0,0,0,0,0],"sum_hessian":[8E5,5.56168E5,2.43832E5,5.07035E5,4.9133E4,2.08058E5,3.5774E4,2.62951E5,2.44084E5,2.0994E4,2.8139E4,1.80277E5,2.7781E4,2.1291E4,1.4483E4,1.5808E5,1.04871E5,2.23824E5,2.026E4,1.481E4,6.184E3,3.127E3,2.5012E4,2.0614E4,1.59663E5,1.2165E4,1.5616E4,1.7011E4,4.28E3,1.066E4,3.823E3,8.2377E4,7.5703E4,6.3874E4,4.0997E4,1.48627E5,7.5197E4,1.476E4,5.5E3,8.875E3,5.935E3,3.379E3,2.805E3,2.417E3,7.1E2,9.385E3,1.5627E4,1.186E4,8.754E3,5.4753E4,1.0491E5,1.1698E4,4.67E2,9.363E3,6.253E3,1.1274E4,5.737E3,2.764E3,1.516E3,8.138E3,2.522E3,2.493E3,1.33E3,2.9517E4,5.286E4,4.8036E4,2.7667E4,5.6807E4,7.067E3,3.2332E4,8.665E3,1.06452E5,4.2175E4,4.7207E4,2.799E4,9.463E3,5.297E3,3.508E3,1.992E3,4.779E3,4.096E3,3.222E3,2.713E3,2.349E3,1.03E3,8.33E2,1.972E3,2.052E3,3.65E2,5.23E2,1.87E2,3.453E3,5.932E3,9.37E3,6.257E3,7.212E3,4.648E3,5.127E3,3.627E3,6.841E3,4.7912E4,5.7691E4,4.7219E4,2.328E3,9.37E3,3.57E2,1.1E2,5.001E3,4.362E3,3.162E3,3.091E3,7.102E3,4.172E3,3.692E3,2.045E3,1.797E3,9.67E2,4.65E2,1.051E3,4.921E3,3.217E3,1.399E3,1.123E3,1.81E3,6.83E2,9.77E2,3.53E2],"tree_param":{"num_deleted":"0","num_feature":"6","num_nodes":"127","size_leaf_vector":"1"}},{"base_weights":[3.2045762E-7,-8.369947E-3,1.9808691E-2,-1.0661974E-2,1.2014807E-2,2.213969E-2,5.5945087E-3,-8.146237E-3,-1.4202634E-2,3.1844361E-3,1.7256545E-2,2.0373227E-2,3.336544E-2,1.3967502E-3,9.4568385E-3,-6.6355146E-3,-1.4461519E-2,-1.4460598E-2,-7.7984105E-3,-1.8923322E-4,1.0432962E-2,1.2563798E-2,1.9255051E-2,6.8213884E-3,2.2028273E-2,3.0341111E-2,3.4175728E-2,-9.151662E-4,9.309645E-3,7.22738E-3,1.5135383E-2,-3.6134932E-3,-8.42554E-3,-1.5319658E-2,-7.969797E-3,-1.3616862E-2,-1.6145991E-2,-9.90843E-3,-4.673461E-3,-2.4661117E-3,2.2498637E-3,7.442783E-3,1.4256855E-2,1.003385E-2,1.875524E-2,1.8592387E-2,2.0358238E-2,2.2166877E-3,1.1986611E-2,2.0611672E-2,2.3962773E-2,3.0874182E-2,2.3254596E-2,3.3254553E-2,3.5404183E-2,-2.7968446E-3,1.2568376E-3,6.7921504E-3,1.5601685E-2,4.0823435E-3,1.2912211E-2,1.2538966E-2,1.890067E-2,-2.2130052E-4,-6.4760447E-4,-1.0424752E-3,-2.96313E-4,-1.6133636E-3,-1.1524466E-3,-9.803659E-4,-4.9179903E-4,-1.3792546E-3,-8.5059134E-4,-1.6267231E-3,-1.0867867E-3,-1.1546372E-3,-6.9546123E-4,-6.459126E-4,-2.0405576E-4,-3.4296585E-4,-1.9437433E-5,1.1814356E-4,3.9950415E-4,6.3101534E-4,9.2614314E-4,1.2871441E-3,1.6007776E-3,6.7126745E-4,1.4796531E-3,1.7705068E-3,2.0181912E-3,1.7814722E-3,1.9108767E-3,1.9932024E-3,2.1435334E-3,-2.9056648E-5,4.6625244E-4,9.902159E-4,1.7596977E-3,1.6110843E-3,2.1164184E-3,2.5033806E-3,2.2678408E-3,3.1178189E-3,2.4699073E-3,2.4408738E-3,2.0813185E-3,3.258587E-3,3.3866488E-3,3.4888294E-3,3.643902E-3,-4.3765525E-4,-1.8870275E-4,1.04982155E-5,2.9246602E-4,5.7073997E-4,9.490489E-4,1.3876609E-3,1.7953167E-3,2.2813362E-4,6.113757E-4,1.0316499E-3,1.7679045E-3,1.0422603E-3,1.7543465E-3,1.823921E-3,2.198513E-3],"categories":[],"categories_nodes":[],"categories_segments":[],"categories_sizes":[],"default_left":[0,0,0,0,0,0,0,0,0,0,0,0,0,0,0,0,0,0,0,0,0,0,0,0,0,0,0,0,0,0,0,0,0,0,0,0,0,0,0,0,0,0,0,0,0,0,0,0,0,0,0,0,0,0,0,0,0,0,0,0,0,0,0,0,0,0,0,0,0,0,0,0,0,0,0,0,0,0,0,0,0,0,0,0,0,0,0,0,0,0,0,0,0,0,0,0,0,0,0,0,0,0,0,0,0,0,0,0,0,0,0,0,0,0,0,0,0,0,0,0,0,0,0,0,0,0,0],"id":4,"left_children":[1,3,5,7,9,11,13,15,17,19,21,23,25,27,29,31,33,35,37,39,41,43,45,47,49,51,53,55,57,59,61,63,65,67,69,71,73,75,77,79,81,83,85,87,89,91,93,95,97,99,101,103,105,107,109,111,113,115,117,119,121,123,125,-1,-1,-1,-1,-1,-1,-1,-1,-1,-1,-1,-1,-1,-1,-1,-1,-1,-1,-1,-1,-1,-1,-1,-1,-1,-1,-1,-1,-1,-1,-1,-1,-1,-1,-1,-1,-1,-1,-1,-1,-1,-1,-1,-1,-1,-1,-1,-1,-1,-1,-1,-1,-1,-1,-1,-1,-1,-1,-1,-1,-1,-1,-1,-1],"loss_changes":[1.326414E2,2.627526E1,7.873497E0,4.502804E0,2.6309156E0,4.047699E0,5.428184E-1,2.8195534E0,3.4679794E-1,5.1779366E-1,3.3426952E-1,3.9563065E0,6.698036E-2,2.93535E-1,2.2064435E-1,1.2900915E0,3.176918E-1,2.8682327E-1,5.3580344E-2,8.025402E-2,7.6788425E-2,1.6672766E-1,1.7906189E-2,4.5663208E-1,4.3030548E-1,2.14715E-2,2.3586273E-2,5.0756037E-2,5.73622E-2,2.2384602E-1,4.7813296E-2,3.5565352E-1,1.6355896E0,1.5547276E-1,3.7241876E-2,1.2067032E-1,4.2915344E-2,2.340421E-2,1.5407681E-2,1.6359359E-2,1.3004575E-2,7.7195466E-3,6.9499016E-3,1.1959326E-1,4.2723417E-3,5.939007E-3,3.877163E-3,6.2256813E-2,1.0564971E-1,2.2534561E-1,9.083557E-2,9.479523E-3,6.6134334E-4,4.0197372E-3,3.7269592E-3,9.555172E-3,1.10747805E-2,7.535614E-3,3.9533675E-3,2.9488936E-2,5.500263E-2,3.065914E-2,3.6876202E-3,0E0,0E0,0E0,0E0,0E0,0E0,0E0,0E0,0E0,0E0,0E0,0E0,0E0,0E0,0E0,0E0,0E0,0E0,0E0,0E0,0E0,0E0,0E0,0E0,0E0,0E0,0E0,0E0,0E0,0E0,0E0,0E0,0E0,0E0,0E0,0E0,0E0,0E0,0E0,0E0,0E0,0E0,0E0,0E0,0E0,0E0,0E0,0E0,0E0,0E0,0E0,0E0,0E0,0E0,0E0,0E0,0E0,0E0,0E0,0E0,0E0,0E0,0E0,0E0],"parents":[2147483647,0,0,1,1,2,2,3,3,4,4,5,5,6,6,7,7,8,8,9,9,10,10,11,11,12,12,13,13,14,14,15,15,16,16,17,17,18,18,19,19,20,20,21,21,22,22,23,23,24,24,25,25,26,26,27,27,28,28,29,29,30,30,31,31,32,32,33,33,34,34,35,35,36,36,37,37,38,38,39,39,40,40,41,41,42,42,43,43,44,44,45,45,46,46,47,47,48,48,49,49,50,50,51,51,52,52,53,53,54,54,55,55,56,56,57,57,58,58,59,59,60,60,61,61,62,62],"right_children":[2,4,6,8,10,12,14,16,18,20,22,24,26,28,30,32,34,36,38,40,42,44,46,48,50,52,54,56,58,60,62,64,66,68,70,72,74,76,78,80,82,84,86,88,90,92,94,96,98,100,102,104,106,108,110,112,114,116,118,120,122,124,126,-1,-1,-1,-1,-1,-1,-1,-1,-1,-1,-1,-1,-1,-1,-1,-1,-1,-1,-1,-1,-1,-1,-1,-1,-1,-1,-1,-1,-1,-1,-1,-1,-1,-1,-1,-1,-1,-1,-1,-1,-1,-1,-1,-1,-1,-1,-1,-1,-1,-1,-1,-1,-1,-1,-1,-1,-1,-1,-1,-1,-1,-1,-1,-1],"split_conditions":[2.981662E-1,3.8811457E-1,7.433355E-2,3.3486477E-1,5.429028E-1,6.720418E-1,3.7776715E-1,3.6721832E-1,1.6264111E-1,1.3979603E-1,8.446343E-1,2.567903E-1,8.6039275E-1,2.0154361E-1,1.5054014E-1,4.8404604E-2,1.547208E-1,4.963255E-1,9.1413826E-2,5.7093397E-2,2.2207442E-1,1.9245249E-1,8.942972E-1,4.1479164E-1,4.490731E-1,4.6180774E-2,8.945276E-1,7.847063E-2,3.6302423E-1,4.8822126E-1,3.079388E-1,5.048691E-2,1.7482589E-1,1.2226336E-1,9.1413826E-2,2.0641673E-1,1.5816306E-1,2.3293021E-1,2.1666558E-1,4.7999302E-1,1.0370746E-1,1.8373853E-1,5.013551E-1,6.6276175E-1,5.7491916E-1,8.6946493E-1,2.4455966E-2,9.7189136E-2,5.518351E-1,4.01575E-1,3.309084E-2,4.5280762E-2,1.0612163E-1,2.4492154E-2,9.1731846E-1,3.221935E-1,1.3940665E-1,2.8705215E-1,4.4286257E-1,6.0028482E-2,5.752477E-1,4.6557042E-1,4.6210793E-1,-2.2130052E-4,-6.4760447E-4,-1.0424752E-3,-2.96313E-4,-1.6133636E-3,-1.1524466E-3,-9.803659E-4,-4.9179903E-4,-1.3792546E-3,-8.5059134E-4,-1.6267231E-3,-1.0867867E-3,-1.1546372E-3,-6.9546123E-4,-6.459126E-4,-2.0405576E-4,-3.4296585E-4,-1.9437433E-5,1.1814356E-4,3.9950415E-4,6.3101534E-4,9.2614314E-4,1.2871441E-3,1.6007776E-3,6.7126745E-4,1.4796531E-3,1.7705068E-3,2.0181912E-3,1.7814722E-3,1.9108767E-3,1.9932024E-3,2.1435334E-3,-2.9056648E-5,4.6625244E-4,9.902159E-4,1.7596977E-3,1.6110843E-3,2.1164184E-3,2.5033806E-3,2.2678408E-3,3.1178189E-3,2.4699073E-3,2.4408738E-3,2.0813185E-3,3.258587E-3,3.3866488E-3,3.4888294E-3,3.643902E-3,-4.3765525E-4,-1.8870275E-4,1.04982155E-5,2.9246602E-4,5.7073997E-4,9.490489E-4,1.3876609E-3,1.7953167E-3,2.2813362E-4,6.113757E-4,1.0316499E-3,1.7679045E-3,1.0422603E-3,1.7543465E-3,1.823921E-3,2.198513E-3],"split_indices":[3,2,0,0,2,3,3,4,3,3,2,2,3,2,2,0,3,0,2,3,3,3,2,3,3,5,3,2,2,3,2,4,3,2,2,2,2,3,3,2,3,3,2,2,2,2,3,2,3,2,5,1,5,2,3,3,2,2,2,2,3,3,3,0,0,0,0,0,0,0,0,0,0,0,0,0,0,0,0,0,0,0,0,0,0,0,0,0,0,0,0,0,0,0,0,0,0,0,0,0,0,0,0,0,0,0,0,0,0,0,0,0,0,0,0,0,0,0,0,0,0,0,0,0,0,0,0],"split_type":[0,0,0,0,0,0,0,0,0,0,0,0,0,0,0,0,0,0,0,0,0,0,0,0,0,0,0,0,0,0,0,0,0,0,0,0,0,0,0,0,0,0,0,0,0,0,0,0,0,0,0,0,0,0,0,0,0,0,0,0,0,0,0,0,0,0,0,0,0,0,0,0,0,0,0,0,0,0,0,0,0,0,0,0,0,0,0,0,0,0,0,0,0,0,0,0,0,0,0,0,0,0,0,0,0,0,0,0,0,0,0,0,0,0,0,0,0,0,0,0,0,0,0,0,0,0,0],"sum_hessian":[8E5,5.62366E5,2.37634E5,5.05526E5,5.684E4,2.04154E5,3.348E4,2.9554E5,2.09986E5,2.1173E4,3.5667E4,1.76399E5,2.7755E4,1.6044E4,1.7436E4,2.38491E5,5.7049E4,2.01854E5,8.132E3,1.4449E4,6.724E3,1.0655E4,2.5012E4,1.9199E4,1.572E5,5.873E3,2.1882E4,1.2417E4,3.627E3,1.2522E4,4.914E3,8.8717E4,1.49774E5,5.0387E4,6.662E3,1.3452E5,6.7334E4,4.853E3,3.279E3,7.473E3,6.976E3,3.775E3,2.949E3,7.566E3,3.089E3,1.5637E4,9.375E3,1.0151E4,9.048E3,9.0754E4,6.6446E4,5.459E3,4.14E2,1.2521E4,9.361E3,6.653E3,5.764E3,2.592E3,1.035E3,8.063E3,4.459E3,2.911E3,2.003E3,5.9573E4,2.9144E4,1.09644E5,4.013E4,4.1486E4,8.901E3,4.16E3,2.502E3,1.30048E5,4.472E3,6.582E4,1.514E3,3.12E3,1.733E3,1.953E3,1.326E3,5.247E3,2.226E3,4.328E3,2.648E3,2.329E3,1.446E3,1.651E3,1.298E3,4.459E3,3.107E3,1.787E3,1.302E3,6.254E3,9.383E3,6.731E3,2.644E3,5.013E3,5.138E3,6.599E3,2.449E3,9.926E3,8.0828E4,3.6222E4,3.0224E4,5.199E3,2.6E2,2.75E2,1.39E2,6.009E3,6.512E3,6.27E3,3.091E3,2.43E3,4.223E3,3.41E3,2.354E3,1.851E3,7.41E2,6.01E2,4.34E2,4.275E3,3.788E3,2.889E3,1.57E3,2.048E3,8.63E2,1.655E3,3.48E2],"tree_param":{"num_deleted":"0","num_feature":"6","num_nodes":"127","size_leaf_vector":"1"}},{"base_weights":[3.566733E-7,-7.7484683E-3,1.7349817E-2,-9.816824E-3,9.7154835E-3,1.967127E-2,4.318366E-3,-7.1387943E-3,-1.232617E-2,3.0788453E-3,1.688997E-2,2.0838974E-2,5.3074197E-3,7.470317E-4,8.265715E-3,-3.8974057E-3,-1.0379717E-2,-1.2870006E-2,-7.939467E-3,1.06437394E-4,8.7514175E-3,1.4512018E-2,1.7569095E-2,1.930457E-2,3.010497E-2,1.844112E-3,9.538301E-3,-1.7221741E-3,6.4390227E-3,6.558053E-3,1.4196733E-2,-1.1283576E-3,-4.965316E-3,-1.2416781E-2,-5.847287E-3,-1.3735199E-2,-1.10333655E-2,-9.873845E-3,-3.4812058E-3,-1.403449E-3,3.8904154E-3,6.5161646E-3,1.314527E-2,1.5139455E-2,9.485203E-3,1.7126745E-2,1.8670894E-2,7.805439E-3,1.9833466E-2,2.8556343E-2,3.128576E-2,-6.4774265E-4,7.525748E-3,8.167491E-3,1.608095E-2,-3.599216E-3,-2.5076777E-4,4.53159E-3,1.150586E-2,3.9196443E-3,1.1815104E-2,1.2029337E-2,1.71558E-2,-2.3703354E-4,-1.6662536E-5,-3.113871E-4,-7.228681E-4,-1.3664257E-3,-9.2175923E-4,-8.276519E-4,-1.483936E-4,-1.4042509E-3,-9.162775E-4,-1.1668463E-3,-9.938753E-4,-1.1425398E-3,-6.9019076E-4,-4.8217262E-4,8.137464E-5,-3.4985854E-4,5.2254112E-5,2.6485356E-4,7.0609053E-4,5.3521333E-4,1.0381564E-3,1.1285854E-3,1.5684387E-3,1.5525033E-3,1.0320884E-3,8.357699E-4,1.3310008E-3,1.6374569E-3,1.7793042E-3,1.8198924E-3,1.9499492E-3,4.242457E-4,1.4491192E-3,1.7377051E-3,2.0802373E-3,2.8765928E-3,2.1262986E-3,3.0617786E-3,3.2280905E-3,-2.4677376E-4,9.587386E-5,5.905852E-4,1.2306272E-3,5.1979074E-4,1.2083411E-3,1.4956575E-3,2.0647307E-3,-4.667278E-4,-2.3347729E-4,-1.3495608E-4,1.1231194E-4,3.5706404E-4,6.2730187E-4,9.955172E-4,1.460315E-3,1.9756878E-4,5.8725156E-4,9.66839E-4,1.5940089E-3,1.0081162E-3,1.6217713E-3,1.587601E-3,1.8300744E-3],"categories":[],"categories_nodes":[],"categories_segments":[],"categories_sizes":[],"default_left":[0,0,0,0,0,0,0,0,0,0,0,0,0,0,0,0,0,0,0,0,0,0,0,0,0,0,0,0,0,0,0,0,0,0,0,0,0,0,0,0,0,0,0,0,0,0,0,0,0,0,0,0,0,0,0,0,0,0,0,0,0,0,0,0,0,0,0,0,0,0,0,0,0,0,0,0,0,0,0,0,0,0,0,0,0,0,0,0,0,0,0,0,0,0,0,0,0,0,0,0,0,0,0,0,0,0,0,0,0,0,0,0,0,0,0,0,0,0,0,0,0,0,0,0,0,0,0],"id":5,"left_children":[1,3,5,7,9,11,13,15,17,19,21,23,25,27,29,31,33,35,37,39,41,43,45,47,49,51,53,55,57,59,61,63,65,67,69,71,73,75,77,79,81,83,85,87,89,91,93,95,97,99,101,103,105,107,109,111,113,115,117,119,121,123,125,-1,-1,-1,-1,-1,-1,-1,-1,-1,-1,-1,-1,-1,-1,-1,-1,-1,-1,-1,-1,-1,-1,-1,-1,-1,-1,-1,-1,-1,-1,-1,-1,-1,-1,-1,-1,-1,-1,-1,-1,-1,-1,-1,-1,-1,-1,-1,-1,-1,-1,-1,-1,-1,-1,-1,-1,-1,-1,-1,-1,-1,-1,-1,-1],"loss_changes":[1.0755061E2,1.9975742E1,7.4718933E0,3.32267E0,2.7882986E0,3.5162125E0,5.265E-1,2.5126514E0,6.0886383E-1,5.129504E-1,4.5188904E-2,2.7560043E0,2.3095521E-1,2.7560964E-1,1.7958069E-1,3.5362458E-1,1.1041937E0,3.6072922E-1,2.4279904E-1,1.14061594E-1,1.02645874E-1,1.9591093E-2,1.0346413E-2,1.0115051E0,4.94709E-2,1.2273895E-1,6.3501775E-2,3.7773494E-2,5.7288215E-2,1.9103026E-1,2.5223017E-2,3.9756883E-2,3.6162972E-1,3.2918453E-1,3.931054E-1,2.1679306E-1,5.0445557E-2,9.04696E-2,4.906909E-2,5.7584308E-2,2.2400685E-2,3.1148106E-2,1.6470194E-2,1.0171652E-2,2.8945655E-3,7.540703E-3,2.0923615E-3,1.7421454E-1,3.7812424E-1,1.7620087E-2,9.393692E-3,1.7624035E-2,2.0394593E-2,6.8174124E-2,5.996108E-3,8.105628E-3,1.15772635E-2,7.1934164E-3,7.644981E-3,3.4815624E-2,4.06062E-2,1.8538505E-2,2.162367E-3,0E0,0E0,0E0,0E0,0E0,0E0,0E0,0E0,0E0,0E0,0E0,0E0,0E0,0E0,0E0,0E0,0E0,0E0,0E0,0E0,0E0,0E0,0E0,0E0,0E0,0E0,0E0,0E0,0E0,0E0,0E0,0E0,0E0,0E0,0E0,0E0,0E0,0E0,0E0,0E0,0E0,0E0,0E0,0E0,0E0,0E0,0E0,0E0,0E0,0E0,0E0,0E0,0E0,0E0,0E0,0E0,0E0,0E0,0E0,0E0,0E0,0E0,0E0,0E0],"parents":[2147483647,0,0,1,1,2,2,3,3,4,4,5,5,6,6,7,7,8,8,9,9,10,10,11,11,12,12,13,13,14,14,15,15,16,16,17,17,18,18,19,19,20,20,21,21,22,22,23,23,24,24,25,25,26,26,27,27,28,28,29,29,30,30,31,31,32,32,33,33,34,34,35,35,36,36,37,37,38,38,39,39,40,40,41,41,42,42,43,43,44,44,45,45,46,46,47,47,48,48,49,49,50,50,51,51,52,52,53,53,54,54,55,55,56,56,57,57,58,58,59,59,60,60,61,61,62,62],"right_children":[2,4,6,8,10,12,14,16,18,20,22,24,26,28,30,32,34,36,38,40,42,44,46,48,50,52,54,56,58,60,62,64,66,68,70,72,74,76,78,80,82,84,86,88,90,92,94,96,98,100,102,104,106,108,110,112,114,116,118,120,122,124,126,-1,-1,-1,-1,-1,-1,-1,-1,-1,-1,-1,-1,-1,-1,-1,-1,-1,-1,-1,-1,-1,-1,-1,-1,-1,-1,-1,-1,-1,-1,-1,-1,-1,-1,-1,-1,-1,-1,-1,-1,-1,-1,-1,-1,-1,-1,-1,-1,-1,-1,-1,-1,-1,-1,-1,-1,-1,-1,-1,-1,-1,-1,-1,-1],"split_conditions":[2.8172314E-1,3.6688524E-1,7.5454E-2,2.4342301E-1,6.6276175E-1,8.308342E-2,3.740398E-1,1.4311202E-1,1.0981958E-1,1.22650206E-1,8.594283E-1,6.720418E-1,3.9175528E-1,1.6620475E-1,1.7464414E-1,4.841043E-2,1.2606218E-1,4.4272086E-1,1.4305957E-1,5.061056E-1,2.1666558E-1,4.497232E-2,9.037723E-1,2.4454616E-1,8.780553E-1,1.8766941E-1,5.621368E-1,5.6104187E-2,3.079388E-1,4.8822126E-1,3.3062375E-1,8.695717E-1,1.5399389E-1,1.5054014E-1,1.5054014E-1,1.9231723E-1,5.060769E-1,2.019308E-1,2.1165277E-1,4.778869E-2,5.957324E-1,5.061056E-1,5.166786E-1,4.6180774E-2,7.456329E-2,2.2622917E-2,1.8475788E-2,4.7630203E-1,3.8836828E-1,4.6180774E-2,9.0399367E-1,6.905864E-2,3.3923352E-1,1.09421976E-1,6.720418E-1,3.2659087E-1,3.2659087E-1,2.3852926E-1,4.178013E-1,6.340343E-2,5.752477E-1,4.5228672E-1,4.114952E-1,-2.3703354E-4,-1.6662536E-5,-3.113871E-4,-7.228681E-4,-1.3664257E-3,-9.2175923E-4,-8.276519E-4,-1.483936E-4,-1.4042509E-3,-9.162775E-4,-1.1668463E-3,-9.938753E-4,-1.1425398E-3,-6.9019076E-4,-4.8217262E-4,8.137464E-5,-3.4985854E-4,5.2254112E-5,2.6485356E-4,7.0609053E-4,5.3521333E-4,1.0381564E-3,1.1285854E-3,1.5684387E-3,1.5525033E-3,1.0320884E-3,8.357699E-4,1.3310008E-3,1.6374569E-3,1.7793042E-3,1.8198924E-3,1.9499492E-3,4.242457E-4,1.4491192E-3,1.7377051E-3,2.0802373E-3,2.8765928E-3,2.1262986E-3,3.0617786E-3,3.2280905E-3,-2.4677376E-4,9.587386E-5,5.905852E-4,1.2306272E-3,5.1979074E-4,1.2083411E-3,1.4956575E-3,2.0647307E-3,-4.667278E-4,-2.3347729E-4,-1.3495608E-4,1.1231194E-4,3.5706404E-4,6.2730187E-4,9.955172E-4,1.460315E-3,1.9756878E-4,5.8725156E-4,9.66839E-4,1.5940089E-3,1.0081162E-3,1.6217713E-3,1.587601E-3,1.8300744E-3],"split_indices":[3,2,4,0,2,0,3,4,3,3,2,3,3,2,2,1,3,5,2,2,3,0,2,2,3,2,3,2,2,3,2,5,5,2,2,2,5,3,3,3,2,2,2,5,3,3,3,3,3,5,3,2,2,2,3,3,3,2,2,2,3,3,3,0,0,0,0,0,0,0,0,0,0,0,0,0,0,0,0,0,0,0,0,0,0,0,0,0,0,0,0,0,0,0,0,0,0,0,0,0,0,0,0,0,0,0,0,0,0,0,0,0,0,0,0,0,0,0,0,0,0,0,0,0,0,0,0],"split_type":[0,0,0,0,0,0,0,0,0,0,0,0,0,0,0,0,0,0,0,0,0,0,0,0,0,0,0,0,0,0,0,0,0,0,0,0,0,0,0,0,0,0,0,0,0,0,0,0,0,0,0,0,0,0,0,0,0,0,0,0,0,0,0,0,0,0,0,0,0,0,0,0,0,0,0,0,0,0,0,0,0,0,0,0,0,0,0,0,0,0,0,0,0,0,0,0,0,0,0,0,0,0,0,0,0,0,0,0,0,0,0,0,0,0,0,0,0,0,0,0,0,0,0,0,0,0,0],"sum_hessian":[8E5,5.53009E5,2.46991E5,4.94449E5,5.856E4,2.09644E5,3.7347E4,2.39187E5,2.55262E5,3.0421E4,2.8139E4,1.93882E5,1.5762E4,1.9608E4,1.7739E4,1.19586E5,1.19601E5,2.27105E5,2.8157E4,1.9962E4,1.0459E4,6.256E3,2.1883E4,1.6634E5,2.7542E4,8.668E3,7.094E3,1.3676E4,5.932E3,1.3775E4,3.964E3,3.3284E4,8.6302E4,8.2514E4,3.7087E4,1.54376E5,7.2729E4,1.9636E4,8.521E3,1.4269E4,5.693E3,6.934E3,3.525E3,5.56E3,6.96E2,1.5626E4,6.257E3,7.315E3,1.59025E5,1.1926E4,1.5616E4,6.026E3,2.642E3,5.867E3,1.227E3,6.009E3,7.667E3,4.311E3,1.621E3,9.173E3,4.602E3,2.291E3,1.673E3,1.4525E4,1.8759E4,4.7472E4,3.883E4,5.9363E4,2.3151E4,2.3823E4,1.3264E4,1.44652E5,9.724E3,4.6019E4,2.671E4,1.2899E4,6.737E3,6.494E3,2.027E3,6.834E3,7.435E3,4.092E3,1.601E3,5.331E3,1.603E3,2.038E3,1.487E3,5.146E3,4.14E2,5.4E2,1.56E2,7.352E3,8.274E3,4.001E3,2.256E3,4.773E3,2.542E3,4.4988E4,1.14037E5,1.159E4,3.36E2,9.363E3,6.253E3,2.825E3,3.201E3,1.975E3,6.67E2,3.338E3,2.529E3,9.88E2,2.39E2,3.256E3,2.753E3,4.26E3,3.407E3,2.78E3,1.531E3,1.083E3,5.38E2,4.598E3,4.575E3,3.029E3,1.573E3,1.566E3,7.25E2,7.97E2,8.76E2],"tree_param":{"num_deleted":"0","num_feature":"6","num_nodes":"127","size_leaf_vector":"1"}},{"base_weights":[3.729226E-7,-6.9736117E-3,1.5614981E-2,-8.922394E-3,8.090066E-3,1.7739922E-2,4.070595E-3,-6.493334E-3,-1.108154E-2,2.4062633E-3,1.5201398E-2,1.8802391E-2,5.051807E-3,1.5252935E-3,8.683982E-3,-3.384508E-3,-9.317446E-3,-1.1530287E-2,-6.5021273E-3,-5.5656716E-4,7.1719005E-3,1.3061576E-2,1.5812514E-2,1.7294157E-2,2.6454281E-2,1.244605E-3,8.288573E-3,-6.157616E-4,7.997987E-3,6.6676955E-3,1.2842179E-2,-4.239601E-3,-4.8754376E-4,-1.0819403E-2,-4.005078E-3,-1.2191015E-2,-9.784904E-3,-8.7726945E-3,-3.2276167E-3,-2.0061012E-3,2.961432E-3,5.031277E-3,1.1191E-2,1.3665535E-2,8.56104E-3,1.5414289E-2,1.6804405E-2,5.437854E-3,1.7746545E-2,2.2702184E-2,2.7458195E-2,-1.000118E-3,6.6599045E-3,7.136606E-3,1.4189203E-2,-2.356669E-3,1.0752019E-3,5.451611E-3,1.2038614E-2,5.1307804E-3,1.3344932E-2,1.1327243E-2,1.5857313E-2,-4.9957284E-4,2.7522422E-6,-1.080859E-4,5.0136692E-5,-1.2139787E-3,-8.1242854E-4,-6.626489E-4,-2.7807002E-5,-1.254056E-3,-8.450163E-4,-1.0290209E-3,-8.7618205E-4,-1.0045309E-3,-5.954601E-4,-4.8792275E-4,-2.045355E-5,-3.574312E-4,-4.5716492E-6,1.9360012E-4,6.1646424E-4,4.0252085E-4,8.7724935E-4,9.804618E-4,1.4089983E-3,1.3962488E-3,8.3061244E-4,6.9947034E-4,1.0825146E-3,1.4528952E-3,1.5889921E-3,1.6248253E-3,1.7390408E-3,1.2582644E-4,8.591092E-4,1.5491332E-3,1.8533433E-3,2.358871E-3,1.6177176E-3,2.6483468E-3,2.8432987E-3,-2.462678E-4,8.0806545E-5,5.3030445E-4,1.1613001E-3,4.7934425E-4,1.2092252E-3,1.1665422E-3,1.6120157E-3,-3.4106348E-4,-4.1500694E-5,2.595023E-6,3.1534745E-4,4.4799727E-4,7.6739176E-4,9.742427E-4,1.3399E-3,3.47721E-4,7.3763484E-4,1.2100285E-3,1.8773308E-3,9.589917E-4,1.6084582E-3,1.496003E-3,1.7120745E-3],"categories":[],"categories_nodes":[],"categories_segments":[],"categories_sizes":[],"default_left":[0,0,0,0,0,0,0,0,0,0,0,0,0,0,0,0,0,0,0,0,0,0,0,0,0,0,0,0,0,0,0,0,0,0,0,0,0,0,0,0,0,0,0,0,0,0,0,0,0,0,0,0,0,0,0,0,0,0,0,0,0,0,0,0,0,0,0,0,0,0,0,0,0,0,0,0,0,0,0,0,0,0,0,0,0,0,0,0,0,0,0,0,0,0,0,0,0,0,0,0,0,0,0,0,0,0,0,0,0,0,0,0,0,0,0,0,0,0,0,0,0,0,0,0,0,0,0],"id":6,"left_children":[1,3,5,7,9,11,13,15,17,19,21,23,25,27,29,31,33,35,37,39,41,43,45,47,49,51,53,55,57,59,61,63,65,67,69,71,73,75,77,79,81,83,85,87,89,91,93,95,97,99,101,103,105,107,109,111,113,115,117,119,121,123,125,-1,-1,-1,-1,-1,-1,-1,-1,-1,-1,-1,-1,-1,-1,-1,-1,-1,-1,-1,-1,-1,-1,-1,-1,-1,-1,-1,-1,-1,-1,-1,-1,-1,-1,-1,-1,-1,-1,-1,-1,-1,-1,-1,-1,-1,-1,-1,-1,-1,-1,-1,-1,-1,-1,-1,-1,-1,-1,-1,-1,-1,-1,-1,-1],"loss_changes":[8.711704E1,1.6234144E1,6.0589256E0,2.568058E0,2.560452E0,2.8119354E0,4.5086205E-1,2.023076E0,5.326519E-1,4.9714714E-1,3.6592007E-2,2.2208939E0,1.9862443E-1,3.4294468E-1,1.143744E-1,2.717141E-1,9.6336746E-1,2.7215004E-1,1.7200261E-1,1.1072541E-1,1.1607212E-1,1.6890407E-2,8.385181E-3,8.6232376E-1,1.18745804E-1,9.005717E-2,5.911708E-2,5.4745644E-2,6.322178E-2,9.4304085E-2,2.0178735E-2,2.732514E-1,1.4668351E-2,3.348713E-1,2.6002717E-1,2.2383118E-1,3.3429146E-2,4.894042E-2,4.7312237E-2,4.727329E-2,2.0799734E-2,3.312105E-2,1.8711448E-2,8.661032E-3,2.5592186E-3,6.349325E-3,1.7569065E-3,7.789171E-2,2.7455902E-1,3.834653E-2,2.2996902E-2,1.3854283E-2,1.4528967E-2,8.460432E-2,6.741792E-3,1.8750161E-2,2.057199E-2,8.1168935E-3,7.294476E-3,2.7737975E-2,1.1393875E-2,2.4392933E-2,1.4307797E-3,0E0,0E0,0E0,0E0,0E0,0E0,0E0,0E0,0E0,0E0,0E0,0E0,0E0,0E0,0E0,0E0,0E0,0E0,0E0,0E0,0E0,0E0,0E0,0E0,0E0,0E0,0E0,0E0,0E0,0E0,0E0,0E0,0E0,0E0,0E0,0E0,0E0,0E0,0E0,0E0,0E0,0E0,0E0,0E0,0E0,0E0,0E0,0E0,0E0,0E0,0E0,0E0,0E0,0E0,0E0,0E0,0E0,0E0,0E0,0E0,0E0,0E0,0E0,0E0],"parents":[2147483647,0,0,1,1,2,2,3,3,4,4,5,5,6,6,7,7,8,8,9,9,10,10,11,11,12,12,13,13,14,14,15,15,16,16,17,17,18,18,19,19,20,20,21,21,22,22,23,23,24,24,25,25,26,26,27,27,28,28,29,29,30,30,31,31,32,32,33,33,34,34,35,35,36,36,37,37,38,38,39,39,40,40,41,41,42,42,43,43,44,44,45,45,46,46,47,47,48,48,49,49,50,50,51,51,52,52,53,53,54,54,55,55,56,56,57,57,58,58,59,59,60,60,61,61,62,62],"right_children":[2,4,6,8,10,12,14,16,18,20,22,24,26,28,30,32,34,36,38,40,42,44,46,48,50,52,54,56,58,60,62,64,66,68,70,72,74,76,78,80,82,84,86,88,90,92,94,96,98,100,102,104,106,108,110,112,114,116,118,120,122,124,126,-1,-1,-1,-1,-1,-1,-1,-1,-1,-1,-1,-1,-1,-1,-1,-1,-1,-1,-1,-1,-1,-1,-1,-1,-1,-1,-1,-1,-1,-1,-1,-1,-1,-1,-1,-1,-1,-1,-1,-1,-1,-1,-1,-1,-1,-1,-1,-1,-1,-1,-1,-1,-1,-1,-1,-1,-1,-1,-1,-1,-1,-1,-1,-1],"split_conditions":[2.8172314E-1,3.4744135E-1,7.374218E-2,2.3178324E-1,6.6276175E-1,8.054552E-2,4.0501025E-1,1.2898368E-1,1.3635938E-1,1.130097E-1,8.594283E-1,5.752477E-1,3.7054747E-1,1.9682895E-1,1.2561496E-1,8.446384E-1,1.6264111E-1,4.5201412E-1,1.09421976E-1,4.9229422E-1,2.0673884E-1,4.6228338E-2,9.037723E-1,2.3852926E-1,8.459128E-1,1.9682895E-1,5.518351E-1,7.072646E-2,3.2643998E-1,5.621368E-1,2.92729E-1,2.019308E-1,8.9408505E-1,1.3257706E-1,1.29116E-1,1.6620475E-1,5.1664656E-1,2.2207442E-1,2.0641673E-1,5.3521883E-2,5.957324E-1,5.013551E-1,5.225734E-1,6.085975E-2,4.9395103E-2,1.7557375E-2,1.3883291E-2,3.8128483E-1,3.8128483E-1,7.484852E-2,8.8611925E-1,8.622172E-2,3.6688524E-1,1.6214205E-1,5.9620726E-1,3.517817E-1,3.517817E-1,3.517817E-1,3.4366938E-1,4.7269154E-1,6.720418E-1,4.9676958E-1,3.8466668E-1,-4.9957284E-4,2.7522422E-6,-1.080859E-4,5.0136692E-5,-1.2139787E-3,-8.1242854E-4,-6.626489E-4,-2.7807002E-5,-1.254056E-3,-8.450163E-4,-1.0290209E-3,-8.7618205E-4,-1.0045309E-3,-5.954601E-4,-4.8792275E-4,-2.045355E-5,-3.574312E-4,-4.5716492E-6,1.9360012E-4,6.1646424E-4,4.0252085E-4,8.7724935E-4,9.804618E-4,1.4089983E-3,1.3962488E-3,8.3061244E-4,6.9947034E-4,1.0825146E-3,1.4528952E-3,1.5889921E-3,1.6248253E-3,1.7390408E-3,1.2582644E-4,8.591092E-4,1.5491332E-3,1.8533433E-3,2.358871E-3,1.6177176E-3,2.6483468E-3,2.8432987E-3,-2.462678E-4,8.0806545E-5,5.3030445E-4,1.1613001E-3,4.7934425E-4,1.2092252E-3,1.1665422E-3,1.6120157E-3,-3.4106348E-4,-4.1500694E-5,2.595023E-6,3.1534745E-4,4.4799727E-4,7.6739176E-4,9.742427E-4,1.3399E-3,3.47721E-4,7.3763484E-4,1.2100285E-3,1.8773308E-3,9.589917E-4,1.6084582E-3,1.496003E-3,1.7120745E-3],"split_indices":[3,2,4,0,2,0,3,4,3,3,2,3,3,2,2,5,3,5,2,2,3,4,2,2,3,2,3,2,2,3,2,3,5,2,2,2,5,3,2,3,2,2,2,0,3,3,3,3,3,1,3,2,2,2,3,3,3,3,3,3,3,3,2,0,0,0,0,0,0,0,0,0,0,0,0,0,0,0,0,0,0,0,0,0,0,0,0,0,0,0,0,0,0,0,0,0,0,0,0,0,0,0,0,0,0,0,0,0,0,0,0,0,0,0,0,0,0,0,0,0,0,0,0,0,0,0,0],"split_type":[0,0,0,0,0,0,0,0,0,0,0,0,0,0,0,0,0,0,0,0,0,0,0,0,0,0,0,0,0,0,0,0,0,0,0,0,0,0,0,0,0,0,0,0,0,0,0,0,0,0,0,0,0,0,0,0,0,0,0,0,0,0,0,0,0,0,0,0,0,0,0,0,0,0,0,0,0,0,0,0,0,0,0,0,0,0,0,0,0,0,0,0,0,0,0,0,0,0,0,0,0,0,0,0,0,0,0,0,0,0,0,0,0,0,0,0,0,0,0,0,0,0,0,0,0,0,0],"sum_hessian":[8E5,5.53009E5,2.46991E5,4.89662E5,6.3347E4,2.08595E5,3.8396E4,2.3043E5,2.59232E5,3.5208E4,2.8139E4,1.92477E5,1.6118E4,2.4745E4,1.3651E4,1.09687E5,1.20743E5,2.36095E5,2.3137E4,2.1711E4,1.3497E4,6.256E3,2.1883E4,1.60788E5,3.1689E4,7.407E3,8.711E3,1.8595E4,6.15E3,9.195E3,4.456E3,8.4689E4,2.4998E4,9.4129E4,2.6614E4,1.71258E5,6.4837E4,1.3662E4,9.475E3,1.5376E4,6.335E3,8.808E3,4.689E3,5.514E3,7.42E2,1.5626E4,6.257E3,5.91E3,1.54878E5,6.694E3,2.4995E4,5.237E3,2.17E3,7.29E3,1.421E3,9.162E3,9.433E3,3.774E3,2.376E3,7.476E3,1.719E3,2.969E3,1.487E3,7.1941E4,1.2748E4,1.5624E4,9.374E3,6.3175E4,3.0954E4,1.5624E4,1.099E4,1.56621E5,1.4637E4,4.3395E4,2.1442E4,9.41E3,4.252E3,6.127E3,3.348E3,8.542E3,6.834E3,4.8E3,1.535E3,6.943E3,1.865E3,3.175E3,1.514E3,5.223E3,2.91E2,4.41E2,3.01E2,5.472E3,1.0154E4,3.225E3,3.032E3,2.542E3,3.368E3,4.0067E4,1.14811E5,5.891E3,8.03E2,1.2512E4,1.2483E4,2.895E3,2.342E3,1.705E3,4.65E2,4.951E3,2.339E3,6.19E2,8.02E2,5.938E3,3.224E3,6.269E3,3.164E3,2.628E3,1.146E3,8.87E2,1.489E3,4.307E3,3.169E3,1.401E3,3.18E2,2.177E3,7.92E2,8.77E2,6.1E2],"tree_param":{"num_deleted":"0","num_feature":"6","num_nodes":"127","size_leaf_vector":"1"}},{"base_weights":[3.8325106E-7,-6.0491716E-3,1.4588228E-2,-7.945986E-3,7.3796827E-3,1.628444E-2,4.5282845E-3,-5.6931344E-3,-9.900554E-3,1.5534605E-3,1.2509872E-2,1.4991925E-2,2.433377E-2,3.078528E-3,1.0803305E-2,-4.3075387E-3,-1.1114187E-2,-1.0314349E-2,-4.6880986E-3,-9.598665E-4,6.997072E-3,1.3212695E-2,5.069925E-3,5.1344633E-3,1.6134731E-2,2.206252E-2,2.4943182E-2,7.2217535E-4,8.136404E-3,7.642498E-3,1.28728105E-2,-2.06395E-3,-5.896331E-3,-1.2146989E-2,-8.3148815E-3,-9.674503E-3,-1.1815914E-2,-6.642133E-3,-1.3153701E-3,-2.6243576E-3,1.3967417E-3,5.0775935E-3,9.777229E-3,1.3638724E-2,5.551299E-3,3.3319525E-3,8.177883E-3,2.6048352E-3,1.0575746E-2,1.5217897E-2,1.8038107E-2,2.2470478E-2,1.6730957E-2,2.443447E-2,2.6210485E-2,-5.212048E-4,3.257377E-3,6.8012006E-3,1.266515E-2,5.721018E-3,1.1206019E-2,1.0757499E-2,1.3652667E-2,-2.789234E-4,-2.696399E-5,-7.55388E-4,-1.548514E-4,-1.2248545E-3,-8.9515717E-4,-9.180327E-4,-3.8792196E-4,-9.389962E-4,-1.2505255E-3,-1.1274958E-3,-1.2688007E-3,-7.9725665E-4,-4.3395176E-4,-2.9153723E-4,1.4902143E-4,-3.858447E-4,-9.854349E-5,6.116277E-5,2.649898E-4,4.0769388E-4,6.6541106E-4,9.297589E-4,1.1234388E-3,1.3868785E-3,6.7500485E-4,3.6053738E-4,8.2712894E-4,1.4016322E-4,5.244151E-4,6.9260516E-4,1.0287137E-3,6.253648E-5,4.7760876E-4,8.030796E-4,1.41261E-3,1.2492771E-3,1.5864642E-3,1.911579E-3,1.6864596E-3,2.2692222E-3,1.8071857E-3,1.7847198E-3,1.4379818E-3,2.376694E-3,2.4909412E-3,2.5697402E-3,2.6726876E-3,-1.9494341E-4,9.840339E-5,1.7018201E-4,5.0848443E-4,5.042355E-4,9.7266847E-4,1.1317431E-3,1.5909424E-3,4.7282033E-4,7.048428E-4,9.843981E-4,1.3793316E-3,9.448522E-4,1.3991519E-3,1.3346518E-3,1.6890906E-3],"categories":[],"categories_nodes":[],"categories_segments":[],"categories_sizes":[],"default_left":[0,0,0,0,0,0,0,0,0,0,0,0,0,0,0,0,0,0,0,0,0,0,0,0,0,0,0,0,0,0,0,0,0,0,0,0,0,0,0,0,0,0,0,0,0,0,0,0,0,0,0,0,0,0,0,0,0,0,0,0,0,0,0,0,0,0,0,0,0,0,0,0,0,0,0,0,0,0,0,0,0,0,0,0,0,0,0,0,0,0,0,0,0,0,0,0,0,0,0,0,0,0,0,0,0,0,0,0,0,0,0,0,0,0,0,0,0,0,0,0,0,0,0,0,0,0,0],"id":7,"left_children":[1,3,5,7,9,11,13,15,17,19,21,23,25,27,29,31,33,35,37,39,41,43,45,47,49,51,53,55,57,59,61,63,65,67,69,71,73,75,77,79,81,83,85,87,89,91,93,95,97,99,101,103,105,107,109,111,113,115,117,119,121,123,125,-1,-1,-1,-1,-1,-1,-1,-1,-1,-1,-1,-1,-1,-1,-1,-1,-1,-1,-1,-1,-1,-1,-1,-1,-1,-1,-1,-1,-1,-1,-1,-1,-1,-1,-1,-1,-1,-1,-1,-1,-1,-1,-1,-1,-1,-1,-1,-1,-1,-1,-1,-1,-1,-1,-1,-1,-1,-1,-1,-1,-1,-1,-1,-1],"loss_changes":[7.060015E1,1.4404324E1,4.001541E0,2.18182E0,2.0919557E0,2.0874138E0,3.0779046E-1,1.7289982E0,5.722065E-1,4.48393E-1,1.9454432E-1,1.9477882E0,3.7878036E-2,3.275999E-1,4.1438878E-2,6.53496E-1,1.3537073E-1,2.3604393E-1,1.2860346E-1,8.795515E-2,5.5193305E-2,1.1091614E-1,1.7333314E-2,2.4725026E-1,2.701187E-1,1.2417793E-2,1.3465881E-2,5.9115272E-2,5.2738607E-2,1.715669E-2,6.1811805E-3,9.891227E-2,7.734709E-1,1.0997772E-2,4.845649E-2,1.3871384E-1,3.4503937E-2,3.7817717E-2,3.214516E-2,2.6574887E-2,9.130668E-3,9.636939E-3,2.8498769E-3,5.0958157E-2,9.460345E-3,7.607503E-3,2.9705241E-3,5.271112E-2,5.13978E-2,1.8412018E-1,6.3373566E-2,4.9164295E-3,8.508712E-4,4.36306E-3,9.703636E-4,2.705318E-2,1.7533824E-2,3.4677744E-2,8.512229E-3,2.122715E-3,2.965331E-3,4.2619407E-3,2.5494099E-3,0E0,0E0,0E0,0E0,0E0,0E0,0E0,0E0,0E0,0E0,0E0,0E0,0E0,0E0,0E0,0E0,0E0,0E0,0E0,0E0,0E0,0E0,0E0,0E0,0E0,0E0,0E0,0E0,0E0,0E0,0E0,0E0,0E0,0E0,0E0,0E0,0E0,0E0,0E0,0E0,0E0,0E0,0E0,0E0,0E0,0E0,0E0,0E0,0E0,0E0,0E0,0E0,0E0,0E0,0E0,0E0,0E0,0E0,0E0,0E0,0E0,0E0,0E0,0E0],"parents":[2147483647,0,0,1,1,2,2,3,3,4,4,5,5,6,6,7,7,8,8,9,9,10,10,11,11,12,12,13,13,14,14,15,15,16,16,17,17,18,18,19,19,20,20,21,21,22,22,23,23,24,24,25,25,26,26,27,27,28,28,29,29,30,30,31,31,32,32,33,33,34,34,35,35,36,36,37,37,38,38,39,39,40,40,41,41,42,42,43,43,44,44,45,45,46,46,47,47,48,48,49,49,50,50,51,51,52,52,53,53,54,54,55,55,56,56,57,57,58,58,59,59,60,60,61,61,62,62],"right_children":[2,4,6,8,10,12,14,16,18,20,22,24,26,28,30,32,34,36,38,40,42,44,46,48,50,52,54,56,58,60,62,64,66,68,70,72,74,76,78,80,82,84,86,88,90,92,94,96,98,100,102,104,106,108,110,112,114,116,118,120,122,124,126,-1,-1,-1,-1,-1,-1,-1,-1,-1,-1,-1,-1,-1,-1,-1,-1,-1,-1,-1,-1,-1,-1,-1,-1,-1,-1,-1,-1,-1,-1,-1,-1,-1,-1,-1,-1,-1,-1,-1,-1,-1,-1,-1,-1,-1,-1,-1,-1,-1,-1,-1,-1,-1,-1,-1,-1,-1,-1,-1,-1,-1,-1,-1,-1],"split_conditions":[3.0313194E-1,3.3923352E-1,7.223667E-2,2.2088063E-1,5.3550535E-1,6.720418E-1,2.3254527E-1,4.0948987E-1,1.6663297E-1,1.434178E-1,6.727276E-2,2.567903E-1,8.6039275E-1,4.367823E-1,3.667602E-1,4.855217E-2,5.3521883E-2,4.8767805E-1,1.1893553E-1,6.931681E-2,2.27421E-1,7.04384E-2,7.456329E-2,4.691422E-1,4.691422E-1,4.554874E-2,9.0399367E-1,1.1567173E-1,5.621368E-1,3.8811457E-1,3.2195044E-1,8.596127E-1,1.8802685E-1,2.2639573E-1,2.0673884E-1,2.0131305E-1,6.552611E-1,2.3873566E-1,2.3293021E-1,4.241446E-1,4.3041208E-1,1.8802685E-1,5.112456E-1,7.183035E-2,7.080744E-2,5.957324E-1,1.3635938E-1,1.0015303E-1,9.7189136E-2,4.113105E-1,3.0737154E-2,4.5280762E-2,1.0612163E-1,2.0384802E-2,9.1731846E-1,3.5941553E-1,3.5941553E-1,8.862886E-2,7.847063E-2,2.92729E-1,4.6890163E-1,4.5228672E-1,4.8015112E-1,-2.789234E-4,-2.696399E-5,-7.55388E-4,-1.548514E-4,-1.2248545E-3,-8.9515717E-4,-9.180327E-4,-3.8792196E-4,-9.389962E-4,-1.2505255E-3,-1.1274958E-3,-1.2688007E-3,-7.9725665E-4,-4.3395176E-4,-2.9153723E-4,1.4902143E-4,-3.858447E-4,-9.854349E-5,6.116277E-5,2.649898E-4,4.0769388E-4,6.6541106E-4,9.297589E-4,1.1234388E-3,1.3868785E-3,6.7500485E-4,3.6053738E-4,8.2712894E-4,1.4016322E-4,5.244151E-4,6.9260516E-4,1.0287137E-3,6.253648E-5,4.7760876E-4,8.030796E-4,1.41261E-3,1.2492771E-3,1.5864642E-3,1.911579E-3,1.6864596E-3,2.2692222E-3,1.8071857E-3,1.7847198E-3,1.4379818E-3,2.376694E-3,2.4909412E-3,2.5697402E-3,2.6726876E-3,-1.9494341E-4,9.840339E-5,1.7018201E-4,5.0848443E-4,5.042355E-4,9.7266847E-4,1.1317431E-3,1.5909424E-3,4.7282033E-4,7.048428E-4,9.843981E-4,1.3793316E-3,9.448522E-4,1.3991519E-3,1.3346518E-3,1.6890906E-3],"split_indices":[3,2,4,0,2,3,2,4,3,3,4,2,3,3,3,4,3,0,2,3,3,0,3,3,3,5,3,2,3,2,2,5,3,5,3,4,0,3,3,2,2,3,2,1,3,2,3,2,2,2,4,1,5,2,3,3,3,2,2,2,2,3,3,0,0,0,0,0,0,0,0,0,0,0,0,0,0,0,0,0,0,0,0,0,0,0,0,0,0,0,0,0,0,0,0,0,0,0,0,0,0,0,0,0,0,0,0,0,0,0,0,0,0,0,0,0,0,0,0,0,0,0,0,0,0,0,0],"split_type":[0,0,0,0,0,0,0,0,0,0,0,0,0,0,0,0,0,0,0,0,0,0,0,0,0,0,0,0,0,0,0,0,0,0,0,0,0,0,0,0,0,0,0,0,0,0,0,0,0,0,0,0,0,0,0,0,0,0,0,0,0,0,0,0,0,0,0,0,0,0,0,0,0,0,0,0,0,0,0,0,0,0,0,0,0,0,0,0,0,0,0,0,0,0,0,0,0,0,0,0,0,0,0,0,0,0,0,0,0,0,0,0,0,0,0,0,0,0,0,0,0,0,0,0,0,0,0],"sum_hessian":[8E5,5.65492E5,2.34508E5,4.95503E5,6.9989E4,2.00672E5,3.3836E4,2.30189E5,2.65314E5,3.2772E4,3.7217E4,1.7291E5,2.7762E4,2.7487E4,6.349E3,1.83332E5,4.6857E4,2.458E5,1.9514E4,2.2421E4,1.0351E4,3.4004E4,3.213E3,1.7964E4,1.54946E5,5.881E3,2.1881E4,1.8752E4,8.735E3,2.514E3,3.835E3,7.6005E4,1.07327E5,3.4226E4,1.2631E4,1.72361E5,7.3439E4,1.2355E4,7.159E3,1.314E4,9.281E3,6.125E3,4.226E3,3.2212E4,1.792E3,2.062E3,1.151E3,1.2264E4,5.7E3,1.0458E5,5.0366E4,5.46E3,4.21E2,1.5628E4,6.253E3,1.2582E4,6.17E3,6.748E3,1.987E3,1.635E3,8.79E2,1.037E3,2.798E3,5.4126E4,2.1879E4,7.7703E4,2.9624E4,3.3169E4,1.057E3,1.0568E4,2.063E3,1.56622E5,1.5739E4,4.5333E4,2.8106E4,7.829E3,4.526E3,4.559E3,2.6E3,7.495E3,5.645E3,5.707E3,3.574E3,3.749E3,2.376E3,3.185E3,1.041E3,3.117E4,1.042E3,1.046E3,7.46E2,1.027E3,1.035E3,7.25E2,4.26E2,6.416E3,5.848E3,3.322E3,2.378E3,2.0063E4,8.4517E4,2.6247E4,2.4119E4,5.194E3,2.66E2,2.81E2,1.4E2,6.518E3,9.11E3,3.162E3,3.091E3,6.456E3,6.126E3,3.334E3,2.836E3,4.216E3,2.532E3,1.407E3,5.8E2,9.38E2,6.97E2,5.79E2,3E2,7.41E2,2.96E2,2.561E3,2.37E2],"tree_param":{"num_deleted":"0","num_feature":"6","num_nodes":"127","size_leaf_vector":"1"}},{"base_weights":[3.9260664E-7,-5.704164E-3,1.2543237E-2,-7.336732E-3,6.0405317E-3,1.4403385E-2,3.4800489E-3,-5.218515E-3,-8.901264E-3,1.5016729E-3,1.2326329E-2,1.5272808E-2,4.1249376E-3,2.02236E-3,9.629565E-3,-2.3226829E-3,-7.485807E-3,-9.454309E-3,-5.7005873E-3,-9.232427E-4,5.1483754E-3,1.09219365E-2,1.3028056E-2,1.3979224E-2,2.1208536E-2,1.4303974E-3,7.059635E-3,7.283787E-5,7.3247747E-3,7.125976E-3,1.1408775E-2,-6.3033355E-4,-3.2259787E-3,-9.701962E-3,-4.896943E-3,-1.0241177E-2,-8.167175E-3,-7.0944796E-3,-1.4392957E-3,-2.1204571E-3,2.089625E-3,3.613214E-3,8.198852E-3,1.1258962E-2,6.7706592E-3,1.2781901E-2,1.4254976E-2,4.980409E-3,1.4378337E-2,1.839649E-2,2.2246962E-2,-7.615666E-4,5.2621216E-3,5.2561644E-3,9.6016005E-3,-1.1155108E-3,2.6526228E-3,5.9657223E-3,1.1172108E-2,5.653099E-3,9.403526E-3,9.365452E-3,1.20363E-2,-1.2298654E-4,2.7282545E-5,-2.0169959E-4,-5.7837355E-4,-8.353565E-4,-1.106193E-3,-6.319121E-4,-1.02440084E-4,-1.0517965E-3,-7.333501E-4,-8.699028E-4,-7.2347035E-4,-7.988211E-4,-4.2801877E-4,-2.7078076E-4,1.8674225E-4,-3.8470823E-4,-8.4404375E-5,3.1523352E-5,3.4049034E-4,2.7830838E-4,6.7234994E-4,7.0766493E-4,1.0234895E-3,1.1437463E-3,7.2095176E-4,5.762877E-4,9.443811E-4,1.2316866E-3,1.3670728E-3,1.3901368E-3,1.491954E-3,1.4007605E-4,7.9322327E-4,1.547984E-3,1.3095773E-3,1.901524E-3,1.2747447E-3,2.1430948E-3,2.3063093E-3,-2.626072E-4,1.929471E-5,3.91372E-4,8.0301653E-4,4.0415014E-4,1.2804625E-3,8.7054784E-4,1.3734252E-3,-2.209557E-4,6.75602E-5,1.6260635E-4,4.396035E-4,4.0717996E-4,8.2411425E-4,9.3304284E-4,1.2965422E-3,9.128617E-4,4.8451318E-4,8.452328E-4,1.1860438E-3,8.233329E-4,1.3505854E-3,1.3095323E-3,1.0929084E-3],"categories":[],"categories_nodes":[],"categories_segments":[],"categories_sizes":[],"default_left":[0,0,0,0,0,0,0,0,0,0,0,0,0,0,0,0,0,0,0,0,0,0,0,0,0,0,0,0,0,0,0,0,0,0,0,0,0,0,0,0,0,0,0,0,0,0,0,0,0,0,0,0,0,0,0,0,0,0,0,0,0,0,0,0,0,0,0,0,0,0,0,0,0,0,0,0,0,0,0,0,0,0,0,0,0,0,0,0,0,0,0,0,0,0,0,0,0,0,0,0,0,0,0,0,0,0,0,0,0,0,0,0,0,0,0,0,0,0,0,0,0,0,0,0,0,0,0],"id":8,"left_children":[1,3,5,7,9,11,13,15,17,19,21,23,25,27,29,31,33,35,37,39,41,43,45,47,49,51,53,55,57,59,61,63,65,67,69,71,73,75,77,79,81,83,85,87,89,91,93,95,97,99,101,103,105,107,109,111,113,115,117,119,121,123,125,-1,-1,-1,-1,-1,-1,-1,-1,-1,-1,-1,-1,-1,-1,-1,-1,-1,-1,-1,-1,-1,-1,-1,-1,-1,-1,-1,-1,-1,-1,-1,-1,-1,-1,-1,-1,-1,-1,-1,-1,-1,-1,-1,-1,-1,-1,-1,-1,-1,-1,-1,-1,-1,-1,-1,-1,-1,-1,-1,-1,-1,-1,-1,-1],"loss_changes":[5.7241234E1,1.0543894E1,4.216343E0,1.5999355E0,1.9146817E0,1.8542976E0,3.8176972E-1,1.3466463E0,4.914875E-1,3.4463206E-1,2.7589321E-2,1.4687691E0,1.2797537E-1,3.5591877E-1,3.6271095E-2,1.3768727E-1,6.5995693E-1,2.397232E-1,2.4301589E-1,8.443822E-2,7.286084E-2,1.3049841E-2,5.4831505E-3,5.641384E-1,9.955406E-2,7.0883185E-2,3.5464585E-2,7.7184625E-2,4.8330426E-2,1.1328831E-2,6.002307E-3,1.6973337E-2,1.8158275E-1,1.1356354E-1,2.9221296E-1,1.18180275E-1,4.448986E-2,7.751024E-2,4.2311907E-2,3.691627E-2,1.5535157E-2,2.6719868E-2,1.1831671E-2,6.1889887E-3,1.8502027E-3,6.2937737E-3,5.272031E-4,7.049909E-2,2.1230125E-1,3.204775E-2,1.6152382E-2,9.555695E-3,1.14308745E-2,4.1519746E-2,1.1783004E-2,3.3778433E-2,1.4203198E-2,2.9451862E-2,7.8550875E-3,5.748898E-3,3.0103177E-3,5.162172E-3,4.1309E-3,0E0,0E0,0E0,0E0,0E0,0E0,0E0,0E0,0E0,0E0,0E0,0E0,0E0,0E0,0E0,0E0,0E0,0E0,0E0,0E0,0E0,0E0,0E0,0E0,0E0,0E0,0E0,0E0,0E0,0E0,0E0,0E0,0E0,0E0,0E0,0E0,0E0,0E0,0E0,0E0,0E0,0E0,0E0,0E0,0E0,0E0,0E0,0E0,0E0,0E0,0E0,0E0,0E0,0E0,0E0,0E0,0E0,0E0,0E0,0E0,0E0,0E0,0E0,0E0],"parents":[2147483647,0,0,1,1,2,2,3,3,4,4,5,5,6,6,7,7,8,8,9,9,10,10,11,11,12,12,13,13,14,14,15,15,16,16,17,17,18,18,19,19,20,20,21,21,22,22,23,23,24,24,25,25,26,26,27,27,28,28,29,29,30,30,31,31,32,32,33,33,34,34,35,35,36,36,37,37,38,38,39,39,40,40,41,41,42,42,43,43,44,44,45,45,46,46,47,47,48,48,49,49,50,50,51,51,52,52,53,53,54,54,55,55,56,56,57,57,58,58,59,59,60,60,61,61,62,62],"right_children":[2,4,6,8,10,12,14,16,18,20,22,24,26,28,30,32,34,36,38,40,42,44,46,48,50,52,54,56,58,60,62,64,66,68,70,72,74,76,78,80,82,84,86,88,90,92,94,96,98,100,102,104,106,108,110,112,114,116,118,120,122,124,126,-1,-1,-1,-1,-1,-1,-1,-1,-1,-1,-1,-1,-1,-1,-1,-1,-1,-1,-1,-1,-1,-1,-1,-1,-1,-1,-1,-1,-1,-1,-1,-1,-1,-1,-1,-1,-1,-1,-1,-1,-1,-1,-1,-1,-1,-1,-1,-1,-1,-1,-1,-1,-1,-1,-1,-1,-1,-1,-1,-1,-1,-1,-1,-1],"split_conditions":[2.7560204E-1,3.3062375E-1,7.04384E-2,1.8667245E-1,6.6276175E-1,8.130681E-2,2.4454616E-1,1.0321649E-1,1.0370746E-1,1.0681425E-1,8.6946493E-1,5.621368E-1,3.8128483E-1,4.3372834E-1,3.5941553E-1,7.050094E-2,7.917036E-2,4.2388293E-1,1.7041864E-1,4.8395526E-1,1.9716947E-1,4.554874E-2,9.1700166E-1,2.753928E-1,8.459128E-1,1.7041864E-1,1.09421976E-1,1.2226336E-1,5.518351E-1,3.7406978E-1,3.2643998E-1,8.855558E-1,2.0090859E-1,5.2834487E-1,1.8766941E-1,1.8320085E-1,4.9646246E-1,2.1666558E-1,2.019308E-1,3.769991E-2,3.498048E-2,4.9229422E-1,2.5072807E-1,5.085556E-2,6.767347E-2,2.8163407E-2,1.618637E-2,3.848539E-1,3.628673E-2,7.06687E-2,8.8611925E-1,4.5619927E-2,3.0308935E-1,5.9620726E-1,5.062653E-1,3.5559267E-1,3.517817E-1,7.443718E-2,4.855111E-2,2.8751865E-1,4.8395526E-1,4.7630203E-1,3.220127E-2,-1.2298654E-4,2.7282545E-5,-2.0169959E-4,-5.7837355E-4,-8.353565E-4,-1.106193E-3,-6.319121E-4,-1.02440084E-4,-1.0517965E-3,-7.333501E-4,-8.699028E-4,-7.2347035E-4,-7.988211E-4,-4.2801877E-4,-2.7078076E-4,1.8674225E-4,-3.8470823E-4,-8.4404375E-5,3.1523352E-5,3.4049034E-4,2.7830838E-4,6.7234994E-4,7.0766493E-4,1.0234895E-3,1.1437463E-3,7.2095176E-4,5.762877E-4,9.443811E-4,1.2316866E-3,1.3670728E-3,1.3901368E-3,1.491954E-3,1.4007605E-4,7.9322327E-4,1.547984E-3,1.3095773E-3,1.901524E-3,1.2747447E-3,2.1430948E-3,2.3063093E-3,-2.626072E-4,1.929471E-5,3.91372E-4,8.0301653E-4,4.0415014E-4,1.2804625E-3,8.7054784E-4,1.3734252E-3,-2.209557E-4,6.75602E-5,1.6260635E-4,4.396035E-4,4.0717996E-4,8.2411425E-4,9.3304284E-4,1.2965422E-3,9.128617E-4,4.8451318E-4,8.452328E-4,1.1860438E-3,8.233329E-4,1.3505854E-3,1.3095323E-3,1.0929084E-3],"split_indices":[3,2,0,0,2,4,2,4,3,3,2,3,3,3,3,1,3,5,2,2,3,5,2,2,3,2,2,2,3,2,2,5,5,4,2,2,5,3,3,3,3,2,3,1,3,3,3,3,5,5,3,2,2,3,3,3,3,2,2,3,2,3,5,0,0,0,0,0,0,0,0,0,0,0,0,0,0,0,0,0,0,0,0,0,0,0,0,0,0,0,0,0,0,0,0,0,0,0,0,0,0,0,0,0,0,0,0,0,0,0,0,0,0,0,0,0,0,0,0,0,0,0,0,0,0,0,0],"split_type":[0,0,0,0,0,0,0,0,0,0,0,0,0,0,0,0,0,0,0,0,0,0,0,0,0,0,0,0,0,0,0,0,0,0,0,0,0,0,0,0,0,0,0,0,0,0,0,0,0,0,0,0,0,0,0,0,0,0,0,0,0,0,0,0,0,0,0,0,0,0,0,0,0,0,0,0,0,0,0,0,0,0,0,0,0,0,0,0,0,0,0,0,0,0,0,0,0,0,0,0,0,0,0,0,0,0,0,0,0,0,0,0,0,0,0,0,0,0,0,0,0,0,0,0,0,0,0],"sum_hessian":[8E5,5.49902E5,2.50098E5,4.82792E5,6.711E4,2.07508E5,4.259E4,2.05105E5,2.77687E5,3.8971E4,2.8139E4,1.91324E5,1.6184E4,3.443E4,8.16E3,9.0069E4,1.15036E5,2.36773E5,4.0914E4,2.3407E4,1.5564E4,9.381E3,1.8758E4,1.57092E5,3.4232E4,8.438E3,7.746E3,2.5175E4,9.255E3,3.392E3,4.768E3,3.1345E4,5.8724E4,6.1978E4,5.3058E4,1.46938E5,8.9835E4,3.0829E4,1.0085E4,1.6751E4,6.656E3,1.0355E4,5.209E3,8.675E3,7.06E2,1.5633E4,3.125E3,6.672E3,1.5042E5,9.237E3,2.4995E4,5.368E3,3.07E3,4.533E3,3.213E3,1.7236E4,7.939E3,6.841E3,2.414E3,2.062E3,1.33E3,1.124E3,3.644E3,1.8839E4,1.2506E4,3.9877E4,1.8847E4,3.1125E4,3.0853E4,3.8806E4,1.4252E4,1.34164E5,1.2774E4,5.7201E4,3.2634E4,2.3397E4,7.432E3,7.289E3,2.796E3,7.119E3,9.632E3,2.834E3,3.822E3,8.175E3,2.18E3,3.361E3,1.848E3,8.307E3,3.68E2,5.15E2,1.91E2,1.0273E4,5.36E3,2.054E3,1.071E3,3.016E3,3.656E3,8.0916E4,6.9504E4,8.323E3,9.14E2,1.2512E4,1.2483E4,1.817E3,3.551E3,2.066E3,1.004E3,3.906E3,6.27E2,2.643E3,5.7E2,1.07E4,6.536E3,4.998E3,2.941E3,3.735E3,3.106E3,1.194E3,1.22E3,3.87E2,1.675E3,9.62E2,3.68E2,8.85E2,2.39E2,1.857E3,1.787E3],"tree_param":{"num_deleted":"0","num_feature":"6","num_nodes":"127","size_leaf_vector":"1"}},{"base_weights":[3.9251995E-7,-5.181631E-3,1.1189437E-2,-6.4331805E-3,7.226172E-3,1.2949597E-2,3.2218194E-3,-5.0700908E-3,-8.60826E-3,2.269512E-3,1.1094012E-2,1.3789607E-2,3.9666602E-3,1.6907504E-3,8.584758E-3,-3.5859775E-3,-7.3776897E-3,-8.106723E-3,-9.816714E-3,3.4710063E-4,5.115093E-3,9.830103E-3,1.1725544E-2,1.2564689E-2,1.8897353E-2,1.151464E-3,6.426081E-3,-1.3916052E-4,6.2860902E-3,6.570868E-3,1.037811E-2,-1.9854887E-3,-5.2283984E-3,-9.168992E-3,-5.4070926E-3,-8.246873E-3,-4.6862373E-3,-9.9408515E-3,-6.715679E-3,-3.8980038E-4,3.4939758E-3,3.7456162E-3,7.1258736E-3,1.0130297E-2,6.051569E-3,1.1503879E-2,1.28304E-2,3.675359E-3,1.2936724E-2,1.6488723E-2,2.0023007E-2,-1.0153041E-3,4.1983435E-3,4.8146984E-3,9.272502E-3,-1.602453E-3,1.5827467E-3,4.591866E-3,9.04542E-3,4.607189E-3,7.973855E-3,9.900015E-3,1.2897363E-2,-5.261671E-5,-2.8681147E-4,-6.3430733E-4,-1.6729724E-4,-9.545106E-4,-5.180713E-4,-6.457518E-4,-8.8471155E-5,-8.134015E-4,-1.1913381E-3,-6.7424536E-4,-2.3388781E-4,-1.0168891E-3,-9.020647E-4,-8.0499327E-4,-4.503314E-4,-1.9829262E-4,6.0541464E-5,1.8251238E-4,4.7141282E-4,3.1147074E-4,8.22416E-4,6.576294E-4,1.0560508E-3,1.0305459E-3,6.5402105E-4,4.693925E-4,7.845957E-4,1.0719975E-3,1.1957453E-3,1.2654351E-3,1.3991853E-3,1.2579704E-4,6.670878E-4,1.4048276E-3,1.1702166E-3,1.6929487E-3,1.1261216E-3,1.9445069E-3,2.0986113E-3,-2.3208313E-4,9.946163E-6,7.260469E-4,3.360118E-4,2.9465457E-4,8.3554414E-4,8.319517E-4,1.2488547E-3,-2.6118866E-4,-2.0849544E-5,8.514866E-5,3.2062837E-4,2.4092077E-4,6.080565E-4,7.6140644E-4,1.167802E-3,7.489523E-4,3.6394966E-4,7.1697595E-4,1.0186022E-3,8.371451E-4,1.1225059E-3,1.2248163E-3,1.4962252E-3],"categories":[],"categories_nodes":[],"categories_segments":[],"categories_sizes":[],"default_left":[0,0,0,0,0,0,0,0,0,0,0,0,0,0,0,0,0,0,0,0,0,0,0,0,0,0,0,0,0,0,0,0,0,0,0,0,0,0,0,0,0,0,0,0,0,0,0,0,0,0,0,0,0,0,0,0,0,0,0,0,0,0,0,0,0,0,0,0,0,0,0,0,0,0,0,0,0,0,0,0,0,0,0,0,0,0,0,0,0,0,0,0,0,0,0,0,0,0,0,0,0,0,0,0,0,0,0,0,0,0,0,0,0,0,0,0,0,0,0,0,0,0,0,0,0,0,0],"id":9,"left_children":[1,3,5,7,9,11,13,15,17,19,21,23,25,27,29,31,33,35,37,39,41,43,45,47,49,51,53,55,57,59,61,63,65,67,69,71,73,75,77,79,81,83,85,87,89,91,93,95,97,99,101,103,105,107,109,111,113,115,117,119,121,123,125,-1,-1,-1,-1,-1,-1,-1,-1,-1,-1,-1,-1,-1,-1,-1,-1,-1,-1,-1,-1,-1,-1,-1,-1,-1,-1,-1,-1,-1,-1,-1,-1,-1,-1,-1,-1,-1,-1,-1,-1,-1,-1,-1,-1,-1,-1,-1,-1,-1,-1,-1,-1,-1,-1,-1,-1,-1,-1,-1,-1,-1,-1,-1,-1],"loss_changes":[4.6385628E1,8.490871E0,3.5513134E0,1.4725132E0,9.6045136E-1,1.5650063E0,3.762231E-1,1.0456557E0,1.158905E-1,1.2012773E-1,2.234602E-2,1.1864586E0,1.2280613E-1,2.9975033E-1,3.668356E-2,4.8846078E-1,4.2180967E-1,6.478691E-2,2.153492E-2,3.039565E-2,2.4354711E-2,1.0580659E-2,4.446745E-3,5.0590134E-1,9.9137306E-2,5.461503E-2,4.337737E-2,6.424111E-2,4.7418296E-2,1.3176322E-2,6.3533783E-3,1.2122193E-1,3.6344934E-1,9.385538E-2,2.703358E-1,5.365753E-2,2.5686286E-2,1.1230469E-2,6.348625E-3,1.6840823E-2,5.055556E-3,1.4862224E-2,6.6995174E-3,5.39726E-3,1.6514156E-3,5.4306984E-3,4.621148E-4,4.450409E-2,2.0134354E-1,2.6744127E-2,1.3504982E-2,7.0368815E-3,8.800089E-3,3.9974168E-2,1.0380954E-2,1.9393615E-2,1.3903268E-2,2.0430058E-2,1.4460027E-2,5.553957E-3,4.9004853E-3,9.075075E-3,9.6289814E-4,0E0,0E0,0E0,0E0,0E0,0E0,0E0,0E0,0E0,0E0,0E0,0E0,0E0,0E0,0E0,0E0,0E0,0E0,0E0,0E0,0E0,0E0,0E0,0E0,0E0,0E0,0E0,0E0,0E0,0E0,0E0,0E0,0E0,0E0,0E0,0E0,0E0,0E0,0E0,0E0,0E0,0E0,0E0,0E0,0E0,0E0,0E0,0E0,0E0,0E0,0E0,0E0,0E0,0E0,0E0,0E0,0E0,0E0,0E0,0E0,0E0,0E0,0E0,0E0],"parents":[2147483647,0,0,1,1,2,2,3,3,4,4,5,5,6,6,7,7,8,8,9,9,10,10,11,11,12,12,13,13,14,14,15,15,16,16,17,17,18,18,19,19,20,20,21,21,22,22,23,23,24,24,25,25,26,26,27,27,28,28,29,29,30,30,31,31,32,32,33,33,34,34,35,35,36,36,37,37,38,38,39,39,40,40,41,41,42,42,43,43,44,44,45,45,46,46,47,47,48,48,49,49,50,50,51,51,52,52,53,53,54,54,55,55,56,56,57,57,58,58,59,59,60,60,61,61,62,62],"right_children":[2,4,6,8,10,12,14,16,18,20,22,24,26,28,30,32,34,36,38,40,42,44,46,48,50,52,54,56,58,60,62,64,66,68,70,72,74,76,78,80,82,84,86,88,90,92,94,96,98,100,102,104,106,108,110,112,114,116,118,120,122,124,126,-1,-1,-1,-1,-1,-1,-1,-1,-1,-1,-1,-1,-1,-1,-1,-1,-1,-1,-1,-1,-1,-1,-1,-1,-1,-1,-1,-1,-1,-1,-1,-1,-1,-1,-1,-1,-1,-1,-1,-1,-1,-1,-1,-1,-1,-1,-1,-1,-1,-1,-1,-1,-1,-1,-1,-1,-1,-1,-1,-1,-1,-1,-1,-1],"split_conditions":[2.6961216E-1,4.01575E-1,6.893467E-2,3.592549E-1,6.6276175E-1,7.644933E-2,2.3254527E-1,1.7853224E-1,5.162671E-1,9.777743E-2,8.6946493E-1,5.518351E-1,3.667602E-1,4.2431468E-1,3.667602E-1,1.05796896E-1,6.767347E-2,1.8320085E-1,1.1567173E-1,5.619518E-1,1.7070626E-1,4.6180774E-2,9.1700166E-1,2.6931837E-1,8.459128E-1,1.5816306E-1,1.5054014E-1,8.622172E-2,5.168062E-1,3.079388E-1,4.7630203E-1,1.11574195E-1,2.0641673E-1,2.6931837E-1,2.2168107E-1,2.111606E-1,6.767347E-2,3.305299E-1,6.767347E-2,3.0461367E-2,3.0461367E-2,5.7491916E-1,5.619518E-1,5.1479492E-2,4.5663197E-2,1.5715264E-2,2.770862E-2,4.0501025E-1,3.568684E-2,7.484852E-2,8.945276E-1,6.1100673E-2,2.8751865E-1,5.0132424E-1,4.6557042E-1,3.4366938E-1,3.5559267E-1,5.17739E-2,5.9620726E-1,2.8751865E-1,4.6890163E-1,3.7774584E-1,5.225533E-1,-5.261671E-5,-2.8681147E-4,-6.3430733E-4,-1.6729724E-4,-9.545106E-4,-5.180713E-4,-6.457518E-4,-8.8471155E-5,-8.134015E-4,-1.1913381E-3,-6.7424536E-4,-2.3388781E-4,-1.0168891E-3,-9.020647E-4,-8.0499327E-4,-4.503314E-4,-1.9829262E-4,6.0541464E-5,1.8251238E-4,4.7141282E-4,3.1147074E-4,8.22416E-4,6.576294E-4,1.0560508E-3,1.0305459E-3,6.5402105E-4,4.693925E-4,7.845957E-4,1.0719975E-3,1.1957453E-3,1.2654351E-3,1.3991853E-3,1.2579704E-4,6.670878E-4,1.4048276E-3,1.1702166E-3,1.6929487E-3,1.1261216E-3,1.9445069E-3,2.0986113E-3,-2.3208313E-4,9.946163E-6,7.260469E-4,3.360118E-4,2.9465457E-4,8.3554414E-4,8.319517E-4,1.2488547E-3,-2.6118866E-4,-2.0849544E-5,8.514866E-5,3.2062837E-4,2.4092077E-4,6.080565E-4,7.6140644E-4,1.167802E-3,7.489523E-4,3.6394966E-4,7.1697595E-4,1.0186022E-3,8.371451E-4,1.1225059E-3,1.2248163E-3,1.4962252E-3],"split_indices":[3,2,0,0,2,5,2,4,0,3,2,3,3,3,3,0,3,2,2,2,3,5,2,2,3,2,2,2,3,2,3,1,2,2,2,4,3,5,3,3,3,2,2,4,3,3,3,3,4,1,3,2,3,3,3,3,3,2,3,3,2,2,3,0,0,0,0,0,0,0,0,0,0,0,0,0,0,0,0,0,0,0,0,0,0,0,0,0,0,0,0,0,0,0,0,0,0,0,0,0,0,0,0,0,0,0,0,0,0,0,0,0,0,0,0,0,0,0,0,0,0,0,0,0,0,0,0],"split_type":[0,0,0,0,0,0,0,0,0,0,0,0,0,0,0,0,0,0,0,0,0,0,0,0,0,0,0,0,0,0,0,0,0,0,0,0,0,0,0,0,0,0,0,0,0,0,0,0,0,0,0,0,0,0,0,0,0,0,0,0,0,0,0,0,0,0,0,0,0,0,0,0,0,0,0,0,0,0,0,0,0,0,0,0,0,0,0,0,0,0,0,0,0,0,0,0,0,0,0,0,0,0,0,0,0,0,0,0,0,0,0,0,0,0,0,0,0,0,0,0,0,0,0,0,0,0,0],"sum_hessian":[8E5,5.46772E5,2.53228E5,4.96674E5,5.0098E4,2.07408E5,4.582E4,3.05331E5,1.91343E5,2.1959E4,2.8139E4,1.89671E5,1.7737E4,3.5645E4,1.0175E4,1.85823E5,1.19508E5,1.35228E5,5.6115E4,1.3106E4,8.853E3,9.381E3,1.8758E4,1.52986E5,3.6685E4,8.271E3,9.466E3,2.5494E4,1.0151E4,4.795E3,5.38E3,9.4114E4,9.1709E4,6.26E4,5.6908E4,1.29904E5,5.324E3,5.3953E4,2.162E3,1.062E4,2.486E3,5.268E3,3.585E3,8.689E3,6.92E2,1.5633E4,3.125E3,6.146E3,1.4684E5,1.1689E4,2.4996E4,4.834E3,3.437E3,6.046E3,3.42E3,1.3782E4,1.1712E4,6.291E3,3.86E3,2E3,2.795E3,4.526E3,8.54E2,3.547E4,5.8644E4,6.9819E4,2.189E4,5.7204E4,5.396E3,4.6181E4,1.0727E4,1.26028E5,3.876E3,2.837E3,2.487E3,4.323E4,1.0723E4,1.347E3,8.15E2,4.083E3,6.537E3,1.051E3,1.435E3,4.619E3,6.49E2,3.093E3,4.92E2,8.283E3,4.06E2,3.96E2,2.96E2,5.739E3,9.894E3,2.724E3,4.01E2,3.402E3,2.744E3,7.7264E4,6.9576E4,1.0778E4,9.11E2,1.5635E4,9.361E3,2.226E3,2.608E3,7.37E2,2.7E3,3.959E3,2.087E3,2.641E3,7.79E2,7.993E3,5.789E3,8.076E3,3.636E3,2.552E3,3.739E3,2.503E3,1.357E3,5.01E2,1.499E3,2.053E3,7.42E2,2.105E3,2.421E3,6.55E2,1.99E2],"tree_param":{"num_deleted":"0","num_feature":"6","num_nodes":"127","size_leaf_vector":"1"}},{"base_weights":[3.862187E-7,-4.374617E-3,1.0752978E-2,-5.8817146E-3,4.9054353E-3,1.203275E-2,3.785084E-3,-6.463898E-3,-1.5196175E-3,9.152749E-4,9.057084E-3,1.1083717E-2,1.7771956E-2,2.27769E-3,7.894315E-3,-6.88049E-3,-4.8201904E-4,-3.6744808E-3,1.5323258E-3,-1.6280194E-3,4.2014327E-3,9.579845E-3,3.4794102E-3,3.7682212E-3,1.18524935E-2,1.6512634E-2,1.8374672E-2,6.029612E-4,6.20836E-3,5.663504E-3,9.409703E-3,-7.290911E-3,-1.3923618E-3,-1.1076785E-3,2.981554E-4,-4.969002E-3,-2.3118274E-3,4.2854223E-4,4.340207E-3,-3.071778E-3,-3.7857072E-4,2.4826606E-3,6.306048E-3,9.907661E-3,4.1342885E-3,1.6597139E-3,5.3897426E-3,1.9850188E-3,7.931843E-3,1.2920796E-2,1.0458403E-2,1.6701946E-2,1.274333E-2,1.7967088E-2,1.9186053E-2,-1.4046321E-3,1.5413039E-3,5.3843507E-3,1.036235E-2,4.0615313E-3,7.721339E-3,8.978367E-3,1.2175733E-2,-7.7117095E-4,-4.8254142E-4,-2.353265E-4,-6.256175E-5,-2.111006E-4,-8.583842E-5,-1.9306533E-6,1.2468018E-4,-6.0725363E-4,-3.560687E-4,-3.5866944E-4,-1.06427695E-4,-1.3411212E-4,1.7462754E-4,2.5403782E-4,5.47775E-4,-4.3270146E-4,-1.7107789E-4,-1.1501635E-4,7.844253E-5,1.9743701E-4,3.6675893E-4,5.149086E-4,6.870772E-4,1.0075954E-3,4.5801303E-4,2.6566043E-4,6.1911595E-4,3.1501317E-5,3.334E-4,4.3774475E-4,7.5261807E-4,5.081705E-6,3.2668014E-4,5.755344E-4,1.0674702E-3,1.4021768E-3,1.1617508E-3,1.1400987E-3,9.0245187E-4,1.6779228E-3,1.226024E-3,1.3652517E-3,9.872521E-4,1.7513132E-3,1.8697357E-3,1.8811262E-3,1.9890713E-3,-2.3442545E-4,-4.1015617E-5,4.1448722E-5,2.681417E-4,3.3955273E-4,7.0288294E-4,9.2634716E-4,1.3114235E-3,2.833697E-4,4.888859E-4,7.0020574E-4,1.0410137E-3,7.8936893E-4,1.0379186E-3,1.1457494E-3,1.37554E-3],"categories":[],"categories_nodes":[],"categories_segments":[],"categories_sizes":[],"default_left":[0,0,0,0,0,0,0,0,0,0,0,0,0,0,0,0,0,0,0,0,0,0,0,0,0,0,0,0,0,0,0,0,0,0,0,0,0,0,0,0,0,0,0,0,0,0,0,0,0,0,0,0,0,0,0,0,0,0,0,0,0,0,0,0,0,0,0,0,0,0,0,0,0,0,0,0,0,0,0,0,0,0,0,0,0,0,0,0,0,0,0,0,0,0,0,0,0,0,0,0,0,0,0,0,0,0,0,0,0,0,0,0,0,0,0,0,0,0,0,0,0,0,0,0,0,0,0],"id":10,"left_children":[1,3,5,7,9,11,13,15,17,19,21,23,25,27,29,31,33,35,37,39,41,43,45,47,49,51,53,55,57,59,61,63,65,67,69,71,73,75,77,79,81,83,85,87,89,91,93,95,97,99,101,103,105,107,109,111,113,115,117,119,121,123,125,-1,-1,-1,-1,-1,-1,-1,-1,-1,-1,-1,-1,-1,-1,-1,-1,-1,-1,-1,-1,-1,-1,-1,-1,-1,-1,-1,-1,-1,-1,-1,-1,-1,-1,-1,-1,-1,-1,-1,-1,-1,-1,-1,-1,-1,-1,-1,-1,-1,-1,-1,-1,-1,-1,-1,-1,-1,-1,-1,-1,-1,-1,-1,-1],"loss_changes":[3.7634193E1,7.952939E0,2.063118E0,1.2423096E0,1.3160738E0,1.0644398E0,2.2236729E-1,1.0755177E0,3.7883297E-1,3.385926E-1,1.13492966E-1,9.4327736E-1,2.0747185E-2,1.729134E-1,3.2518268E-2,9.088268E-1,1.3717091E-2,5.9547663E-2,7.388528E-2,4.119636E-2,6.3921064E-2,6.35066E-2,1.159469E-2,1.1842117E-1,2.25914E-1,6.200075E-3,5.8555603E-3,3.4703843E-2,2.6807368E-2,1.2825355E-2,6.7343116E-3,3.8944626E-1,2.0684E-2,3.8988665E-3,3.7666212E-3,2.6886463E-2,2.6160851E-2,3.9911233E-2,1.3758838E-2,1.8092833E-2,1.0988168E-2,5.853627E-3,5.155593E-3,3.0057669E-2,6.1322674E-3,3.8511185E-3,3.4879409E-3,2.7692784E-2,2.8492242E-2,1.23132706E-1,8.890295E-2,2.730608E-3,9.979978E-4,3.8146973E-3,1.2774467E-3,5.4822834E-3,1.6127E-2,2.1401703E-2,3.8036555E-3,2.2158772E-3,3.226526E-3,7.4635744E-3,7.1715564E-4,0E0,0E0,0E0,0E0,0E0,0E0,0E0,0E0,0E0,0E0,0E0,0E0,0E0,0E0,0E0,0E0,0E0,0E0,0E0,0E0,0E0,0E0,0E0,0E0,0E0,0E0,0E0,0E0,0E0,0E0,0E0,0E0,0E0,0E0,0E0,0E0,0E0,0E0,0E0,0E0,0E0,0E0,0E0,0E0,0E0,0E0,0E0,0E0,0E0,0E0,0E0,0E0,0E0,0E0,0E0,0E0,0E0,0E0,0E0,0E0,0E0,0E0,0E0,0E0],"parents":[2147483647,0,0,1,1,2,2,3,3,4,4,5,5,6,6,7,7,8,8,9,9,10,10,11,11,12,12,13,13,14,14,15,15,16,16,17,17,18,18,19,19,20,20,21,21,22,22,23,23,24,24,25,25,26,26,27,27,28,28,29,29,30,30,31,31,32,32,33,33,34,34,35,35,36,36,37,37,38,38,39,39,40,40,41,41,42,42,43,43,44,44,45,45,46,46,47,47,48,48,49,49,50,50,51,51,52,52,53,53,54,54,55,55,56,56,57,57,58,58,59,59,60,60,61,61,62,62],"right_children":[2,4,6,8,10,12,14,16,18,20,22,24,26,28,30,32,34,36,38,40,42,44,46,48,50,52,54,56,58,60,62,64,66,68,70,72,74,76,78,80,82,84,86,88,90,92,94,96,98,100,102,104,106,108,110,112,114,116,118,120,122,124,126,-1,-1,-1,-1,-1,-1,-1,-1,-1,-1,-1,-1,-1,-1,-1,-1,-1,-1,-1,-1,-1,-1,-1,-1,-1,-1,-1,-1,-1,-1,-1,-1,-1,-1,-1,-1,-1,-1,-1,-1,-1,-1,-1,-1,-1,-1,-1,-1,-1,-1,-1,-1,-1,-1,-1,-1,-1,-1,-1,-1,-1,-1,-1,-1],"split_conditions":[3.0819649E-1,3.1280637E-1,6.840679E-2,1.8373853E-1,5.288193E-1,6.720418E-1,2.1142848E-1,6.577632E-1,1.2561496E-1,1.0981958E-1,6.740898E-2,2.3254527E-1,8.6993736E-1,4.490731E-1,3.740398E-1,6.5430105E-1,8.855558E-1,2.3873566E-1,2.3852926E-1,4.22408E-2,1.9245249E-1,7.06687E-2,5.3521883E-2,4.8015112E-1,3.7643068E-2,4.746909E-2,9.0399367E-1,4.3568596E-2,5.9620726E-1,3.8811457E-1,4.8822126E-1,1.6214205E-1,8.776425E-1,8.446384E-1,9.165509E-1,6.2249087E-2,5.3428747E-2,2.27421E-1,2.2207442E-1,3.950407E-1,4.081483E-1,1.6264111E-1,2.27421E-1,8.602824E-2,7.080744E-2,5.957324E-1,1.3286793E-1,3.6316878E-1,8.622172E-2,3.625086E-2,3.9911676E-2,7.644933E-2,1.2481224E-1,2.7674291E-2,1.9461777E-2,3.667602E-1,3.6316878E-1,5.3428747E-2,6.720418E-1,3.3105195E-1,4.9229422E-1,3.8466668E-1,5.288214E-1,-7.7117095E-4,-4.8254142E-4,-2.353265E-4,-6.256175E-5,-2.111006E-4,-8.583842E-5,-1.9306533E-6,1.2468018E-4,-6.0725363E-4,-3.560687E-4,-3.5866944E-4,-1.06427695E-4,-1.3411212E-4,1.7462754E-4,2.5403782E-4,5.47775E-4,-4.3270146E-4,-1.7107789E-4,-1.1501635E-4,7.844253E-5,1.9743701E-4,3.6675893E-4,5.149086E-4,6.870772E-4,1.0075954E-3,4.5801303E-4,2.6566043E-4,6.1911595E-4,3.1501317E-5,3.334E-4,4.3774475E-4,7.5261807E-4,5.081705E-6,3.2668014E-4,5.755344E-4,1.0674702E-3,1.4021768E-3,1.1617508E-3,1.1400987E-3,9.0245187E-4,1.6779228E-3,1.226024E-3,1.3652517E-3,9.872521E-4,1.7513132E-3,1.8697357E-3,1.8811262E-3,1.9890713E-3,-2.3442545E-4,-4.1015617E-5,4.1448722E-5,2.681417E-4,3.3955273E-4,7.0288294E-4,9.2634716E-4,1.3114235E-3,2.833697E-4,4.888859E-4,7.0020574E-4,1.0410137E-3,7.8936893E-4,1.0379186E-3,1.1457494E-3,1.37554E-3],"split_indices":[3,2,4,3,2,3,2,5,2,3,0,2,3,3,3,1,5,3,2,3,3,5,3,3,0,1,3,2,3,2,3,2,1,5,5,2,2,3,3,2,2,3,3,4,3,2,3,3,2,1,1,5,1,2,2,3,3,2,3,3,2,2,3,0,0,0,0,0,0,0,0,0,0,0,0,0,0,0,0,0,0,0,0,0,0,0,0,0,0,0,0,0,0,0,0,0,0,0,0,0,0,0,0,0,0,0,0,0,0,0,0,0,0,0,0,0,0,0,0,0,0,0,0,0,0,0,0],"split_type":[0,0,0,0,0,0,0,0,0,0,0,0,0,0,0,0,0,0,0,0,0,0,0,0,0,0,0,0,0,0,0,0,0,0,0,0,0,0,0,0,0,0,0,0,0,0,0,0,0,0,0,0,0,0,0,0,0,0,0,0,0,0,0,0,0,0,0,0,0,0,0,0,0,0,0,0,0,0,0,0,0,0,0,0,0,0,0,0,0,0,0,0,0,0,0,0,0,0,0,0,0,0,0,0,0,0,0,0,0,0,0,0,0,0,0,0,0,0,0,0,0,0,0,0,0,0,0],"sum_hessian":[8E5,5.68635E5,2.31365E5,4.8919E5,7.9445E4,1.95464E5,3.5901E4,4.31588E5,5.7602E4,4.0511E4,3.8934E4,1.67731E5,2.7733E4,2.6267E4,9.634E3,4.03488E5,2.81E4,3.3763E4,2.3839E4,2.2837E4,1.7674E4,3.5597E4,3.337E3,1.5951E4,1.5178E5,8.986E3,1.8747E4,1.842E4,7.847E3,3.899E3,5.735E3,3.75413E5,2.8075E4,1.5594E4,1.2506E4,1.7313E4,1.645E4,1.7113E4,6.726E3,1.0594E4,1.2243E4,9.73E3,7.944E3,3.3575E4,2.022E3,1.71E3,1.627E3,1.1169E4,4.782E3,8.5926E4,6.5854E4,8.553E3,4.33E2,1.2494E4,6.253E3,5.867E3,1.2553E4,6.55E3,1.297E3,2.194E3,1.705E3,4.965E3,7.7E2,3.20679E5,5.4734E4,1.2459E4,1.5616E4,3.102E3,1.2492E4,9.371E3,3.135E3,9.705E3,7.608E3,8.135E3,8.315E3,7.304E3,9.809E3,2.606E3,4.12E3,5.51E3,5.084E3,7.36E3,4.883E3,6.811E3,2.919E3,2.609E3,5.335E3,3.2546E4,1.029E3,1.178E3,8.44E2,9.49E2,7.61E2,1.106E3,5.21E2,4.452E3,6.717E3,2.668E3,2.114E3,4.6573E4,3.9353E4,3.973E4,2.6124E4,8.404E3,1.49E2,3.26E2,1.07E2,7.72E3,4.774E3,4.1E3,2.153E3,3.016E3,2.851E3,6.314E3,6.239E3,2.966E3,3.584E3,9.3E2,3.67E2,8.85E2,1.309E3,1.348E3,3.57E2,2.802E3,2.163E3,5.35E2,2.35E2],"tree_param":{"num_deleted":"0","num_feature":"6","num_nodes":"127","size_leaf_vector":"1"}},{"base_weights":[3.881824E-7,-3.93715E-3,9.677808E-3,-5.3830654E-3,3.9241076E-3,1.088652E-2,3.5874017E-3,-5.8540907E-3,-1.3773342E-3,5.2513496E-4,8.07639E-3,9.793428E-3,1.4980464E-2,1.8850866E-3,6.379768E-3,-6.2544714E-3,-7.195757E-4,-3.3473708E-3,9.995167E-4,-2.0484277E-3,3.4126556E-3,8.574761E-3,3.090445E-3,2.57448E-3,1.0571418E-2,1.2997557E-2,1.622409E-2,4.4997354E-4,5.454723E-3,4.2446787E-3,7.997317E-3,-6.6333897E-3,-1.2531729E-3,-2.6392413E-3,-2.5182083E-4,-4.4255434E-3,-2.2058198E-3,-1.7030728E-4,2.8197407E-3,-3.3479892E-3,-9.49894E-4,1.9393859E-3,5.563459E-3,8.884171E-3,3.578936E-3,1.3269042E-3,4.612406E-3,9.2461536E-4,4.9646413E-3,1.1656507E-2,9.5571615E-3,1.3503158E-2,8.507019E-3,1.5605603E-2,1.6842766E-2,-9.932037E-4,1.3559281E-3,4.515807E-3,9.378771E-3,2.7349002E-3,6.3435924E-3,7.4328715E-3,1.0946517E-2,-7.084732E-4,-4.8189677E-4,-2.36528E-4,-6.988327E-5,-3.4107693E-4,-1.8986191E-4,-5.832065E-5,7.428007E-5,-5.495845E-4,-3.448135E-4,-3.279489E-4,-1.2538866E-4,-1.5641078E-4,8.482937E-5,1.4001527E-4,3.8733252E-4,-4.678626E-4,-1.9136273E-4,-1.6931188E-4,3.584525E-5,1.4496349E-4,3.067259E-4,5.938762E-4,3.5876132E-4,9.030886E-4,3.4716047E-4,2.2239516E-4,5.541946E-4,5.429412E-6,2.8905176E-4,3.6832987E-4,6.476443E-4,-2.3046325E-5,3.0775944E-4,3.004472E-4,7.238541E-4,1.27942E-3,1.0662322E-3,1.0645262E-3,8.5870456E-4,1.4169529E-3,1.1500026E-3,7.725988E-4,1.2181272E-3,1.5087522E-3,1.6150493E-3,1.6545113E-3,1.7741537E-3,-2.0872848E-4,-7.797043E-6,4.3568366E-6,2.553283E-4,2.8050801E-4,5.977909E-4,8.061773E-4,1.1343949E-3,1.6316983E-4,3.6585165E-4,5.427857E-4,8.473784E-4,6.128903E-4,8.531931E-4,1.0141078E-3,1.2614755E-3],"categories":[],"categories_nodes":[],"categories_segments":[],"categories_sizes":[],"default_left":[0,0,0,0,0,0,0,0,0,0,0,0,0,0,0,0,0,0,0,0,0,0,0,0,0,0,0,0,0,0,0,0,0,0,0,0,0,0,0,0,0,0,0,0,0,0,0,0,0,0,0,0,0,0,0,0,0,0,0,0,0,0,0,0,0,0,0,0,0,0,0,0,0,0,0,0,0,0,0,0,0,0,0,0,0,0,0,0,0,0,0,0,0,0,0,0,0,0,0,0,0,0,0,0,0,0,0,0,0,0,0,0,0,0,0,0,0,0,0,0,0,0,0,0,0,0,0],"id":11,"left_children":[1,3,5,7,9,11,13,15,17,19,21,23,25,27,29,31,33,35,37,39,41,43,45,47,49,51,53,55,57,59,61,63,65,67,69,71,73,75,77,79,81,83,85,87,89,91,93,95,97,99,101,103,105,107,109,111,113,115,117,119,121,123,125,-1,-1,-1,-1,-1,-1,-1,-1,-1,-1,-1,-1,-1,-1,-1,-1,-1,-1,-1,-1,-1,-1,-1,-1,-1,-1,-1,-1,-1,-1,-1,-1,-1,-1,-1,-1,-1,-1,-1,-1,-1,-1,-1,-1,-1,-1,-1,-1,-1,-1,-1,-1,-1,-1,-1,-1,-1,-1,-1,-1,-1,-1,-1,-1],"loss_changes":[3.0484241E1,6.463544E0,1.7031746E0,9.062147E-1,1.2467961E0,8.6377144E-1,1.8211782E-1,8.83482E-1,2.366373E-1,3.6100054E-1,9.878087E-2,8.557358E-1,1.001091E-1,1.2194654E-1,5.0081372E-2,7.5551033E-1,2.7915169E-2,3.4000635E-2,4.877092E-2,3.6666468E-2,7.25306E-2,5.5847168E-2,9.6966885E-3,5.8456942E-2,1.5126896E-1,3.549671E-2,9.302139E-3,2.2201898E-2,2.5107026E-2,1.9810423E-2,1.3660431E-2,3.0345535E-1,1.7308649E-2,3.4739897E-3,8.240186E-3,1.4846444E-2,1.3716042E-2,1.9797996E-2,1.339715E-2,2.244781E-2,1.3537326E-2,7.501252E-3,6.8794787E-3,2.7000904E-2,5.5999514E-3,3.3348654E-3,3.3360124E-3,2.1815445E-2,2.696231E-2,7.50227E-2,7.496071E-2,1.8652916E-2,4.468724E-3,3.2892227E-3,3.0460358E-3,6.5576094E-3,1.6392319E-2,1.3765171E-2,3.3171326E-3,3.7039723E-3,5.058959E-3,9.882212E-3,1.6510785E-3,0E0,0E0,0E0,0E0,0E0,0E0,0E0,0E0,0E0,0E0,0E0,0E0,0E0,0E0,0E0,0E0,0E0,0E0,0E0,0E0,0E0,0E0,0E0,0E0,0E0,0E0,0E0,0E0,0E0,0E0,0E0,0E0,0E0,0E0,0E0,0E0,0E0,0E0,0E0,0E0,0E0,0E0,0E0,0E0,0E0,0E0,0E0,0E0,0E0,0E0,0E0,0E0,0E0,0E0,0E0,0E0,0E0,0E0,0E0,0E0,0E0,0E0,0E0,0E0],"parents":[2147483647,0,0,1,1,2,2,3,3,4,4,5,5,6,6,7,7,8,8,9,9,10,10,11,11,12,12,13,13,14,14,15,15,16,16,17,17,18,18,19,19,20,20,21,21,22,22,23,23,24,24,25,25,26,26,27,27,28,28,29,29,30,30,31,31,32,32,33,33,34,34,35,35,36,36,37,37,38,38,39,39,40,40,41,41,42,42,43,43,44,44,45,45,46,46,47,47,48,48,49,49,50,50,51,51,52,52,53,53,54,54,55,55,56,56,57,57,58,58,59,59,60,60,61,61,62,62],"right_children":[2,4,6,8,10,12,14,16,18,20,22,24,26,28,30,32,34,36,38,40,42,44,46,48,50,52,54,56,58,60,62,64,66,68,70,72,74,76,78,80,82,84,86,88,90,92,94,96,98,100,102,104,106,108,110,112,114,116,118,120,122,124,126,-1,-1,-1,-1,-1,-1,-1,-1,-1,-1,-1,-1,-1,-1,-1,-1,-1,-1,-1,-1,-1,-1,-1,-1,-1,-1,-1,-1,-1,-1,-1,-1,-1,-1,-1,-1,-1,-1,-1,-1,-1,-1,-1,-1,-1,-1,-1,-1,-1,-1,-1,-1,-1,-1,-1,-1,-1,-1,-1,-1,-1,-1,-1,-1],"split_conditions":[3.0819649E-1,2.8705215E-1,6.60048E-2,1.9245249E-1,5.225734E-1,5.431159E-1,1.6620475E-1,5.9519684E-1,1.09421976E-1,1.00704096E-1,6.95874E-2,2.8153855E-1,8.459128E-1,4.5887795E-1,3.7776715E-1,6.5430105E-1,8.446384E-1,2.4449606E-1,1.9682895E-1,3.9051097E-2,1.9245249E-1,7.04384E-2,4.7005475E-2,4.1802403E-1,3.2667756E-2,7.484852E-2,8.8611925E-1,4.5619927E-2,5.9620726E-1,3.7042034E-1,4.9233952E-1,8.6460926E-2,8.689046E-1,6.577632E-1,9.035212E-1,4.6253875E-2,4.5046657E-2,2.3293021E-1,2.3293021E-1,3.7406978E-1,3.9833137E-1,1.5866446E-1,2.9293883E-1,1.0015059E-1,7.456329E-2,5.957324E-1,5.957324E-1,1.4305957E-1,1.0627198E-1,3.204975E-2,3.139248E-2,4.5395628E-2,1.2561496E-1,2.8137594E-2,9.1731846E-1,3.6316878E-1,3.6316878E-1,4.93366E-2,5.520452E-2,3.3537447E-1,4.8395526E-1,3.5530424E-1,5.354404E-1,-7.084732E-4,-4.8189677E-4,-2.36528E-4,-6.988327E-5,-3.4107693E-4,-1.8986191E-4,-5.832065E-5,7.428007E-5,-5.495845E-4,-3.448135E-4,-3.279489E-4,-1.2538866E-4,-1.5641078E-4,8.482937E-5,1.4001527E-4,3.8733252E-4,-4.678626E-4,-1.9136273E-4,-1.6931188E-4,3.584525E-5,1.4496349E-4,3.067259E-4,5.938762E-4,3.5876132E-4,9.030886E-4,3.4716047E-4,2.2239516E-4,5.541946E-4,5.429412E-6,2.8905176E-4,3.6832987E-4,6.476443E-4,-2.3046325E-5,3.0775944E-4,3.004472E-4,7.238541E-4,1.27942E-3,1.0662322E-3,1.0645262E-3,8.5870456E-4,1.4169529E-3,1.1500026E-3,7.725988E-4,1.2181272E-3,1.5087522E-3,1.6150493E-3,1.6545113E-3,1.7741537E-3,-2.0872848E-4,-7.797043E-6,4.3568366E-6,2.553283E-4,2.8050801E-4,5.977909E-4,8.061773E-4,1.1343949E-3,1.6316983E-4,3.6585165E-4,5.427857E-4,8.473784E-4,6.128903E-4,8.531931E-4,1.0141078E-3,1.2614755E-3],"split_indices":[3,2,5,3,2,3,2,5,2,3,4,2,3,3,3,1,5,3,2,3,3,0,3,3,0,1,3,2,3,2,3,3,1,5,5,2,2,3,3,2,2,3,3,5,3,2,2,2,2,4,4,4,2,2,3,3,3,2,2,3,2,2,3,0,0,0,0,0,0,0,0,0,0,0,0,0,0,0,0,0,0,0,0,0,0,0,0,0,0,0,0,0,0,0,0,0,0,0,0,0,0,0,0,0,0,0,0,0,0,0,0,0,0,0,0,0,0,0,0,0,0,0,0,0,0,0,0],"split_type":[0,0,0,0,0,0,0,0,0,0,0,0,0,0,0,0,0,0,0,0,0,0,0,0,0,0,0,0,0,0,0,0,0,0,0,0,0,0,0,0,0,0,0,0,0,0,0,0,0,0,0,0,0,0,0,0,0,0,0,0,0,0,0,0,0,0,0,0,0,0,0,0,0,0,0,0,0,0,0,0,0,0,0,0,0,0,0,0,0,0,0,0,0,0,0,0,0,0,0,0,0,0,0,0,0,0,0,0,0,0,0,0,0,0,0,0,0,0,0,0,0,0,0,0,0,0,0],"sum_hessian":[8E5,5.68635E5,2.31365E5,4.80295E5,8.834E4,1.93051E5,3.8314E4,4.2976E5,5.0535E4,4.8577E4,3.9763E4,1.52371E5,4.068E4,2.3804E4,1.451E4,3.98672E5,3.1088E4,2.7632E4,2.2903E4,2.5685E4,2.2892E4,3.6149E4,3.614E3,1.4824E4,1.37547E5,1.5684E4,2.4996E4,1.6979E4,6.825E3,6.256E3,8.254E3,3.70594E5,2.8078E4,6.09E3,2.4998E4,1.4209E4,1.3423E4,1.3943E4,8.96E3,1.1765E4,1.392E4,1.3587E4,9.305E3,3.404E4,2.109E3,1.675E3,1.939E3,8.771E3,6.053E3,6.6448E4,7.1099E4,1.4095E4,1.589E3,1.2513E4,1.2483E4,6.548E3,1.0431E4,5.509E3,1.316E3,3.64E3,2.616E3,6.931E3,1.323E3,2.96769E5,7.3825E4,9.339E3,1.8739E4,2.981E3,3.109E3,1.8751E4,6.247E3,6.78E3,7.429E3,6.307E3,7.116E3,5.887E3,8.056E3,3.818E3,5.142E3,6.102E3,5.663E3,8.877E3,5.043E3,9.475E3,4.112E3,7.818E3,1.487E3,3.3141E4,8.99E2,1.249E3,8.6E2,9.24E2,7.51E2,1.296E3,6.43E2,5.709E3,3.062E3,3.252E3,2.801E3,3.0982E4,3.5466E4,3.3507E4,3.7592E4,1.0572E4,3.523E3,1.313E3,2.76E2,6.429E3,6.084E3,9.392E3,3.091E3,2.982E3,3.566E3,4.977E3,5.454E3,2.54E3,2.969E3,7.91E2,5.25E2,1.66E3,1.98E3,1.832E3,7.84E2,3.173E3,3.758E3,8.97E2,4.26E2],"tree_param":{"num_deleted":"0","num_feature":"6","num_nodes":"127","size_leaf_vector":"1"}},{"base_weights":[3.8216865E-7,-3.510955E-3,8.795092E-3,-4.8543145E-3,3.4781059E-3,9.859112E-3,3.332402E-3,-5.270627E-3,-1.1921917E-3,4.6123457E-4,7.285684E-3,9.004872E-3,1.403204E-2,1.9048066E-3,6.4385207E-3,-5.6304587E-3,-6.4760714E-4,-2.986479E-3,8.2183356E-4,-2.0301573E-3,2.9350377E-3,7.7331965E-3,2.850175E-3,2.4457348E-3,9.5897885E-3,1.43015655E-2,9.480932E-3,4.5008643E-4,5.0503598E-3,4.8039714E-3,7.598199E-3,-5.970841E-3,-1.1278118E-3,-2.3729955E-3,-2.2663864E-4,-4.232687E-3,-2.2621641E-3,-3.4938124E-4,2.2022782E-3,-3.0565315E-3,-8.301162E-4,1.4576733E-3,4.642586E-3,8.016827E-3,3.337087E-3,1.5837864E-3,4.9074995E-3,8.092794E-4,3.93799E-3,1.0733522E-2,8.632363E-3,1.3362234E-2,1.48972245E-2,7.6704635E-3,1.1704569E-2,-1.2440429E-3,1.2508966E-3,4.3212255E-3,8.49359E-3,3.8193061E-3,7.093973E-3,7.1927635E-3,1.0128417E-2,-6.361519E-4,-4.2447285E-4,-1.7786531E-4,-3.191465E-5,-1.8781265E-4,-3.3234202E-4,-5.2489017E-5,6.6853405E-5,-5.0743116E-4,-3.3827065E-4,-3.362159E-4,-1.5340744E-4,-1.524809E-4,3.648842E-5,1.0749414E-4,3.0732734E-4,-4.048757E-4,-1.575787E-4,-2.2262815E-4,-2.1622636E-5,1.01752776E-4,2.2257173E-4,3.58142E-4,5.2723096E-4,8.161031E-4,3.652958E-4,1.8912033E-4,5.1191816E-4,5.0001876E-5,3.1063997E-4,3.743926E-4,6.2854966E-4,-4.7741654E-5,1.8093186E-4,2.0838981E-4,5.7144946E-4,1.1935016E-3,9.788959E-4,9.401341E-4,7.244321E-4,1.3513938E-3,8.301674E-4,1.4684882E-3,1.5967854E-3,6.296518E-4,1.0461727E-3,1.0028564E-3,1.2195347E-3,-1.9849108E-4,-4.6248064E-5,8.2212486E-5,2.903238E-4,2.8690425E-4,5.867138E-4,7.1841007E-4,9.958387E-4,2.7555725E-4,4.7529556E-4,6.3617056E-4,8.444316E-4,5.8933016E-4,8.0446684E-4,9.4426854E-4,1.1291639E-3],"categories":[],"categories_nodes":[],"categories_segments":[],"categories_sizes":[],"default_left":[0,0,0,0,0,0,0,0,0,0,0,0,0,0,0,0,0,0,0,0,0,0,0,0,0,0,0,0,0,0,0,0,0,0,0,0,0,0,0,0,0,0,0,0,0,0,0,0,0,0,0,0,0,0,0,0,0,0,0,0,0,0,0,0,0,0,0,0,0,0,0,0,0,0,0,0,0,0,0,0,0,0,0,0,0,0,0,0,0,0,0,0,0,0,0,0,0,0,0,0,0,0,0,0,0,0,0,0,0,0,0,0,0,0,0,0,0,0,0,0,0,0,0,0,0,0,0],"id":12,"left_children":[1,3,5,7,9,11,13,15,17,19,21,23,25,27,29,31,33,35,37,39,41,43,45,47,49,51,53,55,57,59,61,63,65,67,69,71,73,75,77,79,81,83,85,87,89,91,93,95,97,99,101,103,105,107,109,111,113,115,117,119,121,123,125,-1,-1,-1,-1,-1,-1,-1,-1,-1,-1,-1,-1,-1,-1,-1,-1,-1,-1,-1,-1,-1,-1,-1,-1,-1,-1,-1,-1,-1,-1,-1,-1,-1,-1,-1,-1,-1,-1,-1,-1,-1,-1,-1,-1,-1,-1,-1,-1,-1,-1,-1,-1,-1,-1,-1,-1,-1,-1,-1,-1,-1,-1,-1,-1],"loss_changes":[2.4705017E1,5.3679256E0,1.3267536E0,7.31123E-1,1.0588199E0,6.8091965E-1,1.650095E-1,7.163143E-1,1.7690587E-1,3.1697384E-1,8.0860615E-2,6.0842323E-1,3.9684296E-2,1.1667401E-1,2.217555E-2,6.1229324E-1,2.2586273E-2,2.335903E-2,3.7292197E-2,3.1558312E-2,6.509328E-2,4.6123505E-2,9.725895E-3,3.170874E-2,1.593523E-1,1.6948223E-2,7.229179E-3,2.3656558E-2,2.0206094E-2,1.0945186E-2,6.957233E-3,2.5044918E-1,1.4778297E-2,2.862338E-3,6.6747484E-3,6.7895353E-3,1.3109498E-2,1.047752E-2,1.0392129E-2,2.028519E-2,1.0125201E-2,4.675349E-3,7.979989E-3,2.184987E-2,5.775014E-3,3.8169143E-3,2.258107E-3,7.972257E-3,2.2359602E-2,7.517624E-2,8.453655E-2,9.025097E-3,4.02689E-3,3.7883446E-3,5.472526E-4,3.2399371E-3,8.385982E-3,1.49255395E-2,2.6291907E-3,3.36859E-3,1.3919175E-3,6.4950883E-3,6.463751E-4,0E0,0E0,0E0,0E0,0E0,0E0,0E0,0E0,0E0,0E0,0E0,0E0,0E0,0E0,0E0,0E0,0E0,0E0,0E0,0E0,0E0,0E0,0E0,0E0,0E0,0E0,0E0,0E0,0E0,0E0,0E0,0E0,0E0,0E0,0E0,0E0,0E0,0E0,0E0,0E0,0E0,0E0,0E0,0E0,0E0,0E0,0E0,0E0,0E0,0E0,0E0,0E0,0E0,0E0,0E0,0E0,0E0,0E0,0E0,0E0,0E0,0E0,0E0,0E0],"parents":[2147483647,0,0,1,1,2,2,3,3,4,4,5,5,6,6,7,7,8,8,9,9,10,10,11,11,12,12,13,13,14,14,15,15,16,16,17,17,18,18,19,19,20,20,21,21,22,22,23,23,24,24,25,25,26,26,27,27,28,28,29,29,30,30,31,31,32,32,33,33,34,34,35,35,36,36,37,37,38,38,39,39,40,40,41,41,42,42,43,43,44,44,45,45,46,46,47,47,48,48,49,49,50,50,51,51,52,52,53,53,54,54,55,55,56,56,57,57,58,58,59,59,60,60,61,61,62,62],"right_children":[2,4,6,8,10,12,14,16,18,20,22,24,26,28,30,32,34,36,38,40,42,44,46,48,50,52,54,56,58,60,62,64,66,68,70,72,74,76,78,80,82,84,86,88,90,92,94,96,98,100,102,104,106,108,110,112,114,116,118,120,122,124,126,-1,-1,-1,-1,-1,-1,-1,-1,-1,-1,-1,-1,-1,-1,-1,-1,-1,-1,-1,-1,-1,-1,-1,-1,-1,-1,-1,-1,-1,-1,-1,-1,-1,-1,-1,-1,-1,-1,-1,-1,-1,-1,-1,-1,-1,-1,-1,-1,-1,-1,-1,-1,-1,-1,-1,-1,-1,-1,-1,-1,-1,-1,-1,-1],"split_conditions":[3.129796E-1,2.8153855E-1,6.591821E-2,1.9716947E-1,5.225734E-1,5.752477E-1,2.0641673E-1,5.9519684E-1,1.0319753E-1,9.475864E-2,6.591821E-2,2.1142848E-1,4.855217E-2,4.490731E-1,3.8128483E-1,6.5430105E-1,8.446384E-1,2.3293021E-1,1.7894192E-1,3.7406978E-1,1.7920502E-1,6.701567E-2,7.456329E-2,4.0168148E-1,3.08575E-2,8.6993736E-1,9.1413826E-2,4.220441E-2,5.9620726E-1,4.490822E-1,4.9676958E-1,9.475864E-2,8.855634E-1,4.419399E-2,9.035212E-1,4.6253875E-2,3.6293406E-2,2.3293021E-1,2.3873566E-1,5.1022258E-2,2.3544086E-2,1.434178E-1,2.2207442E-1,7.644933E-2,7.2899014E-2,5.957324E-1,1.3635938E-1,7.443718E-2,7.623287E-2,3.0271646E-2,4.2866275E-2,1.1490855E-1,9.1731846E-1,6.720418E-1,1.29116E-1,3.7054747E-1,4.0835848E-1,6.4689785E-2,4.7748458E-2,2.980583E-1,4.9677262E-1,3.592111E-1,5.288214E-1,-6.361519E-4,-4.2447285E-4,-1.7786531E-4,-3.191465E-5,-1.8781265E-4,-3.3234202E-4,-5.2489017E-5,6.6853405E-5,-5.0743116E-4,-3.3827065E-4,-3.362159E-4,-1.5340744E-4,-1.524809E-4,3.648842E-5,1.0749414E-4,3.0732734E-4,-4.048757E-4,-1.575787E-4,-2.2262815E-4,-2.1622636E-5,1.01752776E-4,2.2257173E-4,3.58142E-4,5.2723096E-4,8.161031E-4,3.652958E-4,1.8912033E-4,5.1191816E-4,5.0001876E-5,3.1063997E-4,3.743926E-4,6.2854966E-4,-4.7741654E-5,1.8093186E-4,2.0838981E-4,5.7144946E-4,1.1935016E-3,9.788959E-4,9.401341E-4,7.244321E-4,1.3513938E-3,8.301674E-4,1.4684882E-3,1.5967854E-3,6.296518E-4,1.0461727E-3,1.0028564E-3,1.2195347E-3,-1.9849108E-4,-4.6248064E-5,8.2212486E-5,2.903238E-4,2.8690425E-4,5.867138E-4,7.1841007E-4,9.958387E-4,2.7555725E-4,4.7529556E-4,6.3617056E-4,8.444316E-4,5.8933016E-4,8.0446684E-4,9.4426854E-4,1.1291639E-3],"split_indices":[3,2,0,3,2,3,2,5,2,3,0,2,4,3,3,1,5,3,2,2,3,1,3,3,5,3,2,2,3,2,3,3,1,1,5,2,2,3,3,3,3,3,3,5,3,2,3,2,2,1,1,1,3,3,2,3,3,2,2,2,2,2,3,0,0,0,0,0,0,0,0,0,0,0,0,0,0,0,0,0,0,0,0,0,0,0,0,0,0,0,0,0,0,0,0,0,0,0,0,0,0,0,0,0,0,0,0,0,0,0,0,0,0,0,0,0,0,0,0,0,0,0,0,0,0,0,0],"split_type":[0,0,0,0,0,0,0,0,0,0,0,0,0,0,0,0,0,0,0,0,0,0,0,0,0,0,0,0,0,0,0,0,0,0,0,0,0,0,0,0,0,0,0,0,0,0,0,0,0,0,0,0,0,0,0,0,0,0,0,0,0,0,0,0,0,0,0,0,0,0,0,0,0,0,0,0,0,0,0,0,0,0,0,0,0,0,0,0,0,0,0,0,0,0,0,0,0,0,0,0,0,0,0,0,0,0,0,0,0,0,0,0,0,0,0,0,0,0,0,0,0,0,0,0,0,0,0],"sum_hessian":[8E5,5.71733E5,2.28267E5,4.79558E5,9.2175E4,1.91053E5,3.7214E4,4.30606E5,4.8952E4,5.1428E4,4.0747E4,1.58591E5,3.2462E4,2.5497E4,1.1717E4,3.9951E5,3.1096E4,2.5888E4,2.3064E4,2.5623E4,2.5805E4,3.7012E4,3.735E3,1.2985E4,1.45606E5,3.0645E4,1.817E3,1.7435E4,8.062E3,4.865E3,6.852E3,3.71431E5,2.8079E4,6.098E3,2.4998E4,9.514E3,1.6374E4,1.2478E4,1.0586E4,1.381E4,1.1813E4,1.3836E4,1.1969E4,3.4768E4,2.244E3,2.313E3,1.422E3,6.194E3,6.791E3,6.6343E4,7.9263E4,1.1901E4,1.8744E4,1.004E3,8.13E2,5.596E3,1.1839E4,6.655E3,1.407E3,3.404E3,1.461E3,5.909E3,9.43E2,3.02877E5,6.8554E4,1.5557E4,1.2522E4,4.012E3,2.086E3,1.8751E4,6.247E3,4.778E3,4.736E3,6.52E3,9.854E3,4.716E3,7.762E3,4.615E3,5.971E3,8.268E3,5.542E3,3.607E3,8.206E3,8.797E3,5.039E3,4.46E3,7.509E3,3.3655E4,1.113E3,1.24E3,1.004E3,1.352E3,9.61E2,7.73E2,6.49E2,2.709E3,3.485E3,3.324E3,3.467E3,2.9195E4,